-2.267808385806715232e-01 6.704907579370468496e-02 2.004054899720778826e-01 -3.306222349851035691e-01 2.276983069320617226e-01 1.026966723992535913e-01 -1.151502280137971929e-01 4.407772278383521869e-02 8.818656066485196232e-02 -2.809863144422100056e-01 -2.435838143842619652e-01 1.674988205991203571e-01 7.996506677700446208e-02 -6.219955283299365839e-02 -5.127612008805048499e-02 -4.080783485818605810e-02 2.281998927305719724e-02 -4.269160793935735110e-01 1.569296281795682368e-01 1.156874824821050585e-01 -4.455417115356947177e-01 2.948210862072293548e-01 -2.974553604871095214e-01 -3.132967197774511048e-02 -5.190838716272332815e-02 -1.133262020800432368e-01 -3.873281514505612644e-01 -2.181026056105674626e-01 6.460655377278817779e-02 2.316397687630225299e-01 -1.718980539936634522e-01 -2.327530218975710774e-01 1.954340481663644769e-01 9.982812868703590248e-02 -2.049831498923087789e-02 1.382687924559486588e-02 3.641908030247154038e-02 -3.312940550134174655e-01 1.656540352768730295e-01 -7.622878616947449670e-02 -1.161090026374196477e-01 5.150704223716474905e-03 3.007977382194166882e-01 1.169612560811268964e-01 4.498297003050186205e-02 -1.375225443837587991e-01 2.602903910274453336e-01 -7.401468499987794679e-03 8.861249821715726227e-02 -1.030915372109950517e-01 3.827638459614971511e-01 8.078763551142188748e-02 2.196897706137507789e-01 3.519610204746007748e-02 -2.127492922372609396e-01 -4.101827222895872982e-01 -1.881910981966310181e-01 -2.046243306764043979e-01 -2.219857048480800010e-01 -3.202771910015890233e-01 4.107938523895334620e-02 1.719198241630957857e-01 -4.708317006460843168e-01 -1.590948013553383777e-01 -2.130827610867669641e-01 4.433558805039176653e-01 -4.863326394143951265e-03 1.279325746088661730e-01 2.081808864092284939e-01 -7.617184819179288746e-02 -1.618317717926645583e-02 5.925358538867744190e-02 -2.461557041159242731e-01 -2.114279391001670002e-03 -1.040475450297189131e-01 1.015012753812312429e-01 -2.284672021822223842e-01 3.671213125044020531e-01 -6.917914674663613872e-02 -1.098676324296204571e-01 -2.100955591829667402e-01 -2.475161614152034950e-01 -2.732282938604790323e-01 1.096557986186123546e-01 4.481100123520671830e-02 -2.083032148456102906e-01 2.584689458799487305e-01 2.542725101238136332e-01 4.303360519531676531e-02 -1.961353721132477745e-01 1.388215716895323248e-01 -2.901897417715258998e-01 -1.732155322402773728e-02 2.697943790349928705e-01 3.193680556742686805e-01 -7.371869685309097309e-02 -1.518285476057247285e-01 -5.105083029580913256e-02 -3.846746604624308175e-01 4.129540066777868668e-01 -1.627093276831195409e-02 7.965501555966568448e-02 -1.855244260977013671e-01 2.485647210173098087e-01 -1.213056754380218011e-01 -5.371091362051420015e-01 2.011637401019724936e-01 3.177970634115839244e-01 5.916511852491762591e-01 4.901320725324395666e-01 2.356174700830562102e-02 -1.469579917275829796e-02 1.352043529357495888e-01 -3.042537173110131388e-01 3.724549047683560835e-03 1.385992123480953020e-01 1.373985760716822380e-01 -3.080751119151717843e-01 -2.221070889082351063e-01 4.951742310392671098e-01 2.481750323010684101e-01 1.597873879555531396e-01 -2.046564320653114222e-01 -1.089737525800728996e-02 -1.165126314810580183e-01 -2.173961920105877896e-02 2.531986901571757209e-01 -3.214201924034225666e-01
-1.349871814761555433e-01 -1.368851458638487874e-02 -4.749846155843120976e-02 -2.579115491177067648e-02 -5.332002027411190948e-02 2.384425974784198099e-01 1.872488133629901241e-01 8.379053614932113498e-04 2.294761198398693192e-01 -2.532250005772431201e-01 -2.126176468614734971e-01 4.395725856891499195e-01 3.692686340689960711e-01 -1.522918281522190644e-02 -1.795337106591412546e-01 3.076834523529621834e-01 8.115895284668060705e-02 -4.212875786477502382e-01 4.446385028134536843e-01 1.538117923726074476e-01 -2.208328139362009668e-01 -1.398514198220519589e-01 2.359548104265480062e-01 -2.745556514127767689e-01 -7.521809737984869182e-02 3.049460140063663810e-02 -3.189281001095051749e-01 -2.705749032996525028e-01 -1.808692228175843852e-01 5.872477913588766141e-01 3.802191651605081602e-02 -2.348624846758031182e-01 -1.232892194492417742e-01 -3.461164888123048344e-01 -1.382398803216043082e-01 7.298091063134307110e-02 -8.279299981730593727e-02 -2.769405138484883899e-01 6.337672412141087674e-02 2.698392475205361740e-01 -3.555020741463924550e-01 -6.187423248646563984e-02 -7.066904348943971181e-02 1.726807376875488798e-01 2.274022321862172180e-01 -2.502511522214761475e-01 -1.736167291675914381e-01 -6.908347569428725798e-02 -2.364333423356716202e-01 -5.566496356629271336e-01 1.022738684098666029e-01 6.751707379929763886e-02 3.982412569694226967e-01 1.460068610166644770e-02 -2.536516009880267902e-02 -4.123130030775277177e-01 -3.757193654343191774e-02 8.284552826825487826e-02 -2.863049343293183613e-01 -4.143499461219541380e-01 -2.676787296857466858e-01 -5.010531004422302814e-02 -2.813308706100323131e-01 1.380288602459902626e-02 8.505943603616951398e-02 3.734821084115028667e-01 -1.269925001037739976e-01 4.792573347307704790e-02 -1.333429363366027132e-01 1.827495522605510070e-01 -2.960919882210870102e-01 1.494187882764645980e-01 -5.299487572452319523e-02 3.756314656408091257e-01 -2.804305290243102045e-01 5.332962837820644925e-02 -2.855573299941529530e-01 7.898746335233637617e-02 1.772186599872877799e-01 1.479173600830900603e-01 -9.840982602804118629e-02 -2.958435948327440834e-01 -2.265985291545846714e-01 5.849876099738875873e-02 -4.092682947942445915e-01 7.253644518056785728e-02 2.382590430967946316e-01 2.438809189643151021e-01 -1.771918973176294099e-01 -2.468846819491419542e-01 1.171214267952403049e-01 6.671932570837825482e-02 -9.953323729421759136e-02 1.946787835766696784e-01 6.427041900815504416e-01 -7.760145348538982635e-02 4.308198666182078314e-03 -1.477472438570498481e-01 -8.287599243760294943e-02 3.439916605665057636e-01 -7.824187466005173841e-02 9.307508222817140187e-02 -1.466461363247508441e-02 5.388953402816812899e-01 -2.589989505908190659e-01 -2.058737537192176920e-02 1.734802701141005821e-01 7.536662865463490679e-02 4.734292043374949133e-01 3.661267955905602722e-01 3.503200177776875091e-01 5.270610613418901663e-02 5.405460236908789934e-02 -3.571975618733582158e-01 2.446181799760158149e-01 -1.994178739863011196e-01 -1.675196074423245807e-01 6.186467468201201775e-02 2.309685970824524592e-01 6.611878007126621437e-01 1.122281778127843209e-02 1.969474804526417933e-01 -4.973004620363382505e-02 1.259777939854774820e-01 -1.383685376036216941e-01 -4.642144162369143956e-02 4.078348593381473375e-01 -1.953809118121317689e-01
1.039468702967723812e-01 -4.556870793805636866e-01 1.498435910803158355e-01 -3.759529307711510088e-02 1.700857159151531184e-01 4.403990395479099318e-01 4.767131434189871286e-01 -1.603999054041232164e-01 8.496180215886202369e-02 -1.317557903631739746e-01 4.280744659671706538e-03 -4.433425094611105621e-02 -1.475757360467190304e-01 1.842453939164675203e-01 4.280609642186106178e-01 -1.075126922633360196e-02 1.279562487366190382e-01 5.350319580757539883e-01 3.341503918359996494e-01 -1.585799787171707775e-01 -1.754465395519933524e-01 -1.251907105302458301e-01 3.171776497187587807e-01 -3.336905742477932479e-01 -5.481881858466309404e-02 -5.093638380118675757e-01 8.768696265841514903e-03 -9.429772132712815891e-02 -3.041296365801962054e-01 -9.578611920709184657e-02 3.626465296519879589e-01 2.870178492155236460e-01 -3.175304061270557421e-01 2.365143602315366023e-01 -3.958901271773089814e-01 -1.613246059099874563e-01 4.838778558836936972e-02 -3.369544526311879507e-01 -1.711265868454504013e-01 9.937216024934132641e-02 -7.205408295520499516e-03 5.584181833871323247e-02 5.424211793544628929e-02 5.975467277279643552e-01 1.541154057871840788e-01 2.037143511810951269e-01 3.022634909811027781e-01 2.240789418209846451e-01 -3.944298257663721250e-04 -5.636959649619103369e-02 -1.489964833709104264e-01 3.612748258890312036e-01 -2.345046575737303463e-01 -8.041188494920054053e-03 -1.307593089278546727e-01 -1.457356935560792828e-02 -3.542260547768696921e-02 2.218564156322226089e-01 -3.538297165620707396e-02 1.965283569427717647e-01 -1.780500501268587887e-01 1.172562657514193418e-01 -1.989848883332352436e-01 3.494229012179913552e-01 2.655307766846125208e-03 1.609695497159361888e-01 -1.412184801928526023e-01 4.089118624925112688e-01 1.990556317195770197e-01 -1.260606063992008308e-01 -2.428742639724864594e-01 -5.211052516416748714e-01 -8.639305964965192375e-02 2.567967212152598711e-01 1.311403139198590861e-01 -3.150750693498176047e-01 6.255274664112464578e-02 -2.243524126948793357e-02 1.104939861271120594e-01 1.920081199289385421e-01 -1.907119491289731572e-01 -3.595641267673325460e-03 2.703318904051341121e-01 -1.458843756098453237e-01 4.024186631872985753e-01 -2.958658038978899119e-01 6.529210188817827221e-02 -3.903893425399473927e-01 2.572355053641360856e-01 4.164111399633327326e-01 -2.415424828079610065e-01 2.554578746223805721e-02 -1.862874261632046224e-01 5.123128772637263600e-02 -2.989432634678794720e-01 -3.498446285571023967e-03 -1.945402925629483026e-01 -6.504120137393769596e-01 -2.389981417820084553e-01 1.781997560323680396e-01 -2.829235335257772321e-02 2.624709272929044990e-01 -1.233454203660737658e-01 1.281858286815369119e-01 1.103201439281462082e-01 -2.480389220224379632e-01 2.244244521143072268e-01 -1.380945479924240438e-01 -1.180392088201202838e-02 -2.934285323737468310e-01 2.157184712558214701e-01 -1.704187420731953229e-01 -8.034607715299232900e-02 -1.019576648122003104e-02 1.053941260843812427e-01 4.679763684632154974e-01 4.785589626455105661e-01 -4.173106585166705407e-02 -6.866727301316218057e-02 -8.283438665260874079e-02 2.585184128078929153e-02 7.742194510807313967e-02 -2.979268605089718108e-02 1.631875324513156478e-01 2.085907500189095598e-01 4.375799971102906083e-01 -1.273307021429014307e-01 1.692800028463209705e-01
-2.769292651958968690e-02 4.885681632014927597e-03 -9.246262949116837437e-02 5.765383237885481071e-02 -3.118519481379025682e-01 4.924278738245776443e-01 6.076907026319246924e-02 -1.790344910603025030e-01 -3.191763551735442989e-02 2.147732083994829677e-01 -4.139876770087722591e-01 -2.845280897585177882e-01 -6.496663354050020989e-02 -1.363740115022781529e-01 1.443700920051315395e-01 -9.244018341637330952e-03 1.446038136550096241e-02 3.624831351515513389e-01 3.707241892524916760e-01 -1.284347301744902942e-02 4.253290611718203995e-01 -1.548841368856840872e-01 4.149349765386840527e-01 -2.302251651050893355e-01 -2.244687845754621547e-01 1.546756299595598849e-01 9.639440210542672693e-02 2.134686494976026916e-01 1.396598138349225970e-01 6.800830521277065888e-01 2.792000934106523280e-01 4.561389552969652428e-01 -8.120628504378094026e-02 3.423070307867200901e-01 -7.964023821819478377e-02 -3.219239651736063856e-02 4.104791791029970827e-01 1.785686408872509956e-01 -1.482399415435737000e-01 -7.630895502683301967e-02 -7.084433331630084207e-02 -1.520001574529181443e-01 1.854940733342777814e-01 2.013096398231165873e-01 1.919544968648036476e-01 2.922551133917007382e-01 -3.335804770452179685e-02 2.034585105028333674e-01 -2.334508958456394112e-01 4.722327190295235178e-01 5.349338124608787881e-01 -1.189123923730722732e-01 1.355625602713073433e-02 1.125262308707507541e-01 -1.264210796756095045e-01 -7.540458787396481233e-02 1.603142945236051831e-01 3.222081473241755756e-01 1.752389022602702726e-02 3.799997835357253329e-01 -2.647083138759688259e-01 -9.298830347541291175e-02 7.138637094133229444e-02 3.405501838416957749e-01 -2.422855158522624064e-01 2.682351561669120144e-01 -1.246769002227287731e-01 2.808251128977715116e-01 1.721901507146692822e-01 2.643221055711001410e-01 -3.945634341911593568e-01 1.463629213825322906e-01 -2.753821151408986090e-01 8.902116822358535630e-02 -3.140657541064673097e-01 -2.584257580422563705e-01 -3.860810261956996725e-01 -1.578613116626394752e-01 1.735474203511309585e-02 -1.209117603325364915e-01 -1.588387747046089982e-01 -4.574146511873176113e-01 -4.399169866599809270e-02 -3.355696821351786263e-01 -3.258714201899127194e-01 -4.648856516914433579e-01 3.372867732586022904e-01 -2.565425739977184594e-01 1.198196265594889814e-01 -1.367287970315858407e-02 -5.997014425863937681e-02 -1.054094820224989008e-02 -5.675139246934922388e-02 3.812164674837577039e-01 5.450881737656981113e-02 1.067132502677556882e-01 -2.199258078240320380e-01 -4.616410754755443935e-01 2.333281390658523691e-01 -1.861554602827811267e-02 -2.017153710032164871e-01 2.042038095234317840e-01 -2.774321015859982920e-01 3.488328757679611258e-01 2.469970006540704033e-01 -3.445051675927444934e-02 1.773966489202832286e-01 -2.704131185765440993e-05 -1.649905104198927386e-01 1.696778555676090594e-01 9.804139996194632944e-02 -3.227199295248195932e-01 1.862519635168356502e-01 7.951618145532601822e-02 -1.521907651097190173e-01 9.024244956895904890e-02 3.988949985954906574e-01 4.092342431881056120e-02 -4.893565136341212485e-01 1.002880605073274284e-01 7.030416450107601634e-02 3.991561357448311642e-02 2.068491129288889119e-01 2.772886554408645621e-01 -1.325831094511581709e-01 2.110239090167281562e-01 3.238777534386710899e-02 -1.771436674409250164e-02
-7.889443081598401797e-02 -1.240314829362476005e-03 -5.528403982684101242e-02 1.426379178885531507e-01 -1.103239102180692544e-01 -6.075580889194034939e-02 1.518632296910764623e-01 -1.732415642871253797e-02 -7.641302886581351206e-02 -9.063950201944891150e-02 2.658767625997854323e-01 -2.536764589279063564e-01 1.885572060682558782e-01 7.056950750292965979e-02 2.134688081376601154e-01 1.426303737015265603e-02 3.026082509278662513e-01 1.416681561789175092e-01 2.754154961926251824e-02 -1.291784282685362328e-01 -6.530402880266777954e-02 8.480417773496230771e-02 2.303791459769331806e-01 7.982140127674626495e-02 9.172279287840838513e-02 3.349608120475199707e-03 2.409118410067825622e-01 6.903858265028701806e-03 -8.153579915884394402e-02 -1.529356119236262579e-01 -8.472454323451711344e-02 -2.143153100212893958e-01 7.730392322653392712e-03 -1.439820861982290812e-01 6.944395205477957300e-02 -1.338278243403195900e-01 -2.955256546316227806e-01 1.088979605026108854e-01 -5.522178673901485813e-02 2.480305791965331866e-02 1.589791430671736727e-01 9.132124304022588498e-03 4.764158101844902238e-02 2.659827828090247648e-01 -1.620965868728470316e-01 1.052061002124597411e-01 1.536968478670218408e-01 -6.234215541792545445e-02 1.729983152141931213e-02 -1.486717136981596105e-02 -1.080102258191418946e-01 -8.772511831819207462e-02 -2.955662593510410916e-03 -2.773874300647103525e-03 3.727382290403374876e-02 3.518072775855541900e-01 4.784157087338504477e-02 4.590518212751373145e-02 -1.064627800085217110e-02 -1.779832536112794725e-02 -1.868462529711827358e-01 6.847686496588601150e-04 7.208820170875841760e-02 6.252170046990266315e-03 9.396555175387553971e-02 -1.993248802459290647e-01 -1.253104354572225632e-01 -1.482289793196159555e-01 -4.222141419510984373e-02 -7.947432921511143888e-02 -1.756774167710198065e-01 -7.639051645019218073e-02 2.399350583407026116e-01 -2.155134110721276808e-01 1.706251248255925557e-01 2.461623837374515567e-01 2.184998122945317200e-01 9.449085120434062846e-02 -6.287402777769099393e-02 -6.361723689701181961e-02 2.851375530894999580e-02 5.472769868110807789e-02 1.025581278875231234e-01 -2.314380237595305700e-01 3.694477169591400822e-01 -2.006864439227616093e-01 6.780205354821230990e-02 -7.205925348514502504e-02 -4.181515191332279419e-02 1.038609609012117047e-01 -2.926931974314055385e-01 -4.548707652852806982e-02 4.633821006831963935e-02 -8.297532029609172577e-02 -2.461188712698268166e-01 -4.756998014161708394e-02 -5.390350712223881957e-02 -1.220356615801054256e-01 -2.490189922101368747e-01 4.610394730294210125e-02 -2.917632800436285867e-02 -6.845836016728794327e-02 -4.679984833990924464e-02 -2.175921788844854127e-02 -3.117878418745768654e-01 -2.778285349880499355e-01 -2.602659089629710820e-02 -2.631973126046731060e-01 7.429481415858854576e-02 -1.849703812311295770e-01 -2.012658785649326376e-01 4.795063069644026066e-02 -6.733086827717166267e-02 -1.852176402047007731e-01 3.167609151578485577e-02 2.718424439604312237e-01 -3.362441166257131020e-02 4.217729319878379263e-02 1.757434391057996134e-02 -1.775001389248190564e-01 -1.667926402480438552e-01 -2.934032569023787285e-01 1.347497966605851194e-01 -1.927242826004016418e-01 1.579098549486726843e-01 -6.337273351962904866e-02 -8.566364040984782158e-02 1.451781255564833784e-01
2.095639161304636844e-01 -1.726445632983431011e-01 3.572379419606087625e-01 8.700640142626070439e-02 -5.455492372430659209e-02 -2.388825544618898011e-01 1.951402559284754756e-01 7.339512941446933725e-02 1.295505132666798509e-01 1.708212912061184141e-01 -1.415179552888401748e-01 1.730796648872568594e-02 -2.075783917381901836e-02 -2.077205211725965672e-01 4.945800125760817928e-02 8.869978210431357646e-02 -3.299749717632085022e-01 -2.614314750784663133e-01 2.534572310106828485e-01 1.896085327889068806e-01 2.504241942015090761e-01 -2.063927755244865103e-01 -1.266200294303727603e-01 -2.598345140988819191e-01 1.648228474448950875e-01 -1.841141599574944443e-01 4.980131243975165212e-02 -4.923700467130533442e-01 2.772424857541477827e-01 -4.856956306268377932e-01 1.564134692942747429e-01 2.490389920484370190e-01 -3.817423319431380024e-01 3.274276852394606419e-01 -2.148619556921753937e-01 -5.708534937053529740e-02 -9.760776119437658549e-02 -1.431716287970163926e-01 -2.083071129889981984e-02 -2.852132491000807790e-01 -1.521921167584094903e-01 -1.865002953917290762e-01 -1.135478769095300405e-01 4.131285769219744108e-01 3.084707603494397238e-02 1.676689067042507475e-01 6.405603070582316372e-02 1.316183065849893530e-01 -1.698316213598147773e-01 -4.334542068870596981e-03 9.443329020206187724e-03 -7.100665307984402319e-02 1.172298533567633083e-01 -2.311853670607003433e-02 8.248800499212834147e-02 1.103231759341725265e-01 5.519313343056644373e-03 2.441173298982233786e-01 3.515090465900123085e-01 8.419726798863140516e-02 -2.101748596947781988e-01 -2.527014474904392682e-01 2.456360029520258947e-01 -3.436202841581562084e-01 -1.682125587384413479e-01 6.223230666683395029e-02 -3.013012141011654418e-02 4.993490480206873028e-01 -6.379867007685435798e-02 1.238206091392123065e-01 -2.483777048115058117e-01 -1.815606467320430850e-01 2.675114946978909836e-01 8.551293839990713186e-02 4.149357873081592485e-02 4.186438828293750219e-02 2.523097858004927363e-01 1.096196228175655984e-01 1.166493787088431072e-01 -1.647122948325217273e-01 -2.077287048659956226e-01 2.384290751023313837e-01 1.998523571333973570e-01 -1.572931295033247190e-01 3.834413448158053433e-02 -1.021219908315425945e-01 -1.742852988725145102e-01 -1.298812484745679452e-01 -9.776686617170725346e-02 1.509188564568071655e-01 8.195750052284909992e-02 1.939703553431890160e-01 -1.536320482951485655e-01 4.079769962481345491e-01 -7.622745998554406044e-02 -2.728964867020703955e-01 6.788882625396383541e-02 -3.015847204445167851e-01 1.580938049616238683e-01 -7.632479569820038723e-02 1.509069204844729062e-01 -1.869623174501992280e-01 -3.025594855752304912e-01 1.885647151623980611e-01 6.638921328307305358e-02 -1.029577265070835829e-01 -5.643533425512071294e-02 -3.523895907752287726e-02 8.919082885034117225e-02 -1.604474398486788883e-02 1.913838513119128781e-02 2.344531737123211890e-01 1.411492419206512583e-01 -1.755855313647397553e-01 -2.287744157946226542e-01 -1.539423052775404366e-01 1.801807260591865856e-01 8.483594913017207528e-02 -1.971911559570888317e-01 1.777347671835262030e-02 7.804548447097185704e-02 1.383485340088062010e-01 2.127870185095286359e-01 -1.462119496682839359e-01 2.244336910295149645e-01 2.471293821826951453e-01 -1.362061000136302602e-01 -2.472186909137259470e-01
5.727489773523940231e-02 -5.120927015556083622e-02 5.148308473758257398e-01 4.854275013385123648e-03 4.923154879602308076e-02 -1.312657372866395944e-01 3.294297817869171197e-01 1.170306569742949332e-01 -2.346570348117508337e-02 2.140683349494542087e-01 7.866378917058901299e-02 -9.778663355506590771e-02 -6.823305960326235542e-02 -3.442213614160582330e-02 -3.567786520732526417e-02 -1.755862086450534487e-01 -2.351232860825539731e-03 1.589628574785667200e-02 1.246867732165541365e-01 7.173381050045252172e-02 3.313612189572010536e-01 6.447219657383643221e-02 -1.507380181312922840e-01 8.340046668757528092e-02 1.613660395645565293e-01 -2.379645017208829177e-02 4.039091231608775145e-01 -3.138885276977231020e-02 2.148002026767333386e-02 2.178025297608631589e-02 5.433272835164972003e-02 5.052160772905892050e-02 -9.359256646075618524e-02 3.685406007111028948e-01 -6.841235981592905246e-02 4.085495587439363918e-01 -1.719351113991728630e-01 4.476741580778043073e-01 -1.428459022985524574e-01 -1.038531037309318866e-01 1.973076440728856462e-01 -1.500035517758243134e-02 -8.849747870052755705e-02 7.829593910184225181e-02 -2.577943307401547868e-01 -9.861234822741628270e-02 1.507914809841425507e-01 -5.592837175622399765e-02 -2.991814364961907224e-01 -1.729416639926702193e-01 -2.640190802117580726e-01 -9.986416320035688965e-02 -1.823930360912254522e-01 3.332787406628760080e-02 -5.060115724283100087e-03 2.571276563270863957e-01 1.013771645774231012e-01 4.462497611379781515e-01 1.291648180317811478e-01 -2.326358351807488734e-01 1.352001533076042095e-01 7.456647595992754729e-02 3.122432983891163527e-01 2.373454988221252726e-01 -4.269295800989549861e-01 -1.423538557613809041e-01 7.808495012496602383e-02 3.342480736800361174e-01 2.244990363196450456e-01 -1.404799011866034175e-01 2.446502811112462039e-01 -4.450797071360008267e-02 2.242783613805202081e-01 -3.482741274817990340e-01 -3.567830831152012938e-01 2.318973292722516233e-01 3.464931031849258214e-01 1.321230357297442648e-01 2.599657869010532085e-01 2.169903620417662771e-01 -1.798280619933615154e-01 2.961411556062755815e-02 1.241080754394819491e-01 -5.492958158640522115e-02 2.825518846282426000e-01 3.719870189714772346e-01 -1.188681316912734431e-01 2.534856647300662291e-01 -1.112048011077312491e-03 2.091516242268225689e-01 -1.401994017301545492e-01 4.566229443578348479e-02 1.004785711394347442e-01 2.511388324017497786e-01 -5.117172751053603585e-01 -3.661142108242478044e-02 -4.810562639474678936e-02 6.430489696094612850e-02 1.806285638681345285e-01 -2.596768970349644934e-01 3.313449621300640596e-04 -6.940350639175160707e-02 3.845763518420299010e-02 2.359057337300050211e-02 -1.713460954744431275e-01 -1.813523115026685339e-01 -3.742213534334896674e-01 -2.723652689480889344e-01 -1.858197849119154477e-01 -1.503168500640211236e-01 -2.879111064232464656e-01 -2.451480672489352863e-01 2.955100266301238787e-01 1.610158605474055760e-01 -2.501659142194342933e-01 -1.042068308864821657e-01 -3.168326824464193781e-01 -1.619691576798860111e-01 -3.574928366490715687e-02 -3.338869649755098895e-02 2.593801134792220534e-02 6.249262924427614191e-02 2.633735339176438428e-01 -4.882457907369078948e-02 1.342027780723845931e-01 -1.381033853949196477e-01 -1.017552866218844887e-01 2.381158983655841110e-01
2.158974168611136890e-01 1.118177869320786250e-01 -3.648453980286143761e-01 1.588408183445565725e-01 -1.376780260257830235e-01 1.138782671997245685e-03 -2.682532543672641601e-01 -1.668168769975990062e-01 -5.519058036960423214e-02 -3.591570221039910304e-01 -1.587685831238778433e-01 -4.975476436596143470e-02 1.509290218241077230e-01 2.099743016073404855e-01 -1.491167098304401750e-01 -7.916526558344860742e-02 2.149536186651569356e-02 -9.949346628692948280e-02 6.080814517953280623e-02 -4.138259196908294218e-02 -4.626118364646399778e-02 -7.718362628568231631e-02 7.211872858064458103e-02 -8.046425872626321307e-02 -2.281346071662011810e-01 1.086052478133393423e-01 -8.180002482209867976e-03 1.610069349878900102e-01 -2.052745586778240705e-01 1.081334148856390454e-01 1.397614049623732702e-01 -1.420971310979774194e-01 6.570030218111234943e-02 -2.148781660225844437e-01 1.966527101427197888e-01 -6.646969376038965038e-02 -4.482135055034727755e-02 7.230276561132718827e-02 -4.943841811523407015e-02 2.793975241593633085e-01 3.398870341873455048e-01 2.249493739240381873e-01 -1.965062289000072127e-01 -5.790838550464537382e-02 -1.138597270828654862e-01 -3.064904598478497277e-01 -3.546153399428690345e-01 -8.967166473259255421e-02 2.750656493498203070e-01 -4.161617717378148645e-02 -1.301429936436336865e-01 1.001321928104370457e-01 -2.306953711836226273e-01 3.696578236705643228e-01 -1.571476870018898020e-01 -1.668931247409283780e-01 -6.816873017451762461e-03 -3.832105682266045976e-02 -1.345288434559444579e-01 1.071814233725691679e-01 -1.512205483686435703e-01 -3.473755442130679189e-02 -1.215450460432502822e-01 9.880295638989491924e-02 -5.259185184336921670e-02 1.501352575171494841e-01 1.346643924293412231e-01 -3.698602143654564078e-01 -5.207244639547112947e-02 -1.033805588702747663e-01 9.237226417282004554e-02 -2.820412964943694867e-01 1.564826330767620233e-01 3.504689176553135166e-01 -5.130144776174545319e-03 6.683063170429913435e-02 6.640280025596780045e-02 -1.029214050241892414e-01 -1.958800283437241996e-01 -8.775944373512441221e-02 2.202314046914371493e-01 5.446544371794718314e-02 -6.509744230354695682e-02 6.554104037172656105e-02 -1.349415224276598602e-01 2.860639447013015313e-01 -4.323914312645254360e-02 2.446809253802155470e-01 -1.901551395161829028e-01 -1.775720173152605386e-01 -1.389028916428510785e-01 7.624127065632546607e-02 1.492597948777242278e-01 -3.024861087890301503e-01 2.913300441622637335e-02 9.905094217488624730e-02 -2.079766985390415213e-01 8.185100618369406389e-02 -2.075234680295863221e-01 -1.059569049695284065e-01 1.753489642427709938e-01 -1.180988373521432294e-01 2.656378942223480699e-01 -4.718326720798752399e-03 3.869853744408261517e-03 1.792523978806125629e-01 1.230133087376281131e-01 -3.567752156416553744e-01 1.084331909741115818e-01 -2.045257410675996868e-01 2.711086831197330738e-01 -2.485115361993056882e-01 8.371985186436577131e-02 2.361392112593831832e-02 1.615574138143639760e-01 -6.587080850736096518e-03 -1.833739479433296737e-01 2.524474154561590633e-01 1.503527692611748290e-01 1.581996482907557788e-02 -3.218234732662127451e-01 -4.832691099153085812e-02 -1.848489277034545408e-01 9.564801802353308305e-03 -3.079656403450116153e-01 -3.083470399631461079e-01 -5.356342629783669013e-02 2.676700546136155656e-02
1.438438302707238936e-01 -4.480596988617933062e-03 1.849411700878983711e-01 -6.742030961799454214e-02 5.218342162994924621e-02 -4.503405923546255352e-01 1.392478930705257634e-01 -1.699380213361375569e-01 6.595521559886288743e-02 2.562792979877170918e-01 1.390439543686807500e-01 5.870217357820276538e-01 2.802487635587572745e-01 -2.053315335006510034e-01 -1.892861181670209003e-01 2.191076836365283276e-01 -3.695220656061475872e-01 -5.080857654746144814e-01 7.521198946531648666e-02 2.304449598823611334e-01 -5.843132893217985180e-02 7.906902682171378094e-02 -1.896525066535851289e-01 -2.276872058805974042e-01 1.537347774390622479e-01 -2.048994135503795222e-01 5.459098420223970627e-02 -1.588661694099020583e-01 1.497079857375113177e-01 -4.540372076740570861e-01 -3.806513034081737135e-01 -5.370569380588123554e-02 -7.777695237962187202e-02 -5.947163112528103951e-02 2.206424461240655277e-02 -2.255708533311318043e-02 2.857184167311815903e-01 4.899371604211973791e-02 -2.428193569946397387e-02 -2.336738624954616192e-02 -6.114473458943396889e-01 -1.590712498337297220e-01 -3.297248168582569416e-01 2.804091244723397325e-01 -1.664197009754302126e-01 9.885713566003945241e-02 -1.244856971871297902e-01 -8.747414596051468483e-02 8.803407255472804616e-02 -4.558780725481511586e-01 7.104016366567163232e-02 1.403480844061376909e-01 8.221868155224611174e-02 -1.784924415518245877e-01 7.752183461912215412e-02 -1.063594619979336409e-01 -1.594061390599706973e-01 -1.588885793618970421e-01 2.392369642751219772e-01 -1.228974574960104149e-01 1.973024293778351604e-02 -3.841489154666550276e-01 1.435218269837821303e-01 -2.483546721248792166e-01 1.443037704452566072e-01 6.849681064669926878e-02 -5.858786976466238972e-02 8.769207933333372784e-02 -7.029009649182840769e-02 -2.949684396908864442e-02 -8.759015544995403524e-02 3.645500661406037013e-02 4.692775383410115186e-02 8.845564055832373651e-02 4.980305418520891703e-02 6.476951240813846877e-02 -2.660961796765193982e-02 1.007999931584613457e-01 2.045545933746399092e-01 -3.344754086266173154e-02 -2.443099187172864672e-01 1.868834536106810107e-01 7.818855180589567855e-02 1.853147858518461484e-03 -6.260518753679036874e-02 4.916956322000340385e-01 -9.959787101737185844e-02 3.737821391384312242e-01 1.419662112990783542e-01 -1.048248436346722740e-01 3.068449356333832201e-01 7.078312475101779244e-02 -4.261836860265293819e-02 3.830242719533793333e-02 5.202734999824787723e-03 -2.116318592994455294e-01 4.498251207008548969e-01 4.071908002111082614e-01 -8.870165265430886292e-02 -1.477313973777965306e-01 8.384499671234493801e-02 -1.520213033112247369e-01 1.290152299690276554e-02 1.449430770490028608e-01 4.791412994058617120e-02 6.994054286861801917e-02 7.072303444974671616e-02 -2.152041797317242461e-02 4.184120519178478881e-02 -1.407326456700491724e-01 -1.060851008703757870e-01 2.963078736569839111e-01 -6.959091453627551382e-02 2.455178352828042976e-01 -7.225469889599367423e-02 -2.338300783208686340e-01 -2.622327192515796351e-02 -2.363265857259456426e-01 2.781450709266930846e-02 1.780840065056149835e-01 -2.620806836872118309e-02 1.106754201890736561e-01 -9.744496574319219673e-02 -2.422852109080493310e-01 3.161396473092715764e-01 8.160146753428876645e-03 -1.777428466447967051e-02 -2.240503861554165033e-01
1.958917818829057356e-01 -1.516090510950039438e-01 8.667452477207546191e-02 2.231246419262719605e-01 1.700208980500426126e-01 -1.554085006685532733e-01 1.399648966749790779e-01 1.405730647062273242e-01 1.565208619321415556e-02 3.093163908154123592e-02 -2.055948622438249773e-01 8.863209386953536939e-02 1.130574240055822188e-01 -1.688645008710294160e-01 3.387822116969905345e-02 1.490245114297588103e-01 -2.452692648564568645e-01 -9.785475059407451603e-02 4.731461662233263366e-02 9.505171535564926888e-02 3.543103921272758861e-01 -2.906323021330547984e-01 8.083502002157119670e-02 -2.349558913015625805e-02 4.168469908693366033e-02 -9.663874861066333588e-02 1.535490680907080144e-02 -1.730038367056346144e-02 -7.652138355451844343e-02 -3.994452954317663229e-01 1.925012843802673124e-01 1.356113823154689868e-01 2.844343881212942071e-02 -1.779088794659033218e-02 3.599160110873772522e-02 2.552449933830989726e-01 -3.917924167816005943e-02 7.720292738834119706e-02 9.437748363805370522e-02 -1.239291238233419107e-01 -7.312472523204341379e-02 -2.700348447782621175e-01 -6.354749763329634038e-02 2.729746386846323980e-01 3.717523655097914465e-02 4.571218912105914391e-03 -7.956902885860339669e-02 -6.272540532598641465e-03 1.099709362966624498e-01 -6.023666941222177718e-02 -1.509142482740870490e-03 1.038018955249060543e-01 1.256584447295074347e-01 -1.551755149789500743e-01 1.733015718162834451e-01 6.202751998379799764e-02 -2.561337084695959609e-02 -6.451248880107765538e-02 5.820755331389115828e-02 2.028085134665517375e-01 -1.161240533503824501e-01 -1.199185121460796949e-01 3.468234377705325389e-01 -3.723823539079421652e-01 1.885513009377020321e-01 -3.916039215204018126e-02 3.287277474440204045e-02 -6.046302472604663664e-02 -3.243320196798201716e-01 5.125825739353574023e-02 -1.598371382382841321e-01 -1.590937628708010143e-01 3.440245188677281130e-01 -2.809464108160810922e-02 -2.514731625951034943e-01 -8.124973641435927207e-02 4.500413264000736602e-01 2.616786730134021757e-02 1.073784440482417057e-01 -1.000482148852131770e-01 1.372164350609855199e-01 -1.746648938269710627e-01 -8.403096907645600522e-02 7.312601846986921741e-03 1.743251164215859905e-01 6.362279230716957890e-02 -2.994639529926792498e-01 2.467802038586056068e-01 -5.699967860191314933e-02 -1.977619197386868977e-01 1.692364272810802373e-01 4.587521337846903191e-02 -4.081519313981763625e-02 4.749909747055751086e-01 -1.424173797140770859e-01 -6.200922645976579550e-02 -8.722235523286389625e-02 -1.037674191883384278e-01 -1.201098818282664987e-01 -1.243665286347955812e-01 8.744005911141423601e-03 -9.728942891588687747e-02 -1.800545700454900533e-01 -5.497393891346404743e-02 5.917453877206250989e-02 2.269792403760757457e-02 -1.668022090443291860e-01 -5.919021849886052511e-02 9.119810498365367446e-02 -8.907440963430673930e-02 -6.312257188178556355e-02 2.449956062885002284e-01 -9.654820520688793539e-02 -1.659504413256885150e-02 2.207308415837686000e-01 -3.247355518284544460e-04 -1.345899811934355705e-01 1.904599576031370811e-01 -1.922611113589119125e-01 -1.565921972562073564e-02 1.003774135910989185e-01 1.048161162453346285e-01 1.331704278406068420e-01 -1.708297476715094354e-01 6.640022147471824621e-02 -1.796920347345130342e-01 1.719360114478310497e-01 -1.739045150109412574e-02
-1.207556650158966016e-01 -3.851471638875665349e-01 1.529749429834399987e-01 1.680662623764208607e-01 -7.142877173444402150e-02 -1.854626297814440383e-01 1.496007112664569649e-01 5.529867020762573027e-02 4.377465329229823614e-03 -6.773784500093537470e-03 -2.030190471795308149e-01 -2.931876574041918093e-03 1.572212943731443047e-01 -4.788909276938441151e-02 3.203605272303873819e-01 2.719275288572637894e-01 -2.554367815399085501e-02 3.579308388845474087e-01 -1.271811060194578402e-01 1.294662374602830943e-02 3.704155068507319348e-01 -4.760485602705695207e-01 2.989267256955099317e-01 -1.499644515601722405e-01 1.489505021907058802e-01 6.666734940391497166e-02 2.716547533249421553e-01 1.021479367459111470e-01 -1.614676095766352792e-01 -6.523507323556841653e-02 6.286539013402041298e-02 3.326296684013161920e-01 7.878559212871703854e-02 1.967324869905415566e-02 -2.074708442100519912e-01 5.028057440419887725e-02 9.464258912413379965e-02 -2.473447899319605181e-01 2.800017138093554014e-01 -4.540740139947138099e-01 -4.931710880023771476e-02 -1.810698115868306091e-01 3.013342425162674476e-01 3.632895515428068434e-01 1.002607520141114844e-01 1.076793547244093291e-01 -3.345008051467565635e-01 1.240995175619837992e-01 -1.090751030184862747e-01 -2.618545738627742637e-03 2.240253083004131174e-01 -6.473812649057145152e-02 8.235242756967441069e-02 7.081644211810317335e-02 1.149956790409627921e-01 -1.773800458184404405e-01 9.258224339324756802e-02 1.935507735048836997e-01 1.370065165949964359e-01 2.728571370512586913e-01 -1.780493456902084715e-01 -2.123481542889237017e-01 2.474193270764173669e-01 -4.314557699454887318e-01 5.876543282465945817e-02 -2.554690788972988763e-02 1.923630377044408812e-01 2.837471793653162377e-01 5.057311887114281090e-02 1.503282604433278918e-03 -5.772367188529857751e-01 1.060325604342537698e-01 2.561841221289796189e-01 -2.726308501561823805e-01 -1.188105265789425602e-01 -1.063210542985606605e-01 3.134019650158540449e-01 -8.497154042626941725e-03 -8.428627998690367551e-02 -3.874788062221662388e-02 -2.333399001095936565e-01 -1.791791543414792964e-01 -1.165415237198960535e-01 -6.821704852831816934e-02 2.910319603345195016e-01 -3.863409032318198544e-01 -1.953885097204729748e-01 -2.843494536308982523e-01 4.237687827523688167e-02 -2.625897241576093388e-01 1.461748141945256874e-01 2.287069540234317466e-01 -3.489087441859800021e-01 4.779040207721899081e-01 -2.546872452086076377e-01 -2.549412621152362113e-01 -1.421315900805707189e-01 -2.965297398655898364e-01 7.069472678996489845e-02 -2.064031621317628795e-01 1.573662683950076968e-01 -2.780752826278915651e-02 -2.809284165296793145e-01 -2.340927311119977983e-01 3.928805140197314527e-01 -2.587947564180517745e-01 -1.941191905075403679e-01 -4.906048657642143873e-02 1.186419597946875015e-01 -3.288934833692098714e-01 3.967188843371059065e-02 -3.455628070980014399e-02 -1.091016753109287085e-01 1.316113837804308018e-01 -1.888332032519678405e-01 1.115671558280675879e-01 3.963176011603741777e-01 -1.319815848458472385e-01 -2.574496748596079021e-01 -7.498953340387486122e-02 -3.074695321715112742e-02 1.615478026446266480e-01 2.567930187305810796e-01 -1.692608192720053417e-01 -5.274439198665292067e-02 4.243543709211139436e-01 -2.999042858714391357e-01 2.034222700112046922e-01
1.125213948601945513e-01 5.723073986685753983e-02 -2.734464270335442704e-01 2.609567036949205221e-01 -1.873888516577387198e-01 2.711760131102782800e-01 -2.059182565717919966e-01 -2.953430731343840709e-01 -1.991316753683216589e-01 -1.026596798506325264e-01 -1.455121694090691642e-01 -2.186066575500027805e-03 -1.306244613338149452e-01 1.598899803304413836e-01 1.675618855856031153e-01 1.448480418686680371e-01 4.892792155503342122e-02 -5.271388914122510441e-03 -2.916202936604123108e-01 -4.099707552372505032e-02 2.975613934979766673e-01 -1.506737257292922183e-01 3.045824631510491431e-01 2.054853647411567508e-01 2.054422384534687618e-01 1.387156166301359572e-01 7.460974507507005249e-02 1.773948750138491515e-01 -1.586843725406219541e-01 4.327030210344223055e-02 1.607194164730142705e-02 -7.351917883260901398e-03 1.329590356035993959e-01 -1.521470568045149574e-01 1.240329710234688299e-01 8.823657594536292448e-02 1.609123383818845121e-01 -2.400379210796275420e-01 -1.031731581110143930e-01 -1.508200567047476848e-01 -8.618709254197389272e-03 1.086606279054239954e-01 3.202229418230882751e-02 -3.033666010425506432e-01 1.499323493306891630e-01 9.504848693707926288e-02 -1.533981127051302629e-01 8.026996598303094699e-02 -1.037101504334982278e-02 1.482957717100303607e-01 -1.987987083116456444e-01 -1.345586356785072046e-01 2.031947941664292712e-01 -2.399335558154707115e-01 2.903081655905406441e-02 1.733707317353113397e-01 3.187532761258309311e-01 -6.028988792391963558e-02 -4.411018755517535743e-03 1.531621602615393374e-01 1.357760188574595461e-01 1.619709688994790675e-01 -1.138589465672439904e-01 2.122074645019625394e-02 3.067787614132261656e-02 -3.784613282999267914e-01 3.405529677845757774e-01 -1.514121116437685266e-01 2.716730936756734938e-01 1.711954759612252519e-01 -2.157351847952919312e-03 -3.236171254257849683e-02 -8.270109513197909656e-02 2.582446594048474209e-01 1.712035266947476153e-01 6.037675171537084523e-02 -9.756597690662727196e-02 -3.208318728635745076e-01 8.902399265079215251e-02 -1.772572187850318393e-01 6.081359142083513081e-02 1.253673349619307750e-02 2.490302779424848900e-01 5.578324380402598787e-02 -1.035862083136980805e-01 -2.051892823330339899e-01 1.475738733547280745e-01 -2.093285522977540725e-01 -1.856372659744450759e-01 -1.278519832928078359e-01 -1.023507746254201378e-01 -5.195860707061640549e-02 -5.634021516445125027e-02 -2.952843778476917924e-01 1.298991467582749637e-01 1.471138202783334736e-01 -8.657446871300437941e-02 -4.950338529519512226e-02 -1.170646449430393365e-01 -1.761128738203451838e-01 1.113830749221819266e-01 -4.023293270961734308e-02 -2.769481777828816660e-01 -1.821662576537554923e-01 1.307890912531513572e-01 -5.099553703179083436e-02 1.304518662075446755e-01 -3.067882966023046110e-01 -2.432880697637564427e-01 -7.766997379740503415e-02 -1.334432383848508652e-01 -6.518615549353333483e-02 1.035562902104008032e-01 2.049928684256280276e-01 1.471855136473484288e-02 -2.637285526721829254e-01 1.484530657195216596e-01 4.062453813847083199e-03 -4.541429787169445897e-02 -1.235374893196901219e-01 -6.393866776499511177e-03 -4.198297512883926719e-01 1.909805634275712205e-01 -2.242318691984569734e-02 -1.598768612618253204e-01 3.745481726281697094e-02 -6.508000415131004468e-02 -4.713082489684096432e-02
-4.338473274222744841e-02 2.928793815363146119e-02 2.090656808998896665e-01 -9.256652702792017573e-02 1.877751611544904442e-01 -4.618821115210699491e-01 1.229964828797450310e-01 2.035019459124524921e-02 -2.349593978475276734e-01 4.718122542792657637e-02 -3.500846282743113377e-04 4.747985877882346384e-01 2.886308459068704924e-01 -2.505989365216259590e-01 -2.728640407047728256e-01 5.857908097289454830e-02 -3.266363540852363911e-01 -4.193864128359088284e-01 1.346173041377935753e-01 3.213464563115838168e-01 -2.381896638212310513e-01 2.141878131239777772e-01 -2.827058790038483593e-01 -3.418260859020443715e-02 2.646798588452985990e-01 -2.799671869845571977e-03 -2.074530196919053826e-01 1.436294700299363403e-02 1.384378743056671190e-01 -3.954838581818231336e-01 -4.041962662184616639e-01 4.891898861447646629e-02 1.318702937005050146e-01 2.987324966050192154e-01 -6.052481010520703586e-02 -9.541789852254994181e-03 -2.080391263605805563e-01 1.949352231319958773e-01 3.298751402438218072e-01 8.525864210275323207e-02 -1.979847786092289730e-01 -2.368035807943896787e-02 2.950564797557800323e-01 1.750496616074630751e-01 1.657542470610562368e-01 -2.933370002624012263e-01 1.881829289856449747e-02 -2.424166515764044350e-01 2.399103107246019218e-01 -6.032645164448894315e-01 1.610457288329254499e-01 5.953051946416008933e-02 1.226398856116710789e-01 9.103120125611642577e-02 -1.294452549358228281e-02 -4.662728636827866424e-01 4.674710541906020034e-02 -5.998960561392058244e-02 2.607482948653362387e-01 3.539595988946258849e-04 -6.456309958863949705e-02 1.072632570253661405e-02 -1.829840731336516979e-01 -3.134736688526759685e-01 3.718240796254900643e-02 -1.289519207062942707e-01 9.203776532973549640e-02 -2.087273555282285753e-01 -3.754984259799730717e-01 1.854135671737963398e-01 -7.138707924595213972e-02 1.169536931396984170e-01 1.542747645010514868e-01 1.292155220622680789e-01 -2.602069585878732938e-01 1.303610280423878609e-01 1.016346738394329104e-02 1.004791044822265778e-01 7.117913043288735808e-02 -4.925757549588220541e-01 -1.276146390171154221e-01 -5.793464625908024968e-02 -3.383964293010953694e-01 1.467474721328181353e-01 1.174796602858947658e-01 2.334778453535261145e-01 2.308432489309107383e-01 7.321222055620911495e-02 1.106369926382890362e-01 -2.012957828368327484e-01 4.561183393717622159e-01 1.541137185546770649e-01 2.257635648028713804e-01 1.712450247763714906e-01 2.328796059173223465e-01 -1.127513226227215559e-01 2.619221383538914982e-01 4.054267151713878414e-01 1.794769956205907180e-01 -2.467189374502612442e-01 -1.195315181346882638e-01 -2.914400664994655221e-01 2.190912824698721673e-01 9.341214637264620702e-02 -1.292394992856161773e-01 -1.907841174585356639e-02 -1.742724981851786203e-01 5.349631486559658367e-01 1.690921737148684267e-01 9.856228746424476606e-02 2.320927267170906638e-01 6.486192751409988189e-01 -1.142332121500117259e-01 -2.158164889242992490e-01 -1.186611550779942958e-01 -1.253433601016568921e-01 -3.828183233213771075e-01 -1.711373329435054713e-01 -5.008351112780576840e-03 1.452477452698322236e-01 2.744915573539187803e-01 4.023290204594702768e-01 -3.661065145747509075e-01 -1.048457922678760340e-01 3.316674200114307913e-01 -1.369362647686546419e-01 2.962991633226816010e-02 -3.071637208057789725e-01
2.717654279895365121e-02 -1.226756589345286835e-01 1.731117216374828960e-01 1.691367105514344701e-02 2.891150797590114757e-02 1.885667376578564064e-02 -1.135243265427448855e-01 -2.594204012895858225e-01 -2.545340889636145687e-01 -4.489276889948234928e-02 3.536119369558994585e-02 -4.398392148726535944e-01 -7.821411258460399252e-02 -6.993524047219548678e-02 2.123593825425146020e-01 -1.759770300350262662e-01 2.741298420559448723e-01 2.331847467829083753e-01 -2.201982313156508608e-01 -2.049393437065973600e-01 7.054018608564489867e-02 7.448349260262066007e-02 -6.260678603175796886e-02 1.806608248123496296e-01 -5.105925952982551252e-02 1.429255950615180779e-02 1.203057554367153587e-01 2.399718193510960718e-01 2.375807512963967055e-02 6.041785154197287094e-02 -3.148779757900078968e-02 1.392804958295494888e-01 -2.346541395138226349e-01 -1.580609154376529935e-01 -1.051130546129261795e-01 1.405522984805820386e-01 -2.088084759013601743e-01 9.761802191103535753e-02 1.128690808265183088e-01 -5.547333526691036742e-02 3.244130638722849680e-01 9.316596089308413001e-03 1.796084435365939147e-01 -1.235335120042361096e-01 -1.351835863286204031e-01 -5.283027263415178594e-03 1.627669765180218830e-01 -1.572141966688775459e-03 -1.533580953911632405e-01 3.329476086658324507e-01 1.706945072300693200e-01 -6.124846937568818568e-04 -1.273857840801063124e-01 2.316238505539016113e-01 -6.087341461592425673e-02 -1.513454923001973929e-01 5.062319676608101164e-03 1.139300981850178418e-01 6.025224634186836931e-02 9.053465018418437038e-02 -9.310502338118303856e-02 2.894696014310494392e-01 2.175247134070858457e-01 1.779284368320924181e-01 -1.597859283841355227e-01 -1.127760601139107949e-01 1.317755687100219120e-01 -2.290891602571483165e-01 4.005748386122053306e-01 -1.961613837994114276e-02 1.051176508633096598e-02 1.575112878240803871e-01 5.370151471697936357e-02 -3.214845918805273040e-01 1.071075021119391596e-01 1.211177926533726773e-01 5.587149691071789936e-01 -2.119853099260487345e-02 1.553410126113562717e-01 5.143144301299654164e-02 -1.047836304279959885e-01 2.798733806547341607e-01 -1.505019167468404084e-01 -2.037212139292494117e-01 3.225848579258266957e-01 -4.536971944362513387e-01 1.136769813170495497e-01 -1.824434231894166980e-01 1.182596660141091854e-01 6.313293039120433658e-03 9.668134641680424524e-02 -1.449212863407967899e-01 1.794870370335786003e-01 7.287575271600360560e-02 -1.715994632738691295e-01 3.089111032309952432e-01 -2.109846658403777275e-01 -1.654801363678096160e-01 3.316328974173511357e-01 2.915763283808291972e-01 -1.703032124766820365e-01 1.977756246177768962e-01 -7.979625438319233599e-02 -2.147850961064627362e-01 -3.494932327817871220e-01 -2.351492184223283599e-01 -1.064949573614528133e-01 2.477852917427124380e-02 9.079510745537959504e-02 -1.348538034126239502e-02 4.755146438347324783e-02 -1.592214974594496346e-01 -5.215855687678133679e-02 5.045150155869624481e-02 1.829970782188302114e-01 2.131596697348808744e-01 -6.907484429181628798e-03 7.638042798413895162e-02 8.423371526981342922e-03 -4.090465218298104388e-01 5.457768866321393436e-02 -2.667367091651814959e-01 3.873359258254291393e-02 1.062052370062726014e-01 -5.341891607479025694e-01 1.089448060545361585e-01 -2.329685734725802093e-01 2.148303454022769121e-01
-1.200973302256382602e-01 -4.628365290221456152e-02 -1.260508936015081183e-01 2.989484460356229278e-01 3.670736435574341316e-02 -2.892119300279429317e-01 -1.821867293554872702e-01 1.436618566638229177e-01 -1.224188391947072380e-01 7.861523388358634956e-02 -1.883077087013410034e-01 -6.518615788954068568e-02 -4.624095832029451181e-02 -2.153992585664228632e-02 1.636302938281397890e-01 2.033220829747924008e-02 -1.076488474467212214e-01 2.336249173427229486e-01 -2.166362357004709693e-01 -5.120870925947789559e-02 1.467756188116521310e-01 2.992636837539261116e-02 1.746267420839099915e-01 2.413254134981056287e-01 -2.067557362760132911e-01 -1.820768836410938812e-02 2.038404320773076761e-01 1.107830978373730291e-01 -9.230619500035841529e-02 -1.571070630910817098e-02 2.940274345379507714e-01 -6.852115948240160292e-02 -1.082903373626418475e-01 -2.390871317866203050e-01 2.131207713750599697e-01 2.841381949316868494e-01 2.333971786605228416e-01 1.053480077635470247e-01 1.661325611051916451e-01 3.997391968819191677e-02 2.504998984392347583e-01 9.441346095809925731e-02 1.384105372752861274e-01 -6.159224234589393693e-02 -4.385849116642198675e-02 -6.160572813307093470e-02 7.020218342106893973e-03 -2.531994816149608701e-04 1.368436158065050035e-01 1.323916978899602470e-01 -1.973034380284759484e-02 2.553678016721275604e-02 -9.032980059458566024e-02 1.648465318569793392e-01 -1.422473833382345738e-02 1.775366313069704771e-01 1.100189885737012409e-02 -6.732668720425999918e-03 1.643164115635291078e-01 3.370079573895344571e-02 1.467633265745146298e-01 4.500489144518993005e-03 3.070751667636224536e-01 1.697887494789027951e-01 -2.159704433561001821e-02 -9.200221503342638496e-02 4.205088460802652306e-01 8.932652719604800354e-03 1.187616322375029121e-01 -1.122283460328058757e-01 1.522509271259425145e-01 -2.176604319144023469e-01 1.629823355216389325e-01 -2.053541711592433983e-01 -3.037117042598760919e-01 4.596595233860181068e-02 4.318680368734023611e-01 5.001743998466922497e-02 -3.189212417801486343e-01 2.072894511408381740e-02 2.551144528773013342e-01 1.284647055115469699e-02 1.257526329749410199e-01 1.606713737395066566e-01 2.068172564460718163e-02 -2.535026813923156319e-01 8.554268865429857926e-02 1.661932207930423011e-01 8.388099320307262907e-02 -8.707510641821160358e-02 4.544419847929452409e-03 1.348220427572564550e-01 9.466310752655580571e-03 -3.248606061897457709e-01 -3.913747101536729223e-01 2.324635905699106234e-02 -8.153793743515438952e-02 8.330353721116715016e-02 1.701272377083261622e-01 -7.307651295838189787e-02 1.661524273354920700e-01 -7.641061068878349238e-02 1.407806551768261139e-01 -7.464904062467930812e-02 9.930479356963357873e-02 1.612203695985663099e-01 -1.083554840883511755e-01 -2.839433749730197465e-01 -2.187710139692941591e-01 -2.321626214071921546e-01 2.714606403545100632e-01 1.157493756871493112e-01 -1.169829558292935917e-01 4.647186589072953011e-01 1.792276905110712706e-02 9.576456316554091130e-02 1.853554426919577502e-01 1.816341707753859891e-01 -2.107320111485729008e-01 -3.467525441659848051e-02 8.362883459264534858e-02 -1.569300631064179385e-01 1.990644445414347374e-01 -2.102252986429838655e-01 -1.894393514254217870e-01 -1.355148148821190002e-01 -1.054701564204508224e-01 -7.018441755670072732e-05
-2.583507406152381058e-01 7.540334068385393107e-02 -2.043498157797160319e-01 8.237865302936021872e-02 -1.292168709478202782e-01 2.376862287727719847e-01 -1.776634113724493980e-01 -1.380316753752316439e-01 8.517895020081235613e-02 -4.490571718675165011e-03 -1.180160765023856861e-01 -1.299914895760153899e-01 4.319950435498831620e-02 -6.858248535351156583e-02 1.752543601384411454e-01 1.986710777343965173e-01 -1.997834909961707928e-01 -2.349051033212921913e-01 -8.051045156008458659e-02 1.653059137271516987e-01 1.630988753780918399e-01 -1.195161033936051331e-01 3.820858204777420331e-01 -4.994060553585957102e-02 -3.368836578211253929e-01 1.527530322106714633e-01 1.162345884217606401e-01 -3.157839378999520441e-02 3.458547494585968440e-01 -1.356861296420864282e-01 -6.228288894837019640e-02 -1.980861334507741378e-01 2.779490017343138608e-01 -2.355236033405647689e-01 1.987226592326885311e-01 1.337780976929231758e-01 8.681169474930522378e-02 -1.410222521563255504e-01 -1.958752885854123660e-01 -1.302005306996293632e-01 1.758527684664699109e-01 -1.947986316400115991e-01 -1.358421786433606226e-01 -9.730177664640517199e-02 1.294445934571724147e-02 -2.047163168032849201e-01 -4.188920114794329463e-01 -2.723811259979956323e-01 1.221711619868587478e-01 -6.536311078190995549e-02 -5.931520533910023679e-02 1.899079828377182588e-01 1.929727139836749372e-01 -1.649144538150571215e-01 -2.730239454338060368e-01 3.066776775490889229e-01 2.046116594384777554e-01 -4.151147617521024902e-01 -4.204311063518803016e-01 1.316699539933012253e-01 6.721762652870263977e-02 2.201156962734712452e-01 2.612757964665116672e-01 3.067751730386071921e-02 3.046983864451404123e-01 -1.552110571993536581e-01 1.127065594442251684e-01 -9.227695520854446720e-02 2.270538044331492089e-01 -7.258800591149215664e-02 3.558365080819396176e-01 -3.422361960642560930e-01 1.190038701599913269e-02 1.279197192715268716e-01 4.413893917647316867e-01 3.536724845433452113e-01 -2.933340086069908814e-01 3.467758963550666290e-02 2.225788806821177856e-01 2.522253806175226570e-02 -7.172065184969604601e-02 1.963361211375889703e-01 3.064174155545726919e-01 -7.552151286795901267e-03 -2.804078936735782679e-01 -6.504013392758933865e-02 -4.607256524312305923e-01 8.162202323599285214e-02 -3.624091680668913851e-01 -1.543063942905126794e-02 2.130044979815375605e-01 -2.171457302530920563e-01 -3.150892623382970936e-01 -1.416071931907376402e-01 -7.777211750914950206e-02 -4.337876479942116142e-02 4.533364247154579307e-01 2.850118727169617672e-01 -9.226790514353720718e-02 2.845227340291786033e-01 2.055863192575163034e-01 -1.785304479771945285e-01 5.864692324572267496e-02 7.785702276355287166e-02 1.065588849350251194e-01 3.203681572529197275e-01 1.554078111456697886e-01 -4.132973901980940279e-01 3.318881503834312796e-01 2.067956668135838283e-01 -4.803879607931753337e-02 -2.122623971364643314e-01 -1.416397773511608449e-01 3.133757081596182537e-03 1.928185650500518489e-01 3.496365870121704300e-01 3.673770320890192287e-01 4.306230171576012622e-01 -2.851344230783238176e-01 2.228397986809590448e-01 4.142224977368823280e-02 -1.855920464940961634e-01 3.208480048945020011e-03 -2.798016417539532785e-01 -4.387144962872938092e-02 -4.625874890052036892e-01 3.037321395289683812e-01 -8.836148174177442527e-02
2.070806870660727717e-01 9.056211353233248329e-02 2.389393489231149068e-02 -6.533189680677976841e-02 4.077313975417510596e-03 -2.561865927443262025e-01 -2.327218033129530295e-01 -8.042262176885106931e-03 -2.847586385310540286e-02 2.573180454397549499e-01 6.329689759442925535e-03 1.647457710602368008e-01 -4.046331736354656650e-02 -2.261802891529680337e-01 -9.800358987997390137e-02 -1.631840309000200662e-01 -4.775685870544592315e-02 -2.388913152608770352e-01 1.010911015650187150e-01 -3.378788380067376806e-02 -1.449703837782066462e-01 1.836369553038038338e-01 -1.974551193969146801e-01 -1.793142011624948851e-01 -1.588875532892194686e-01 1.550925059983100096e-01 8.405045421197475386e-02 4.175737148053221964e-02 5.505649926342729428e-01 -5.867158783917065384e-02 -4.768601954985724617e-02 -2.151139335323757340e-01 4.311067571907305912e-02 1.989099055245430736e-01 -3.459623218679464540e-01 8.519226607723744127e-02 -1.382026846066890073e-02 1.283869218870720419e-01 1.838356653715943478e-01 -2.519226155344488349e-01 2.436455246362443094e-01 -1.261996777583828111e-01 9.348275388709469114e-02 2.018825102204303279e-01 1.617780545987615171e-01 7.124229497507068853e-02 1.008758907714268349e-01 -1.238294036448597812e-01 -1.561673779760330560e-01 1.371506197282782447e-01 3.128280940226718654e-01 5.061676323227497915e-02 6.256794466669020338e-02 -2.253269025617772037e-01 -4.813050218848381745e-02 1.909891895201135392e-01 -3.556999544215415365e-02 1.252425572400073066e-02 2.992504845958210424e-01 -4.454405569028983478e-03 1.374193175621432061e-01 5.930420068901735148e-02 4.020797054716041541e-01 1.828707562552633892e-02 -5.711227515961660173e-02 8.474048259373252734e-02 1.346505017659230599e-02 3.851562443447834050e-02 3.084257597080019425e-02 5.521033498698574293e-02 2.242668586242483886e-01 2.419909778105545362e-01 -2.331080452176232665e-01 -6.363157584454552929e-01 1.803120571839055275e-01 -6.330318582753416412e-02 -1.918508451339599186e-01 -5.947321478719697074e-02 1.105884783088743606e-01 -1.356140191764642067e-01 -1.009398635111549286e-01 4.220580355183470855e-01 2.001352431790843350e-02 1.384617047360939615e-02 -2.347314913811679171e-01 7.743256714299044663e-02 -2.773520129657401911e-01 -7.700149812553047646e-02 9.544334024537448613e-02 2.468209220413904725e-01 9.502571379768942617e-02 1.048911793273511611e-01 1.322905181089772952e-01 1.359839912928089700e-01 9.048111584738006974e-02 -1.958882868070768724e-01 1.436690970238814480e-01 1.296137043987647883e-02 3.192961939003250982e-01 -3.447899800500275370e-03 -1.542779593298958529e-01 -1.098127379829836464e-01 -4.422162290549839364e-02 5.448241773366450241e-02 -2.346593320519040349e-01 -1.736971845804073308e-02 -3.943444271242446675e-02 2.480279678561827794e-01 -2.278739479283118097e-01 1.058010306055965910e-01 -6.606878984252866072e-02 7.810780195990774111e-02 8.454902473987209455e-02 1.157176190379305275e-01 -1.353371903703057266e-01 -6.475605554143708253e-02 1.622754881183855191e-01 -5.069981197134940110e-02 -1.339444209450261769e-01 -3.819528583850516634e-01 6.553012995768139372e-03 -3.960578996609250176e-03 -3.018295868700991424e-01 1.602567561203871449e-01 2.009366720302372677e-01 3.219593308218652444e-02 4.457127486895494373e-02 1.387409021772429904e-02
1.532380620164121021e-01 3.206980665400747943e-02 -3.280202307342917623e-01 -1.925483656655503084e-01 -1.887912625842199932e-01 2.716621198070050536e-01 -4.461051818890004322e-02 2.980717420942099460e-01 -2.102986686569189578e-01 -1.771774304941393929e-01 -2.428017024445634497e-01 -1.950437236278581565e-01 -1.163284234155795988e-02 -1.317233615865509855e-01 -1.349284848675302018e-01 -2.799380558949268738e-01 -5.560549395078898983e-03 1.539480551803444619e-01 -1.032687758936568917e-01 -8.122232389174548206e-02 -1.549815054102299423e-02 -1.114872050097882039e-01 6.942889807607052766e-02 1.297076623228198555e-01 -5.528663772275585475e-02 2.144348798431305880e-01 -2.638833638503598755e-01 2.455604077373561844e-01 -4.012514517244893941e-01 4.197614098258939386e-01 -1.481071842248057359e-02 -1.428163929989907099e-01 2.092362100144834758e-01 -9.128163159917988823e-02 1.492957944341571641e-01 6.641771394139484030e-02 -2.962058641082085386e-01 -9.097580217845845085e-02 1.331730177695980566e-01 4.299251642061452938e-01 -1.013290028411841376e-01 1.465288538125633644e-01 1.419722105942547163e-01 -1.294636290959212954e-01 -1.178867387936800015e-01 -3.612333351900835765e-02 2.526234313691926858e-01 -6.696766983003125950e-02 -6.985669116943948875e-02 1.980429531933125542e-01 2.688507601187394846e-01 2.227656013020823944e-01 1.261962888883169098e-01 -1.501261937545644576e-01 -6.824752430931446678e-02 1.517810943492077340e-02 -1.056092487619689629e-01 -1.751572885449144967e-01 -1.789296161570055332e-01 -8.193542675112854001e-02 -1.211459131998938871e-01 2.177865187306838590e-01 -2.971162588229029344e-01 1.595027219827469811e-01 -4.756106188469132190e-02 -5.479710474247754398e-02 1.051376404806465131e-01 1.053990952932856162e-01 1.617753814839794357e-01 -9.097378842415267119e-02 -1.346271443757987851e-01 -4.494632999032924930e-02 -1.280845044268541510e-01 4.928926509147187884e-01 1.130408551924950294e-01 -6.908569259261682083e-02 -7.392833360537924559e-02 1.357004857057375335e-01 -5.016040365560715530e-01 1.077244269350552570e-02 2.764685894907360497e-01 -4.578448748719436689e-02 -1.304305915720224973e-01 1.957127561362977664e-01 3.649510566088602914e-01 -4.124043389579062913e-01 3.098851916665196771e-01 4.048528006846464911e-02 1.075713647333826073e-01 -1.501306256002329642e-01 -2.373033069916028748e-01 -8.554988200007619323e-03 1.827681113628864262e-01 -7.866302136826147651e-02 1.651514629067460729e-02 5.305608730307654897e-01 -1.151184547701344235e-01 -1.900177057024564353e-01 -6.071427458140715716e-02 -3.976362149100947513e-02 4.403149195300435498e-02 1.241057020976134295e-02 -1.829101174086362191e-01 6.406931669335093338e-02 -5.082702588637463131e-02 -1.836153749062969243e-01 -1.799601219111831782e-02 2.821627814506306176e-01 1.240806006572569287e-01 -2.600834905534830099e-01 2.481671029712469168e-01 -3.898691116350588154e-02 -8.491644710533750862e-02 -7.629255948860326486e-02 4.440288168406524849e-01 7.563781217250870048e-02 1.235822329106468949e-02 -1.311551234557541690e-01 2.179896155085842002e-01 -3.889842378297838632e-01 -1.913985877675189184e-01 -2.449216792743287852e-01 -2.487922865414030071e-02 1.172871058842096248e-01 -4.215162359244061241e-01 4.328671323516899982e-01 -1.253899531524577671e-01 2.182824243630210326e-01
1.144646829847991293e-01 5.249628573026988987e-02 1.204150842423528933e-01 -2.463336953419052733e-01 2.650203821149383909e-01 -1.635662523825244519e-01 9.486801034182407166e-02 -3.635140661798750839e-01 1.975097224963824893e-01 3.400736442404740656e-02 2.114255647615485012e-01 1.223362251727017069e-01 1.176645262568096761e-01 -1.582544861429281413e-01 -9.370813330067896685e-02 2.403625150832552071e-01 -7.900617139371748920e-02 2.286422854020698503e-01 1.266172486576819245e-01 1.598443545493634228e-05 -7.462481199978480972e-02 -1.048912179605924339e-01 1.575703938503431600e-01 -7.442898015517442241e-04 7.377823830994982568e-02 -6.434360427132253257e-02 -1.039753191630642670e-01 -2.864756459948790066e-02 -9.093101000639829123e-02 -4.943480760579053168e-01 -3.201266658024756184e-01 -1.874445020947102247e-01 -7.585027787311654501e-02 4.790656588874669247e-02 -1.869583596362114630e-01 -1.911577735448620197e-01 -1.431708384570646968e-02 8.361588709448181111e-02 -2.789375941986595442e-01 1.915187278447705033e-01 -2.045329292512604036e-01 -1.515486688327259690e-01 8.301452985267115947e-02 -2.042883475484656361e-02 -1.347232288389166865e-01 2.698397530194114324e-01 -3.167388778317895004e-02 3.574143585709435578e-01 5.672873629341552287e-02 -1.559949325284074907e-02 1.148246722844484119e-01 -9.148570753060996123e-04 2.337425897310615730e-01 1.247741435735054416e-01 -1.270077379885849733e-01 -1.576662358163026523e-01 2.321605582699596063e-02 1.730699960604117349e-01 2.943076003921282074e-02 1.523257296623518331e-01 -1.815757647405355224e-01 -3.576452503628061996e-01 -4.794413060956987382e-01 -6.103118732724737566e-02 6.338292347825684458e-02 -1.680182384594375578e-01 8.241490642595677985e-02 4.023489587737204970e-02 1.679157823942694638e-01 -7.634563097278951327e-02 -6.170304677439906321e-02 2.783807426954903463e-01 1.017539405874831604e-01 1.939855241274529574e-01 6.331497113665052190e-02 6.254041555006872866e-02 1.041134634659367092e-01 2.642585330587501891e-02 -6.953931134152763205e-02 -2.569530870644782805e-01 2.448042939277173067e-03 8.975039711869968462e-02 -6.636126867069341850e-02 4.104038924794985860e-02 1.106090673861919310e-01 1.448278600903779856e-01 1.556831782391288922e-02 -1.602748840854930079e-01 2.953568049753735325e-01 1.564469787333321732e-02 -1.622542867215575335e-01 -1.535886028913877321e-01 -1.047097661546202013e-01 7.218147864577990902e-02 3.264019715363015717e-01 2.096022031989643597e-01 -4.275050179956084162e-01 -1.867751686053316373e-01 -1.042939182205182280e-01 -1.422218419442707882e-01 -2.143147520262639882e-01 5.280608893598971038e-02 -1.037047146918315954e-01 1.235400403463593338e-01 -1.658142179640956781e-01 -3.392952698797280231e-02 6.833979814638245498e-02 2.314923141888063640e-01 -1.379297610517448147e-01 -2.012179599222064380e-02 -1.726186695035545060e-01 2.466679166237018550e-01 2.241130460353394152e-02 -1.948670760085360332e-01 -1.490475213638533247e-01 1.313802724084328077e-01 -1.394807458059541538e-01 -1.663795257120155302e-01 1.915159492022052573e-02 -2.006578969599091475e-02 -2.206992493677926159e-01 1.004003971428628905e-01 -1.207283825992031823e-01 -2.417412380920383186e-01 4.056227104507235254e-02 1.432936257897272740e-02 1.219241800328174363e-01 -2.259601851616585000e-01
3.069063837235318504e-01 3.449739401404381955e-01 -5.709046520984446538e-01 -7.637623016082496774e-02 -3.882095202550395752e-01 -2.468601716306400018e-01 -2.115215526373998289e-01 -2.767101180805658367e-01 -5.747645733836602433e-02 -1.217192743081663558e-01 2.112754906647287545e-01 -2.914652372233655364e-01 6.017775589604339864e-02 -6.283251110617965596e-02 -1.536210145867346610e-01 1.207140012630381204e-01 1.996726725767066779e-01 8.082145252969555327e-02 -1.012228214362705936e-01 8.189175654267107085e-02 2.183697462995169702e-01 -1.854570654881574909e-01 5.795713499379904210e-01 1.665405516708313993e-01 -3.656289587304653680e-05 1.712392198559184731e-01 1.747622747581955849e-01 -2.201176793699049228e-01 1.189537865930692384e-01 -5.577022793154309821e-02 -1.022134703703639624e-01 -1.770166250919129047e-01 -1.901252503962667095e-01 6.067842126527488167e-02 -5.042435589675613866e-02 -4.031276944442491184e-02 2.174026736940452009e-01 -1.709310548093809501e-01 1.432753936984507148e-01 -2.186233765915603089e-01 9.163063604910551274e-02 -1.624731176483963646e-01 -2.764720176072564817e-01 2.051272714787545082e-01 1.448111760638178536e-01 7.335230728806275968e-02 -1.474222463718180831e-01 3.862828707662681049e-01 -7.879420635814404772e-02 -5.267995350879895594e-02 -1.784002720897671576e-02 1.593177552636386440e-01 1.978594812113176338e-01 -3.269333126659340616e-01 1.441531860679678978e-01 4.902873274197971920e-02 1.579578615755567184e-01 1.353298233201685394e-02 -1.769779052661904772e-01 8.975113675604887153e-02 2.468598168233761617e-02 -1.087846430110016582e-01 -1.727430899597220681e-01 -7.462058202869575885e-02 -6.885396588560958875e-02 -9.367072315703471597e-02 -1.581695435364287583e-01 2.561866126309714220e-01 1.362303067818949331e-01 -3.286784138575936653e-01 -9.269290818420548861e-02 9.909693917013172315e-02 -2.035350862586965404e-01 2.665132486784336785e-01 6.937121917898909917e-02 -1.819861552649550407e-01 -4.082599600339482243e-02 -2.550501403156832936e-01 7.407835851440980335e-02 -1.911661749697518009e-01 7.798249560994655050e-02 1.512035490485265088e-01 -8.853043607193562814e-02 -2.743283013216152311e-01 8.314299385911569362e-02 -1.355727147041407323e-02 2.144766929355781671e-01 -1.366280621787284155e-01 -1.148429571307462704e-01 -3.603111355792538301e-02 -2.306100380124181427e-03 -2.943781942344942532e-02 1.454536893011746934e-01 2.563994062960390369e-02 5.893233417628383763e-02 2.391906342299547905e-01 -6.446279065210774872e-02 -9.290509830800484925e-02 -7.545198293722761573e-02 -2.710555887778587358e-01 1.577523753691744135e-01 8.437603086569976651e-02 -3.482319967603794142e-01 1.463636770712750390e-01 -2.064181867290139014e-02 1.236305037354874237e-01 7.574073527167322906e-02 -2.794990467546530910e-01 -3.145710098499064356e-01 -1.978117499817608760e-01 2.528558073327724642e-01 -8.180342981522754908e-02 1.446989017752303430e-01 1.194670211211469185e-01 -1.561316390825932543e-01 -2.262439380948660650e-01 2.694757858012685192e-01 -1.943781348014358978e-01 -2.262510760323580006e-01 -5.804873866277224237e-02 1.440671438207130339e-01 -2.543812772192887706e-01 -4.426041558299184143e-03 -3.087064739044685993e-02 2.235660909151274689e-01 5.189009514391386413e-02 -3.450446666625157227e-02 5.515941112540681535e-02
-3.365630582479168381e-02 -7.110970428828453094e-02 1.112458714372603907e-01 -1.585925063855876116e-01 -1.254467878367295786e-01 -3.068025612950038283e-01 6.842818450377999295e-02 -9.394076909845422430e-02 -1.090832182136900752e-01 8.969161813167123021e-02 -1.108126156033959336e-01 -1.620197198015582152e-01 3.284349025182475151e-02 -5.558673721916169708e-01 4.556754763275951969e-01 -1.475981315927794024e-01 -1.105251401612126066e-01 2.121388728167357407e-01 -1.129491016079589849e-01 -3.461716346421011004e-01 1.233945342385392718e-01 -2.178716814842747429e-01 4.046973653659203252e-01 1.316326839808009130e-01 -1.136655238603797302e-01 -6.127154249075349862e-02 1.581290309588624377e-01 1.173648203544798707e-01 9.880105088565774296e-02 9.278949101758192375e-02 2.144247749919757362e-01 2.796579736640081859e-01 4.201975552926571211e-01 2.123730326815496394e-01 -7.151818133745284703e-03 -1.703619480886452986e-01 1.523419856293255215e-01 -4.658008213865252878e-02 2.194107654083260472e-03 -9.357480682831999241e-02 1.447041255349668376e-01 -2.722869758594628070e-02 3.672506373667751012e-01 1.638169175216511730e-01 3.917016597685483298e-02 2.463163945189493220e-01 -3.548579950232508187e-03 2.218383106721683318e-01 -1.933419735391155025e-01 5.929648917645297113e-01 1.485368930230507867e-01 -1.075509883768692720e-01 -1.126900623267068774e-01 -1.607167013700967206e-01 -3.876217015662758447e-02 2.565951455717868090e-01 8.858043056993021580e-02 -4.019388585059872898e-02 -6.848872568186760434e-02 6.488428486099202808e-02 -4.827518297746246079e-01 -1.843911129773518620e-01 1.734496880127029683e-01 -1.114154427007792991e-01 3.685457581539945404e-01 -2.375705323859964718e-02 -1.716894007609377493e-01 -5.113150905065881602e-02 1.951408503488968188e-02 2.067652594088155438e-01 -1.790839830312034864e-01 9.968834013851392284e-02 -2.020646585764713510e-01 -1.859082651333076319e-01 5.431359392284976217e-02 2.356431328219456799e-03 -9.536175185898337556e-03 -2.339798073247200405e-01 3.839515789459875539e-02 -3.091637802044913119e-01 6.237498713615020896e-02 -1.441892112329544173e-01 -3.168679645352343033e-02 -3.272170079835599599e-01 1.378054948658676282e-01 -3.388371925281615793e-01 9.548753080872307564e-02 -4.632456894018608384e-01 -1.022522766480765261e-01 -2.836154607178669185e-01 3.751455455616717338e-02 3.231857388306037804e-02 2.437503579405566334e-01 1.529237557559238458e-01 -2.587954762741374592e-01 -6.345358458414772362e-02 -1.823656917421911383e-01 -1.862545297787883691e-01 9.286148515090673905e-02 2.749595538237533110e-01 -1.542562624353469025e-01 -2.073130663517386285e-01 -9.863388691573776734e-02 -8.031189574635866010e-03 -6.274801657261176897e-03 -1.850559936406113992e-01 1.031654894183724192e-01 2.789168241667571158e-01 -2.015925847974674168e-01 -4.550420882906330844e-02 -1.657682193182088703e-01 -8.121329287127265761e-02 -1.911414568986193330e-01 -5.986664982002358470e-02 3.021416739016393252e-02 6.581048783298218408e-02 3.799090378328111584e-01 2.505846685416218134e-01 -1.869195330512093689e-01 -2.981231810178759933e-01 5.716543293423547584e-02 -1.201132824514064279e-01 -3.558508387889976893e-02 -2.047512107660155040e-02 -1.157904798827017606e-01 -7.123217646859082621e-04 -2.478230589001005971e-02 3.269888384460265668e-02
1.880785547133967672e-01 2.894916038994110527e-02 1.245679694108745156e-01 3.233906757131983778e-02 -2.797602111192742935e-01 -1.703843219589224189e-01 -1.271645618589351510e-02 -1.841360575571127089e-01 -1.615905858611730792e-02 3.093078866617179901e-01 9.826501253859218007e-03 1.945007804315132538e-01 7.787930619828681289e-02 -1.500406826609390898e-01 1.028512297381159180e-01 1.115036934330346924e-01 2.011349114822770234e-01 5.126254980584986631e-01 -1.480538285025646272e-01 -7.952892158205880635e-02 2.278336949175530091e-01 -1.205000986226914123e-01 1.656077531453067631e-01 7.759123831755013190e-02 1.031439925093400878e-01 1.327810622892952597e-01 2.223337418675495614e-01 2.296158334907345833e-02 -4.696227168884374858e-01 -4.702396123843534670e-01 -3.957724103189891318e-02 -1.738561342055552905e-01 -9.792121383727729611e-02 -2.500515173006848113e-01 -7.280883525091361164e-02 -2.714902705387549631e-01 -9.570565055571529645e-02 -1.949835502635613449e-01 1.228810720514191858e-02 2.291880812836101858e-02 -2.680306941941237864e-01 1.031559949514380403e-01 -3.271365156157558518e-01 -1.473238543140684975e-01 6.506113407945783578e-02 -9.470209025996082289e-03 -5.303324025283197990e-02 8.413577742474825927e-02 1.410367007788793925e-01 -8.885888391281346332e-02 -3.484592375684781446e-02 2.057984236437336856e-01 -1.140326714336840214e-01 -5.635157465958747294e-03 9.656659490344630947e-02 -1.326225012287008120e-01 3.816560177791179786e-02 -3.683049175189810880e-03 -1.467322738117714520e-01 3.533971331101576907e-01 7.412252120563309066e-02 -3.020460692339037023e-01 -6.231771724452000311e-02 -4.259159514067852037e-02 3.525772744269419778e-01 -2.346210635061626582e-01 3.417702418969945782e-02 8.892633443082276212e-03 -1.037050783671921300e-01 -2.769085996460719512e-01 -6.411227506528829889e-02 -1.220981684685747137e-01 2.749973701870843668e-01 9.516977358375493246e-02 1.752418075663824196e-02 1.060196939695800811e-01 3.908132912394293723e-01 -2.421740819663473487e-01 -2.259081374603172654e-01 -7.475698623886296856e-02 2.062123204980746138e-01 1.252417339969089383e-01 1.584900744804522421e-02 2.210323406794473811e-01 -6.531468635353736285e-02 1.957864320044506654e-02 -1.068656937669227452e-01 -1.312543422928600656e-01 4.895543993607971017e-02 -7.570537390302177483e-02 -2.757479252451782714e-01 2.302727607309376992e-02 1.243837374853260236e-01 -1.857050010925925254e-01 1.909694479880361950e-01 1.415923950033651790e-01 -1.281342349802522818e-01 5.518773133635365181e-03 -5.261495075443631819e-01 5.605743617461734357e-02 2.378343489643811870e-01 -1.103227433664209257e-02 1.502473409621564449e-01 -5.639292170312187880e-01 2.693975300450668353e-01 -3.116821742230509520e-02 -1.021704377541894776e-01 -7.835115786190373355e-02 1.171634067569167492e-01 -3.637591800498021222e-01 -2.668716489652255691e-02 -7.907730230572708463e-02 -9.570638050609489578e-02 8.865831707963746020e-03 7.278672477893202708e-02 -8.420893578559557335e-02 -1.910372870506021337e-01 3.188815181189755266e-01 -6.083625388535966738e-02 -2.461052125281539271e-01 -3.169413506999536057e-01 9.678055361422509273e-02 5.154165148188085549e-03 -3.058175795385862927e-01 9.897892202051999933e-02 3.111103425215211438e-02 -8.293779339674256512e-02 2.669475159576923176e-02
4.134440019713782333e-02 -6.529816138939192882e-02 -2.613051738018480896e-01 8.309497519922841302e-02 -5.416001665916298641e-02 -1.404813692136050174e-01 8.714231476182228431e-02 -3.594225265087854643e-02 -1.836073117398904220e-01 -2.272118222885195771e-01 -4.796277765018195915e-01 -2.644944905302852312e-01 -1.220095768231115319e-01 7.118077157903919538e-02 2.632608557373178337e-02 -4.322423300927747958e-01 -4.884044355968834850e-03 3.679436367787326523e-01 1.983356378179122748e-02 -2.314838494942088043e-01 -8.377691185959248998e-02 1.536328571911973195e-01 -5.159196010202268118e-02 1.177474206089926777e-02 1.118031587182525127e-01 2.758174123356543772e-01 -1.417579767157686743e-01 1.419850967767245231e-01 -4.426489310439165048e-01 -1.500994715382043820e-01 2.693068182688735518e-02 1.884127826019345586e-01 2.814993656741363592e-01 -6.899374287390343252e-02 2.547250374210315305e-01 3.435014197276617387e-02 -3.155085381250351262e-02 2.758198419122594820e-04 -1.056636720768021204e-01 2.624761217113033007e-01 1.530134182492779438e-01 1.462798109932856028e-01 2.085110295345208864e-01 -1.581667910182122661e-01 -5.522324120084365351e-02 2.780253368493201815e-01 8.112662180798257960e-02 1.952399908467528089e-01 3.123469526706946775e-01 1.455927410751186590e-01 -5.308866651645931939e-02 2.121102667536246544e-01 -7.997317775546242125e-02 2.262222343555136961e-01 -4.498957397709421047e-01 -2.047695283694454527e-01 1.003611611480601795e-01 3.526944193803256602e-03 7.600325139855021450e-02 1.030696532628840312e-01 9.551048433006036065e-02 9.628626884614248371e-02 -2.910933453571537544e-01 -7.162146409815464687e-02 7.765055631383561974e-02 3.987438671303015353e-02 1.414571591067849410e-01 -1.994455791099067066e-01 -3.218602756209179017e-01 -2.011550782733238438e-02 -2.713784373056773447e-01 5.768605251752692564e-02 1.229171319697539566e-01 1.672087611637719518e-01 -1.594846980610989673e-01 3.936299061939548816e-01 1.606276220574045788e-01 -3.352121461222792864e-02 -3.544254530159526850e-01 -4.127257931658395718e-02 1.387664231868551423e-01 -1.202248333064882962e-01 2.451642092638418036e-01 7.195336460102681742e-02 1.235960747121428588e-01 -4.463657809101396201e-01 1.947013461334739237e-01 -2.339364589215312262e-01 1.249499044629928529e-01 -1.315448218445515738e-01 1.245570239721676825e-01 1.438728712668237986e-01 -2.261944171531108660e-01 -7.741429390221500617e-02 -1.726725806551020481e-01 -7.160014674318587735e-02 -2.452105833376317656e-01 -6.173650510782246331e-02 -1.780365818405435785e-01 3.213582781007902067e-01 7.888781828051742717e-02 -1.814254168399312417e-01 1.734936473838910309e-01 -2.194059997717506122e-02 -5.738092103474008027e-02 -3.017224276593117455e-02 3.128514662159659343e-01 -1.305120035141788537e-01 2.746984968126962579e-01 1.038739477863429538e-02 1.729915657604412516e-01 4.038501274570934461e-03 5.899054646084037068e-02 2.264550877860128236e-02 2.841676297162135101e-01 3.372506820252930693e-01 9.173437409917940821e-02 4.026136382736891228e-01 4.519588047127953007e-02 -1.815830341091452249e-01 8.247255657911480020e-02 2.217483966760278036e-01 3.872519295912920084e-03 1.810371471179176572e-01 -1.694517182422974541e-02 -1.922927708267233859e-01 9.383073048802713367e-02 4.777401060926376314e-02
-2.757403354368185844e-01 -3.210518661515667227e-01 4.060100478576725291e-01 1.256496478364489966e-01 4.000200366852913469e-01 -8.640753750892388174e-02 2.003888976143327338e-01 2.085048968837514283e-01 3.482939831695239241e-01 -5.735281032627525394e-02 -2.219167511306384954e-01 -1.928065111010833499e-02 4.080182739853723678e-02 -2.195678231264580615e-01 2.906014865934905544e-01 5.613284395824549855e-02 -3.215289457011311081e-01 1.191393922911851977e-01 2.210894661555274365e-01 -5.336372996991457784e-02 5.962781855535313758e-02 3.481161119475415650e-02 1.254806529542024096e-01 -3.280660811039513847e-02 -9.870650313399573217e-02 2.987353008943868238e-01 -2.794551786044729980e-01 6.634891377955391689e-02 2.901556161956489813e-02 -4.120125753542955294e-01 -3.154212186999094669e-02 3.052334233287309351e-01 5.455497559621767800e-02 1.026478465396962053e-01 1.993519313988285913e-01 6.557294711108167806e-02 1.901016866478719702e-01 9.697623277950755127e-02 -4.908917819705312102e-02 -1.994562423851956035e-02 8.304026374075912376e-02 -9.967906277268408222e-02 1.999109451704302320e-01 2.950771707597414986e-02 -1.057265464393634252e-01 -2.140131219979858890e-01 -3.769867445219383939e-02 -9.904540411178480719e-02 2.965793273862708523e-01 -1.354510733863233396e-01 8.466128274085826799e-02 -2.073042370127673242e-02 -1.988890461596712345e-01 3.882141515614521698e-01 -2.322010408726372932e-01 -4.742708293797211899e-02 -1.080126608281498646e-01 -1.059575113944744573e-01 -1.508361121814174588e-01 2.766701980295579663e-02 -1.748326401176282519e-01 1.994825468416913106e-01 1.447017326056302400e-01 2.198070005255786663e-01 7.212775699969349585e-02 6.519553175798747935e-02 9.376205914550136966e-02 -1.979550471376354537e-01 3.764382870353028682e-02 2.608859048347279552e-01 -1.554246048886411546e-01 -3.745459557026472597e-01 -8.299800351433506140e-02 1.833866210689918952e-02 -9.005461166521884150e-03 -3.415434588143688444e-02 3.113009949607505877e-01 2.672772388625048734e-01 1.336004483456332548e-01 7.392080111980521562e-02 -2.261239967511215199e-03 -6.440625377157906117e-02 7.511560053986858498e-02 -4.741566679917080113e-02 -2.830750249140136926e-02 -2.394175998766097102e-01 -1.297330685191874222e-01 1.444467845355446901e-02 -2.537668931809098499e-02 6.517933760366627360e-02 9.348238848327569683e-03 1.818562798527864066e-01 -1.193524764279215306e-01 1.587030167226536059e-01 -9.553937221684032088e-02 -1.364031479786101675e-01 2.397331269973289880e-01 -3.760472691035190995e-01 -1.801360217364911531e-01 5.150615569957948114e-01 -1.574695873114364819e-01 1.216895991114961273e-01 1.929082289681107731e-01 -2.890978601953574784e-02 -4.417389037222863718e-02 -1.828382594184343457e-01 -2.645281567746406506e-02 -1.993021464213564492e-02 2.359781304211758524e-01 2.679044082557826417e-02 -3.664999906676436742e-02 -1.751559629880892754e-01 4.590193065779787918e-02 -5.275374762050662886e-02 4.902662468782191252e-01 3.397861331967187426e-01 1.971154952884027756e-01 3.475733057217289534e-01 -1.420245916397085140e-01 1.408364727018478479e-01 -2.036078183228673122e-01 1.193971121387764206e-01 3.900222892446965350e-03 8.161635188087833226e-02 -1.395836050671267203e-01 -1.668137478178048985e-02 -1.388548637989325540e-01 -2.461313868356269363e-01
-2.311475256900778416e-02 3.168170449606164674e-01 -3.556710068317179840e-01 -2.401367771587414601e-01 -1.378003186727704554e-01 1.674286003234691789e-01 -2.457551531139828827e-01 8.912439225921291522e-03 1.667665910195479523e-02 -1.599483847368309841e-01 -4.811440308469253080e-02 3.237928059001088377e-01 6.946163950447528657e-02 -9.135384853884617740e-02 -2.480042840504637913e-01 1.780730659876300984e-02 -1.102376281192984225e-02 -3.801491552154836473e-01 -3.216633693702466434e-01 9.037527584418453275e-02 6.573643928368778228e-03 -2.457590648302303837e-01 -1.075472270195916430e-01 -1.393436849763042273e-01 -2.339384828473292932e-01 7.567320892388869347e-02 -1.507016749657353050e-01 -5.811149873149402262e-02 3.106648812422523331e-01 2.509520217121968266e-01 -9.742810128515397294e-02 -2.598879604079334382e-01 9.420534859395628124e-02 -4.443133028079720437e-01 2.709064694804418361e-01 1.125546519482115287e-01 2.094716056482383848e-01 -2.248114898326166455e-01 -3.185888305733721171e-01 1.125541900165046710e-01 1.768778230651276776e-05 1.364158012612887161e-01 -1.076634089059428090e-01 -1.916724599184387867e-01 -9.904993170828274573e-02 -2.313619642636946527e-01 -5.698461026694717768e-02 -3.963824917180205354e-01 2.392546115407367113e-01 1.291918548064030781e-01 -1.210156027093632070e-01 2.266229892296481585e-01 -1.654436022104882262e-02 -8.383047695733690519e-03 -8.604659537147776871e-02 -5.208539453533564401e-02 -2.775194199678162610e-01 -2.731196675068469082e-01 5.109273291820971147e-02 -1.386463434200841532e-02 1.115522334453910164e-01 -1.546123057042984861e-02 -8.064624139620955867e-02 3.410330701246315765e-01 1.060765464195445040e-01 -3.603616269193109928e-02 1.101376480968198485e-01 -1.202582274854951533e-01 -2.855697481431507256e-01 2.100941027877623740e-02 1.091090482109620119e-01 -2.937004693405381728e-01 -2.987430050054081243e-01 1.166610225101038373e-01 1.013271979960018582e-01 1.392901904665966029e-01 -2.729731002971759191e-01 -1.835317736504270270e-01 8.059235016771555682e-02 -6.834463950276545297e-02 1.094914944588145506e-01 6.438917134166725897e-02 2.410392297842386400e-01 1.021692488640773833e-01 -3.788830073853691749e-01 5.003019290444662981e-02 -1.128887365877738053e-01 2.121132924401601394e-01 -2.100595826758513418e-01 -6.229190497501159440e-02 9.802517678549499403e-02 -1.006733721054370173e-01 -1.315739742703616877e-01 -2.498378145795588090e-01 2.710933608888346780e-01 -2.191306542583948969e-01 2.920360445230021362e-01 1.548402702762289862e-01 -1.188102558624631599e-01 1.087806059782125551e-01 2.832902880100516829e-01 -1.407277245911061903e-01 1.344057034226698866e-01 1.497092461263282992e-01 -4.974694018033600645e-02 3.740827560421099984e-01 3.400677313430842119e-01 -4.782925054387567737e-02 -3.329393873438718510e-02 2.294235079577882641e-01 4.920577442313201627e-02 -4.403029295754001121e-02 1.486281567647345925e-01 8.022086289331507858e-02 -2.526799519213461867e-02 -1.778611011785326823e-01 -7.625919878919407147e-02 2.321143995411533156e-01 -1.328879870388232631e-01 3.348932334830900803e-01 -5.421618664663108156e-02 -1.459491946803181429e-02 -3.417263399128515622e-01 2.593669874554810906e-01 1.533205829680020504e-01 -3.553330623067751937e-01 3.911537748330044528e-01 9.413274601790930229e-02
-5.761905927739779248e-02 4.504607681215960086e-02 7.405465856360107790e-02 9.463852369732976555e-02 -2.500964441414094824e-02 2.261925950734481328e-01 3.782956700587764010e-02 -1.640482643104788224e-02 2.129720983021334002e-01 1.001602270819658413e-01 4.470915565098526612e-01 1.733099428392960994e-01 7.620273448875736211e-02 3.291739028129320177e-01 -9.061825554618335721e-02 9.288444803992167154e-02 9.618968530039318302e-03 -2.626688457516122011e-01 9.037566917239674147e-02 -9.386666381840680362e-02 -2.577276625475380945e-01 8.327968345001438054e-04 -3.607485223434558907e-01 -1.721583978143880200e-01 -9.449741642631490079e-02 3.640563237484106124e-02 2.000328877040073727e-01 -3.534194745682362609e-02 -3.617007173976242995e-02 -3.128668030947457934e-01 -3.885757703323738932e-02 -2.655694009209144113e-01 -1.962841846151406056e-01 4.626486623613462745e-02 1.377213903247344606e-01 -6.943383368387053001e-02 -2.087488274171297453e-01 3.269153977698717739e-01 2.191556944006580951e-02 3.442521828154305741e-01 1.362330731468010536e-01 -2.713990184690741048e-01 -3.700914749902747131e-02 1.784153865284744400e-01 1.202892489488398275e-01 -6.645620556225746711e-02 9.923772934825227099e-02 -5.975771792450977615e-02 -1.394311322265640897e-02 -2.547271614990327948e-01 -2.586136232996429363e-01 2.113296005523173926e-01 -9.565491001191849321e-03 -1.100759827259165796e-01 -4.531311599811318341e-02 -1.614417506931200286e-01 -3.583011914535423892e-01 2.354070881073986321e-01 -3.616445452217796619e-02 -4.570238292768878385e-01 -1.201708660008033308e-01 1.393604818046624283e-01 -2.478870895473955227e-01 1.542098487159605236e-01 -3.371951392520905477e-01 -6.643693286678227505e-02 1.366551683579701471e-01 -2.429007949383672760e-01 -8.663210146419415836e-03 -2.897775212194321770e-01 5.168018820694668669e-01 -5.508714086848248703e-02 7.380331798375418251e-02 -4.560483268267524065e-02 2.346313606162007126e-01 -1.212471825067693854e-01 1.323762379954943058e-01 -3.151731203339036645e-03 2.198916227543345481e-01 1.486523441393863658e-02 -2.251106641439006850e-01 2.674320785354650232e-01 -3.164800725075239685e-01 2.802166146249361334e-01 -7.989591735146325813e-02 5.018062446070411520e-01 -1.862884540576482395e-01 2.589274968901871844e-03 -8.674918812338974772e-02 4.896444867845637927e-01 -2.459568084584983771e-01 -5.418360876416278976e-02 -2.735477447492754011e-01 -1.524368737763457105e-01 1.077991382541373527e-01 2.834871130035822584e-01 4.146423963616160946e-01 2.166680823267913836e-01 -1.230784081216090148e-01 -1.108665334220162862e-01 5.646776279349237371e-02 -5.304669844558079772e-02 8.760762532114797774e-02 8.893144586468655632e-02 -2.685933336572064456e-01 2.967917143038541483e-01 1.565394940150097169e-01 1.608197112499945292e-01 -3.156279102965319772e-01 -4.894828439602413872e-02 9.035083368704968643e-02 -7.141464689678950206e-02 7.723652475341469259e-02 -1.400467337982057477e-02 -4.579790200702129471e-02 1.199885958775452482e-01 -3.450548435161169269e-01 -9.633277920707125630e-02 2.126874908325920854e-01 5.860483536313305236e-02 -4.600075531701083853e-02 -1.517782796932040379e-01 -1.724251120954650440e-01 -2.788693876346785006e-01 2.683961771938694896e-01 -1.937920065783139134e-01 1.381084733686323285e-01 -1.202694554492600848e-01
3.894474638955360696e-02 -1.093089232120316723e-01 -2.766142878983161024e-01 -2.850068542924126258e-01 -5.006307315254943102e-02 -4.231288214916620882e-01 -2.051675128140534321e-02 -3.868896436440304454e-01 -2.784743946420871197e-01 -1.151289064224874648e-01 1.169202942582645843e-01 -4.821177151047954107e-02 1.754517207726392566e-02 -1.402269911754243648e-01 -7.598277486472741760e-02 3.427257431299898238e-01 1.597534000396112486e-01 1.404407572660825165e-01 3.081350073106292609e-02 -1.090775075190496546e-01 -1.091718943438832329e-01 -8.493836100231870467e-02 1.400138079419277204e-01 1.286314851627221589e-01 4.755694047137889319e-02 2.763202132761470309e-01 7.453299788194583941e-02 1.699242633071236797e-01 6.819952564240325255e-02 -1.317150022726101821e-01 -1.890073777345787076e-01 -1.080242643417840542e-01 1.729274271223730230e-01 1.492064134572294587e-01 -3.891986091047129337e-01 -3.634449883730426212e-01 1.584219839150754761e-01 -1.238688600681878658e-02 3.895865467553796813e-02 -2.032783267341737102e-02 -1.497034093466814431e-01 2.653057637545276348e-01 3.968486307265221003e-01 -5.490371513910169594e-03 4.608686746189275540e-01 2.451952059253506844e-01 -1.896750994961554637e-01 2.363657520084809227e-01 -1.419451387963857891e-01 5.081765299322501539e-01 2.226495141393863841e-01 6.971390168384551667e-02 4.561215688219860120e-01 -2.152274516378293312e-01 1.131394862015022568e-01 -1.770211195718645325e-01 2.625376560581293983e-01 2.067669240807344933e-01 -3.436042820999032216e-02 -2.075499539899194057e-01 -1.751646009207000199e-01 -4.185380787542439252e-01 -2.581211887229862278e-01 -4.522726350504192583e-01 -1.572636664954241148e-02 2.780055280599329492e-01 1.180819033465616841e-01 8.754778437746175632e-03 -3.780996476866609890e-01 -8.879067200715001079e-03 -1.126112532502701324e-01 6.558322787970103374e-01 -1.424258997181272468e-01 5.148522270449047006e-02 2.845788315031553273e-01 2.330618195049898311e-01 -2.768576552490886189e-01 -2.754879854840719400e-01 1.693225517270001979e-01 -1.653391545613141778e-01 7.529886566082248656e-02 6.814819133966688869e-02 -1.964055990721038369e-01 3.018803382905194677e-01 2.775139366107725811e-02 -6.844251516173875671e-02 5.425823283913847918e-03 -3.696572785421538554e-01 6.227230314238949016e-02 -2.387470061829491397e-01 3.503920062506606925e-01 -9.825823286481343011e-02 2.669566066280990024e-01 1.272212522373339927e-01 1.482284587250276564e-01 -2.782213034444373095e-03 -5.413581057754363046e-01 4.706303234193389556e-02 -1.801369302097676622e-02 -2.191370486470769485e-01 -3.696774707278308592e-01 -2.166617877938364911e-01 -6.301470821963077729e-01 -2.966774820829512493e-01 -6.067070385101275276e-02 -3.799039744001418972e-01 1.451509649360911702e-01 3.205040890961130540e-01 -2.967351892360980403e-01 -1.138724373017992314e-01 3.503158297209175293e-02 3.868632299728060331e-01 -1.013812921339073692e-01 -2.633870666590774623e-01 -2.906605703709023159e-01 -1.130817522284998933e-01 1.304735170602841221e-01 -2.452151298380286781e-01 2.150897940725936264e-01 3.828135833791293519e-02 -4.818428990054038352e-02 -1.638914460306286347e-01 -1.307669161986352024e-01 -5.072931024294809882e-02 3.129332640384031583e-01 4.284121512229389639e-01 -4.390623880451577365e-02 -2.572279319408508069e-01
3.608083396873426607e-01 -9.908326390125087903e-04 -2.384125373346033250e-01 -8.918133548356391160e-02 -1.811102005465203280e-01 -2.346606350950325992e-01 -1.567505345494004942e-01 -2.055650638024096935e-02 -1.556104720327723678e-01 3.485981810635580547e-01 -1.672648086669895617e-01 3.746506952910954036e-01 -1.579718336755525365e-01 1.952063370172175960e-01 1.417974868635762725e-03 -1.935397274262829204e-01 1.558813217063962364e-01 1.102142691563000459e-01 -2.615616062567732714e-01 -1.697443479566688451e-01 -1.470769867583819612e-02 2.322140382214051280e-01 1.422474537599303368e-01 -2.788669633347197821e-02 1.481832254111130343e-01 3.868724453368236893e-01 -6.415392255037515035e-02 4.791672842579963731e-02 1.448826769138021608e-01 -2.760485467905838819e-01 2.865685652282521922e-01 2.010430677257818710e-01 2.906476719977825751e-01 8.920297111584370164e-02 -1.420846023013091486e-01 -4.545018201837048855e-01 -1.889143429288389631e-01 2.867127712517394955e-01 1.442517314588194488e-01 2.231911333862633684e-01 2.307858637693574189e-01 9.245568636188955525e-02 -3.564215443386331561e-01 -6.059687752396093578e-03 -1.815595163426798608e-01 -4.403801554530383661e-02 9.899524527959599474e-02 7.536892034073937319e-02 3.708596707215093269e-01 1.358358303155467184e-01 -2.242666973759722682e-01 1.718002772926242872e-01 -1.725041547780807594e-02 3.130233719225987421e-02 -1.364708289348903203e-01 -4.371854461361274202e-02 -1.945550213500600589e-02 2.679285156292858239e-01 -1.537500318922696042e-02 1.095451474446298284e-02 -3.006445469480832286e-02 -1.756567933042571250e-01 -5.305719286903429199e-02 7.652156581592350904e-02 1.247926993113451649e-01 -4.856945117927061739e-01 -7.236773523505532490e-02 -8.151466977990531881e-02 -1.568696648193893331e-02 -8.654602268065438031e-02 2.161506060820941530e-02 -5.229818152241775264e-01 -1.448484091484559255e-01 2.664263886610395149e-01 1.506250258593677949e-01 -9.220450251350359450e-02 9.769410006010291470e-02 -1.718202021943289193e-01 -2.467933999420853231e-01 -3.760146268569324324e-01 4.413599154255639645e-01 3.788279957426225475e-01 3.236410935803666344e-01 -4.689681838293804916e-02 8.382434983009887097e-02 3.812081026651422677e-01 -2.142908904927201819e-01 -1.197579414359120353e-01 -1.157709897325770870e-01 7.926958251460682059e-02 -1.063226805498500571e-01 -1.002987629287997728e-01 7.490156327201173692e-02 -6.170329701705424830e-01 -8.911609935529352100e-02 -7.682666963099871182e-02 -5.587655313648638711e-03 2.054565222914205846e-01 -1.871764815448935249e-01 -7.591014176669894087e-02 -2.206491982045479805e-01 -1.580602768969741057e-02 1.209650457676535174e-01 -2.070436890190990586e-01 2.192613474183477407e-01 3.830523331258272601e-01 3.865498730844849073e-02 -1.224319713181555996e-01 -2.572960775118027787e-01 -3.202812724228882302e-01 2.040536875442194309e-01 1.909665893459418229e-01 -1.557848703303809090e-01 -6.070117137790900785e-02 -5.305931035569212695e-02 -1.151012677874342222e-01 -1.723138944603185840e-01 1.289806686625859233e-01 -3.029543662252434655e-01 -3.517072312741104656e-01 -2.546638115969654392e-01 -9.433935182830265054e-02 -3.322089876563853461e-01 -1.088989918848081231e-02 3.350863486466075791e-01 -1.513052731137153328e-01 -1.002480982318585123e-01 1.862160796720362388e-01
-8.291057979119946519e-02 8.973804569532204539e-03 1.737994832877137567e-03 1.004374045501973539e-01 3.870842334671742435e-02 -4.891528546277499473e-02 6.647492737677281049e-02 -1.371332445944708767e-01 -4.290516620781929108e-02 7.110094295035368495e-02 -3.693577460648988509e-01 4.294019209596919295e-02 3.590023790866017084e-01 -6.189441963644638778e-02 2.573512870229238136e-01 3.196677722657587650e-01 2.660500668462752460e-01 5.593996813648653699e-02 -7.782244121441352080e-02 1.761779576860511010e-01 -2.187971571175111596e-01 -7.137520438498354269e-02 1.550197734503128422e-01 -7.852613950364439876e-02 1.654250749239740137e-01 2.941134367434100269e-02 -2.343871480398250773e-01 -2.385685558434143538e-01 -2.183473257876439311e-01 -2.679272124703426794e-01 -1.090183606218203399e-01 5.165825475759801971e-02 1.303216832534057346e-01 8.415676091498849876e-02 -1.294468619486744965e-01 -1.238693364264124158e-01 -6.294028496863343647e-02 -3.146325171938181287e-01 1.986033857985237683e-01 -4.867634476113269493e-03 -3.461896155745119302e-02 -1.630285558034069021e-03 1.940494963576778475e-01 4.140336811622472024e-01 -1.529586080980946949e-01 -1.117573139705494295e-01 8.128546438194790558e-02 1.530866738873850209e-03 4.647930356800901164e-01 -1.028326424978061454e-01 1.868874827467067665e-02 9.913409077727476648e-02 -1.259746071344134966e-01 1.213164706383001029e-01 -1.447094403357208903e-01 9.643158886574972055e-02 -3.099818646027355934e-02 1.546868689780635242e-01 8.774719139097764825e-03 4.606466488113422630e-02 -1.466762303560852909e-01 4.004471013655100387e-02 -2.194059017135049083e-01 -4.838300228261215030e-02 2.647826246367522840e-01 2.449507029177512285e-01 3.726476788627794412e-03 -2.074163028064976710e-01 -1.844750260847100032e-01 1.803488640747797078e-01 -3.899969567117021058e-02 1.723330325797761686e-01 4.839395506264541208e-02 1.694847881930834910e-01 -2.386402337412630442e-02 2.737352436659307164e-01 1.801013912974806785e-01 -1.662167107551470319e-03 -2.097675857286312451e-01 -1.670988128696951069e-01 1.050156053689021013e-01 8.015849703641197629e-03 9.406834139675473994e-02 1.076173638039661234e-01 6.001887316349921453e-02 -2.390531399808022706e-01 2.049575832723409818e-01 -7.073339364110636796e-02 1.751516961214917290e-01 -7.876713162341957009e-02 2.584924904842330062e-01 9.083025811817443951e-02 1.690896897067532129e-02 5.373129223592634091e-02 6.733221012616474876e-02 -6.003593827896662460e-03 -2.310368921666238265e-02 -2.576071615209142851e-01 -1.557828453770860044e-01 2.682694872435256173e-01 5.220607509128374207e-02 3.556414974399088602e-01 -6.651082312512962558e-02 1.019212062299649085e-01 7.481866425311881064e-02 3.557301585285098378e-02 -3.824346948060614731e-02 1.297253439201689618e-01 1.165089195325995641e-01 -3.672698711195345606e-02 2.012380084055427343e-01 1.739770063443190351e-01 -2.011918477508265468e-01 -1.170603875467105502e-02 -4.155098880751541962e-02 2.119509276385572460e-01 2.145916495319156736e-01 -1.593861987264456881e-01 1.340322215972016839e-01 3.592378999316662991e-02 9.137440709168011266e-02 2.340599869005039468e-01 -1.149149000540625881e-01 7.816465486151993880e-02 3.174170073092597022e-01 2.157424321746883589e-01 1.184040401864094039e-01 -9.015203651577056998e-02
-1.088664361646202033e-01 4.450393984833683758e-02 3.437894579281475238e-01 -1.772625561709254838e-01 1.567123783866030198e-02 7.978378505557733036e-02 3.975502260083009498e-02 6.080490078910585905e-02 7.764240142044433191e-02 1.998424925815044800e-02 -2.899808574608738199e-01 -2.850780627240069864e-01 -1.640135560433600703e-01 -7.698536485055346157e-02 1.222514878124026511e-01 1.204878717712390829e-01 1.618108958248970844e-02 -5.143826046180331041e-02 1.323633534514609134e-01 -3.693562296792077954e-02 -1.361861408885398361e-01 -1.373936309189006388e-01 9.391434574626288112e-03 1.150600910103522084e-01 -3.836908637113833898e-01 -1.332041865296612893e-01 1.658153099618235038e-01 -6.078486352649822844e-02 1.081604709550173793e-01 2.867072697417872851e-01 -1.015692655062292865e-01 5.358415317075478773e-02 6.274352888116847826e-02 -5.938006080127530839e-02 -1.385461320647836739e-02 -7.183965699984444508e-02 7.796566198557400296e-02 -3.822284945642136916e-02 -3.399755362988916563e-01 -1.240903246642414970e-01 -1.814602925022042179e-01 -1.638370753978702354e-01 1.917642777863441950e-01 2.143895520452652748e-01 -9.751203308199611619e-02 2.482001265333614870e-01 1.294046275651280498e-01 -2.381038081068449774e-02 -2.219705257277740720e-02 8.731471160275790233e-02 -5.456343171411640047e-02 8.830114783991623029e-02 -6.186310853603957383e-02 -1.754908460868001008e-01 -4.641706629522767552e-02 1.336567829787410344e-01 -1.488281317872986453e-01 1.340824891017386722e-01 -9.065156070687063750e-02 -2.178149871115694358e-01 -3.570059984281485077e-01 5.639732760513752052e-02 8.916597747742570357e-02 2.422944239090311924e-02 1.656851018894675912e-02 5.052334014329039613e-01 -7.549938182657982277e-02 6.724891087696145686e-02 -8.815789028810926131e-02 2.270617997398136634e-01 -7.093931899907267302e-02 3.208599843771317572e-01 -6.989470216842018357e-02 1.427277377475488496e-01 7.892053694029400879e-02 3.501309414152264932e-02 -4.515889083613078281e-02 -1.062613280417891160e-01 5.253088397592046987e-02 9.045041170651896278e-02 -1.989342584514492973e-01 1.004042926618466391e-01 8.608083146132160246e-02 6.036224097695059437e-02 -2.547918861761456211e-01 -3.799252252877860503e-01 -8.209722099883913493e-02 3.387391112566733031e-02 -1.331343027782763422e-01 2.670225629404135992e-01 1.394321173440059292e-01 -1.287873723685073746e-01 -1.434458004954725641e-01 1.429306766758909053e-01 3.553661765714827975e-02 1.117278044764696658e-02 2.647483077240043725e-01 -1.487886569709434281e-01 4.248545411510078890e-03 -7.581559832094858509e-02 5.739845370850359813e-02 1.050722282813634917e-01 -2.372053760583864024e-01 3.614600096430742315e-01 6.417464506759307241e-02 8.904242667065320749e-02 -5.009929701473150865e-02 -4.757865559484415474e-01 -7.987044902191896278e-02 3.141107706635941355e-02 -9.413276506332989013e-02 -1.109550729791372592e-01 2.810531641411009602e-03 1.553496718956332880e-02 7.004857886807779044e-02 1.311206894113634003e-01 7.387383391948569578e-02 1.439526752224894457e-01 2.145992711210951975e-02 2.007405262443211491e-01 1.410575589332399016e-01 7.125162194090785273e-02 -2.526079572520411598e-01 -4.910760543312230053e-02 -2.426349451008542601e-01 9.186386592768259335e-03 2.374078260137306995e-01 8.210795148941447963e-02
