2.819588923623785395e-02 -1.627122481079929656e-02 3.995834076937153367e-02 4.245022840768169353e-02 7.784300670557682544e-02 2.168556319451238890e-01 3.572268390703415425e-02 -6.163309186792489958e-03 1.011808181327030452e-02 4.583940275860304975e-02 -9.723199882961712504e-02 -8.730193565962415803e-02 2.244159651778317166e-02 1.725140716686548873e-03 1.869382407334858054e-01 -2.946261003095911480e-03 -2.841309401553230446e-02 -4.313168693133048043e-02 4.565036188682632112e-02 8.654782563216285862e-02 1.633303481485611592e-03 -2.231897473979977883e-02 -4.704270966150442268e-02 1.010114453398528317e-01 7.912434672067165942e-02 6.345974166647429249e-02 4.826389963422804408e-02 1.623843276638300970e-02 -1.939728667458893649e-02 -1.162497177573227833e-02 2.266068098173973644e-01 -3.693010081428085845e-02 2.182656794393645835e-02 1.031936022111350632e-01 1.639127046973243296e-02 6.854092982530676781e-02 -1.921292171210114280e-02 -1.823971952414728814e-01 1.276974263919950225e-01 -1.780792631115352687e-01 -1.769864151367154248e-01 1.491483687545293313e-01 6.274578862156984793e-02 5.259142138777371522e-02 6.728854249708858537e-02 -2.010181698905811609e-01 -9.851974708394435620e-02 1.942197084365558657e-02 1.696109453702593362e-02 -8.768317060353392201e-02 -1.291538049492551299e-01 1.292925507803448226e-01 4.780722491539479008e-02 3.365613255782103769e-02 -9.317167273920451756e-03 2.545484841331209502e-02 3.661564941979087578e-02 6.333764753769319245e-02 -2.185588198482238398e-02 5.134733555784876113e-02 -9.103853872325465280e-02 1.285618289872360320e-01 6.838764129924743140e-02 2.396292866642121822e-02 -1.811415499013604435e-01 2.524203468269784964e-03 -2.943219720682357377e-01 -1.906746677586149685e-01 -1.083242392227628387e-01 -7.041400902968518449e-02 5.732577017391500551e-03 5.170920636579217494e-02 -1.158648959419932706e-01 -6.177687046869289982e-03 -1.141460361068644541e-01 -3.125881577365020869e-02 -4.252745230166509599e-02 -1.175984271172530321e-01 -9.667583589138441236e-02 9.630070796786738274e-03 3.070718937183161690e-01 6.053540389316818676e-02 -4.179350665830729172e-03 1.195899351733461929e-01 -3.366239225978132077e-02 -1.719497386021716367e-02 8.549081422617670067e-02 9.669969998275240730e-02 1.765307718643130755e-02 -8.426267703536190201e-02 -5.530128204910814138e-02 1.583554831319722300e-02 1.420270316509490427e-01 4.488087091239673782e-02 3.201244386633028682e-02 -9.168260141005520059e-02 -1.176424580604147618e-01 -1.086303962581908339e-01 -7.725900876031123465e-02 7.578906732982430838e-02 -3.309826125536623198e-02 -1.163083019868318135e-01 -1.817413602501046985e-02 -1.097531113875953729e-01 8.709134938020548708e-03 -4.135533994110113243e-02 -4.378844455866483937e-02 -7.584165934235225989e-03 9.887404645451809693e-02 -5.501939106380477479e-02 6.295975989509462745e-02 6.933287699707997576e-02 1.939038807247439877e-01 4.250570962660315394e-02 2.035536430145373082e-02 1.326562838180575798e-01 -1.237707225630606117e-01 6.304591872180884127e-02 6.654843234773838434e-02 -9.554938349658965643e-03 1.797795564315817418e-03 3.548391640943585057e-02 6.520536063340039330e-03 7.276084968640932592e-03 2.382693039773170207e-01 -7.283719337305696873e-02 1.740456251435813090e-02 -6.551788917599496442e-02 -1.306808733491683083e-01 -1.792282328152473292e-01 -2.641267991564595977e-02 -2.019010970735671817e-01 -6.489418810361782808e-02 -1.104798596218846754e-02 -1.774396592417439578e-01 -8.014254175707337391e-02 -1.750935523747834399e-01 -1.245169088343342639e-01 -1.305341519284612672e-02 1.607885984123954282e-01 -9.811116349099497508e-03 6.265648544073919302e-02 -5.855131191338799890e-02 -3.933742163431510480e-02 7.351176074013580919e-02 5.990501503112579534e-02 3.264041102535487210e-02 7.293411927652451894e-03 -5.102254318982245296e-02 6.282693571092005935e-02 -8.608646468751254832e-02 -8.376263720273621760e-02 -5.544082434877581345e-02 -2.442239038293492551e-02 -1.214971694899042755e-02 -1.387579225518101034e-01 -5.842012427261271401e-02 5.005055033923212077e-02 -1.560548240048961754e-02 -5.531329062840925626e-02 -1.187715255175961354e-01 -1.383972556511181562e-03 2.767050125025091040e-02 4.984338105118170381e-02 -8.222178404475841140e-02 -2.683944605028181635e-02 4.804177028720566650e-02 1.860962752966686604e-02 -1.027090720289890319e-01 7.147122991004307979e-02 -6.391591675343381851e-02 2.244717018565007410e-02 3.454639782238998896e-02 1.251734928650630532e-02 -1.435491140519637165e-01 2.099393165531155403e-01 -1.512851593380452712e-02 -3.719263459438136576e-02 8.591468386765328813e-02 1.669703260946576659e-02 7.938696583906144216e-03 -1.298500212809417242e-01 1.729115949280546072e-01 4.744696371851451350e-02 9.944245120414824113e-02 -4.593786097458781720e-02 8.031605819144554959e-02 1.506846453976682931e-01 3.128925744612172377e-02 -8.841289496387412516e-02 1.062053110227959563e-01 7.193945144383402657e-02 -1.720267569826215148e-01 -1.451844322191834513e-01 -3.282711801280016606e-02 -2.731040034184588003e-02 -3.995107462071559312e-02 -3.205969145909686596e-02 -1.029993421892030497e-01 1.867648976310595788e-02 1.076197490311864846e-01 7.240840279828397730e-02 6.917470122720285539e-03 4.020114507830227502e-02 9.464234249597724968e-02 9.959306132349246554e-02 6.902071327877801199e-02 1.285485861139492592e-01 5.136552546083068133e-02 3.179939506859518622e-02 2.059809921654104370e-01 3.334717202755262816e-02 2.349068137669422796e-01 2.561899633093967510e-01 1.255059624805931508e-02 1.801489059547168869e-01 7.724265616666900480e-02 5.036447920760297320e-02 -2.092517001672046170e-02 -2.805051252965857222e-01 -7.105012235504254425e-02 -2.804191454165104458e-02 -3.113026279373766123e-02 -3.566356637220587794e-02 7.925651238467157356e-02 3.071578294204158760e-02 -6.927594901213260381e-02 3.191735047334198078e-02 -2.021456113994866619e-02 8.801148201913154556e-02 -2.983006662750239089e-03 -1.104516641190770310e-01 -3.291384045878890247e-02 2.981676172933495420e-02 8.242377753062331280e-02 4.320638296116281751e-02 5.434825457256106142e-03 1.429651689545737292e-01 1.831007154794918879e-01 -2.771477051674429287e-02 1.669323156158668553e-01 1.710110140302823767e-01 2.803098690813533023e-01 3.620067335619722021e-02 6.988625594919126160e-02 -3.140703898155094900e-03 1.235832633953741905e-01 8.467078594831840420e-06 -9.044523889025292418e-02 -1.877631029620303871e-02 -1.588441472177814229e-01 1.247861382326964780e-01 1.025018072331777969e-01 -1.251472756451336155e-01 1.077879231457463671e-01 3.190600813679045356e-02 -3.233087507261499932e-02 -4.322037202969993691e-02 6.292973977245255868e-02 1.405766759253628817e-01 1.231702023241957739e-01 5.944941688730292009e-03 2.142823343392722957e-01 1.749201819890193813e-02 8.315851455821635096e-02 4.544088158261909427e-02 -1.740804709402871478e-02 1.646988578742099307e-01 1.472746828709537992e-01 1.968777066541051723e-01 1.671518075142095772e-01 1.391686543687352222e-02 7.152491145734429789e-02 -2.710408341529594867e-01 -1.142012742883730288e-02 6.975323794481629036e-02 9.349115249942842321e-04 -1.835821431743489898e-02 3.154950306342157312e-02 -1.360069215142660840e-02 -9.671922473088272881e-03 2.741587261072216120e-02 1.285562458708436884e-01 -5.980067715258823025e-02 1.642229622489910223e-01 8.546431831043395377e-02 -7.085868877077067252e-02 5.659917930265487285e-02 7.437110790003384486e-02 4.592550846085913241e-02 1.403428474801800274e-01 7.032848884126724487e-02 1.091874612866234467e-01 9.193289466010289013e-02 -1.162251468458650044e-01 -6.822494031959153160e-02 1.441485142878294427e-02 8.116715769709350117e-03 4.817608892613713112e-02 1.606901264626182380e-01 1.377258672006324014e-01 1.223263680411535749e-02 -6.090205128622022679e-02 -9.953369288710493812e-02 9.607344488772165403e-02 -5.953613851102462773e-02 9.574719545037685409e-02 8.367563616110723634e-02 1.615096477014033305e-01 5.822719152875002746e-02 6.719196837484116280e-02 3.464910351298534918e-02 -3.332137982785347147e-02 -2.366452353264017483e-02 1.403171168666704147e-02 -1.559365543472073512e-01 9.341146871839163188e-03 1.166082013233567770e-02 1.726134263245954897e-02 -7.918477347832757196e-02 -1.322352496763153085e-01 -1.433335039882649431e-01 -1.570126484572889614e-01 -1.296185413000219486e-02 3.879738327722550423e-02 1.042165276031839644e-01 2.593778243181791773e-02 -1.598349753976300303e-01 1.052503599397475349e-02 1.752509758383185012e-01 1.200646735715998753e-01 8.906058717682346915e-02 2.114390724991088988e-01 8.771943788672161360e-03 -7.882579758492157251e-02 8.270774220336200855e-02 6.565586253091806879e-02 -4.965858044887667272e-02 -2.564322677125409344e-02 2.668426065523405236e-02 -1.397486303642414274e-01 1.362519367429638473e-01 1.172980259325632352e-01 -6.583901651653541187e-02 -1.143424255211343277e-01 -1.469966876142940193e-01 3.969942377134447198e-02 -3.823718618618473508e-01 -1.145276584793398500e-01 -1.122368245016290567e-01 -5.824579278990910797e-02 1.843389741109758284e-01 1.058246752989314976e-01 -6.116626576642190255e-02 4.936201566749194580e-02 9.455316583387179952e-02 1.241186548014028973e-01 6.134631415001254306e-02 -8.808173736045529778e-02 5.175244174084266818e-02 1.653594013588609857e-01 5.087325393140143537e-02 -7.995642842607963985e-02 -3.153441209077553070e-02 -1.540043547630632892e-01 2.816165985106848513e-02 7.267530425017916518e-02 2.420909515474255463e-03 4.037063163330516236e-02 7.775644233101392314e-03 4.452718983902975020e-02 -7.720749991673697687e-02 -1.084650669610433271e-01 7.376062183089862612e-02 8.040058905513203236e-02 -7.129058314981695510e-02 -1.375089079860904173e-01 -4.999587094295659950e-02 1.375819360904163846e-01 -8.313928594758508706e-02 -3.629818043779275277e-02 5.848179159912245823e-02 -1.607592916264586475e-02 -2.324555806491159782e-01 -2.969375407506012407e-02 9.801277008882507136e-02 -1.248509464851245560e-01 -1.308569380897688372e-01 -5.655119316980051353e-02 -1.607831418033071336e-01 -2.447814990186409148e-02 -1.695792676874382510e-01 1.629620940826397024e-02 1.024566861269612938e-01 -1.866081650944241901e-02 -2.684434254877557727e-02 3.876254253654180110e-02 -1.757031845230773654e-03 1.643422774763951891e-02 -2.396435890588855325e-02 -5.884874563778057927e-02 -5.629544077440074706e-02 -9.584637037882477728e-02 -2.779887360882465908e-02 -6.235354588638387929e-02 -1.240444780675543091e-01 4.997064554687826593e-02 4.412608439698357393e-02 3.527865130751847711e-02 -6.300724714664276971e-02 1.297059246176030661e-02 -1.488117770637397419e-01 -8.256010058774168603e-02 -5.302769868222081961e-02 -9.601343465364212126e-02 9.931311124060074325e-02 -3.314792097298299017e-02 -1.923645557421799906e-02 5.118658431514402224e-02 2.276490353785490250e-02 -3.108378061890258379e-02 5.129836521295370183e-03 -3.609313063655353315e-02 -3.403988145790058564e-03 1.883548247150446109e-01 1.083794216807063421e-01 2.917981772606769580e-02 -3.643651696541664459e-02 1.214169860413335800e-01 8.424523509215742223e-02 8.665600824254214574e-02 5.560412153587324102e-02 8.507055905044372257e-02 3.766406152801363150e-02 2.259206717859090774e-01 1.717044040887933110e-01 1.338907814533533691e-01 9.990699548943367259e-02 9.131274051238902345e-02 4.484675568462552671e-03 -2.046538712446218933e-01 5.945111092901133459e-02 -2.366928088264752539e-02 -3.210445054075840299e-02 -1.506115925081554230e-01 1.066995517364208862e-01 5.173597112988961161e-02 -1.445607030542984395e-01 8.669131074564764838e-02 -7.749999042924680948e-02 -5.050699991390904253e-02 -8.470819614606536763e-02 1.961341409690943102e-02 8.026346993355031045e-02 6.649252551429912783e-02 -1.343404370608495824e-01 1.840203203930957931e-01 1.460054788671689696e-01 -1.033817634453595147e-01 1.620173741292691150e-01 1.208191677369877814e-01 1.923475419835272981e-01 -1.556964759967328915e-02 4.509139807351471817e-03 7.524856262649078087e-02 1.366059822703222515e-01 -8.561561663128246236e-02 1.191422302205810552e-01 -1.321643623467413098e-01 1.300033338809982730e-01 -1.210919492806810382e-01 -1.208280862855146826e-02 3.851552821799984067e-02 8.707581650917563254e-02 -1.161627226088309504e-02 -1.777702436569180908e-02 8.645813744853639293e-02 5.917057153092142308e-02 -5.588477681815361142e-02 -3.531961492081257120e-02 7.115483667817265601e-02 2.633461105950190562e-01 -6.658033224028750419e-02 -7.106220254287988480e-02 5.947462053804360160e-02 1.100301863658280921e-01 1.193213223158503394e-01 6.337740325248231166e-02 -8.799643475697856154e-02 -1.864949494727433793e-02 1.744038882907192681e-02 -2.526013191607066194e-02 2.090570455351478119e-01 -1.008034035950946261e-01 5.506145035245683245e-02 -8.838025588217618411e-02 -3.528059718185715815e-03 3.727244902307087770e-02 -1.282199516788642413e-01 4.205214560467188112e-02 -7.364857697967726324e-02 1.522453405835096640e-01 8.338145362528640026e-02 -1.074747530382230178e-02 1.534121417658705910e-01 7.547077028412130240e-02 3.478279336749964118e-02 1.895365907180777965e-02 6.692577997209879503e-02 -1.125691518890755694e-01 1.059088463419110976e-01 4.671600374131275324e-02 -1.857822876274934504e-02 7.052838694890194160e-02 1.770068102136978724e-02 -8.803659345184466911e-02 4.576665589706407217e-02 9.841784310865443752e-02 -1.667941118195357189e-02 1.249105629305699849e-01 -2.292861655151223199e-01 -4.380869339874698259e-02 -4.084501981169975232e-02 -2.588176202016051475e-02 -1.739060789419678496e-02 3.291693239420476202e-02 -3.383987380712617093e-02 -1.362877272636496828e-01 1.191618653417531315e-01 -6.103252038767899290e-02 3.367116938767233253e-02 -1.723220563996888388e-02 7.910881858381565990e-02 1.721927553840505998e-01 1.560726237184949586e-02 -1.508286997712409705e-01 -1.351910638490932681e-01 -6.088475648226644721e-02 8.712660197932702022e-02 4.119186225828665171e-02 -7.748063499367473239e-02 -3.883399848500732054e-02 -2.119155435722400727e-01 -9.526377228991156354e-02 -1.245996382352071719e-01 -3.316625116289475539e-01 -6.800796470838811614e-02 -1.419043763972552274e-01 -1.406107489006222684e-02 1.762647601684420029e-01 3.317564905910821288e-02 8.312401848307200691e-02 -1.264262344367661772e-01 -8.908396290247643911e-04 1.299570716583688113e-02 5.125830888702778698e-02 3.966145397514733023e-02 -7.817213351255931919e-02 -4.083253223807209453e-02 -5.443032003461824309e-02 -5.818823488764575391e-02 -4.553451878796178215e-02 -3.719108637469895756e-02 -6.298353391806564561e-02 -1.180199362895595488e-01 -7.930095229752451291e-02 -3.809807363967087496e-03 -1.071499918764485942e-01 -1.085040970454577008e-01 -4.718874932521806287e-02 -1.463571051462868658e-02 -1.635840528802298688e-01 -2.132023876040653465e-01 -2.693451679127552290e-02 -8.262783966099022936e-02 -4.222811840201249473e-02 8.350528800495619908e-02 -1.333360963589428350e-01 1.019536574492811189e-02 1.901355663599599635e-02 -2.417082230374905522e-02 1.579069755036200395e-01 5.719431566713368414e-02 4.182332780514875364e-02 -1.234768850604803514e-01 5.319150238341703585e-02 -5.175228606408665416e-02 -1.199449491452015959e-01 4.948944980514242281e-02 -1.880923915486847758e-02 2.960716250797423149e-02 -3.050344782272927310e-02 1.222967909827949590e-02 1.649280807724983200e-01 1.325243366560416858e-01 -3.064279738387995153e-02 3.525105210403805395e-02 -2.527464993499284884e-01 -1.814907781617171312e-01 -2.018253655440542249e-01 -5.098875044790988215e-02 -2.814048877024335482e-01 -1.844656099149842854e-01 -2.136574357833976590e-01 -5.686469150743010681e-02 2.534238372891293653e-02 -1.270955250263120229e-01 9.985322111121387734e-02 -4.046656726842824681e-02 -1.194152782235272242e-01 -1.325042099641619842e-01 9.263322715390329143e-02 7.144975351781701622e-02 -5.848467447509816952e-02 9.311692408311738473e-03 1.901085757446065172e-01 -8.542403277119307858e-02 -1.860709750766809068e-03 -1.655992780673493786e-02 9.939085088496085740e-02 -1.082435673801293435e-01 6.574566615865926056e-02 5.599177335637241237e-02 6.617692131985350446e-02 -5.571127954463367393e-02 1.099930123132872306e-01 6.620260354927680335e-02 -5.646173862219482087e-02 -9.634841519062545268e-02 4.141621757351632294e-02 6.212126569039842783e-02 1.000557450107250612e-01 -3.435389794474513758e-02 1.328222853460509778e-01 8.715327241161634209e-02 -3.289545307486115705e-02 5.966247490154240329e-02 2.006080357156908855e-01 -6.675704683348310242e-02 9.987374453468406132e-02 1.539012980555517218e-01 -1.461021981455485619e-01 -5.861137290345462547e-02 -2.147967301886800212e-02 5.368869906129926373e-02 1.136835870584192582e-01 -3.885999148023036587e-02 -2.337493954701099289e-02 -6.824517185633108274e-02 -4.098296713603009900e-02 1.045174131610496493e-01 -1.398686922476945031e-02 -8.034350098400273865e-02 1.407774172180819294e-01 1.091847133234735701e-01 -1.620189701888069891e-02 1.342798412088155036e-01 8.198554344587388742e-02 -3.513339954537159776e-02 1.237907099725276128e-01 1.494188843163841429e-01 1.715653487580838174e-02 2.183341829676306856e-01 1.029768374370420864e-03 -1.327171996335396904e-02 -6.996817431338618262e-03 1.241773506901134166e-01 4.079770568722840447e-03 -2.417907831227978088e-01 1.116976600561405027e-02 -1.590773913919342475e-02 -2.685878338586176334e-02 -5.531779911928134258e-02 7.201564976834523568e-02 3.203420727003052776e-02 8.897288777840248186e-02 6.122634971050405078e-02 -7.384900067457600414e-02 -1.040150675781744138e-01 3.505793548931258191e-02 5.845519351444226214e-02 5.448809013174988475e-02 9.011046771551325940e-02 -3.664400963169153758e-02 1.598049551907166910e-01 1.744484177131310487e-01 1.227894715829859346e-01 1.089390539380649253e-01 1.993804178448718989e-01 1.896245867300777599e-02 2.764037901572776942e-02 -6.631437213303957579e-02 9.741060917702074051e-02 3.697297375333681579e-02 1.639938535092765048e-02 -6.289891640474645773e-02 7.842334573595390046e-02 4.320979586796624278e-02 -3.451923123893663181e-02 3.335521975128493549e-02 -5.928715890597614085e-02 -6.963891339675680470e-02 -5.511558576725159725e-02 1.001859395763078503e-01 1.360096154712171490e-01 3.548929442599326042e-04 3.208502232599949600e-02 6.306924029824212408e-02 3.626586436613970371e-02 2.992588852972282928e-02 1.528429273783027120e-01 -2.005339092648282182e-02 1.244817082901589732e-02 1.598806156954568070e-01 -1.405664875744098707e-01 -2.427443659938257128e-02 -2.751016146616670766e-02 2.167834230339272389e-02 -1.067560064741769482e-01 -2.123088162427965234e-02 -3.108984293425015935e-02 2.433988383363038313e-02 4.199094534008752932e-02 -3.934602169233374774e-02 -5.668515161956814985e-02 5.692424501144318499e-02 4.288655185131529796e-02 8.271521315631456817e-02 -1.674200276521062292e-01 -2.890681270481738202e-02 -9.162899751885500432e-03 -7.000354117996167302e-02 -4.143204667549523629e-02 7.058544786694294360e-02 1.108078730320284644e-01 6.147064032658435678e-03 1.255320273307731216e-01 -7.467959905334109472e-02 3.864031241853641691e-02 6.598096421269963874e-02 1.082210992034948575e-02 -1.447687592243012411e-01 -1.050825700739465157e-01 -1.581132726619654486e-03 -3.052829839540567303e-01 -2.515367806412383347e-02 -5.977321603456552807e-02 3.992771829635834852e-02 2.321221719910509726e-02 -1.649015003449162686e-02 -1.613602461180037029e-01 1.402605715011508158e-01 -3.727425891594877971e-02 -3.322975041491085454e-03 1.834334237258106876e-02 -1.078382305782039571e-02 -4.852195514369002372e-03 3.783563735904450775e-02 1.879448914242781233e-03 3.898767409971561071e-02 2.298740358386625049e-02 -1.068964894035444729e-01 2.292618464269463585e-02 -1.446837075346724399e-01 3.521570149997075433e-02 4.941472357567253115e-02 -1.069898694955634944e-01 2.540262777455617321e-02 -5.495698788739714763e-02 1.608393389277902319e-01 -1.317721355238762014e-02 -9.250133741956112488e-02 1.717483405347783321e-01 -2.716020324416559481e-02 3.065340152381967193e-02 -2.547452197968938167e-02 9.074241150797577801e-03 -2.827550247100008712e-02 -3.932876943644449119e-02 1.000782478895125699e-01 1.791953327251588970e-02 -5.254566021609459459e-02 7.004209425590923570e-03 -2.633632107476453071e-02
-2.110743667386976927e-02 -2.208580260933087208e-02 -4.573608314535059644e-02 -2.304889593461741937e-01 -6.125084084563883931e-03 -4.679617699561178928e-02 7.980539384914470125e-02 3.328657958603484929e-02 8.549181777461455078e-02 1.177049329503399890e-02 7.401829519803085344e-02 -2.083400055080249919e-02 -1.015397837784349361e-01 -1.137059172409952967e-01 -9.352586201063219085e-02 7.125092822319202546e-02 -1.454417267959080551e-01 -1.141835326382051180e-01 -2.531580540037023722e-02 2.031997832804043613e-01 -1.048808143921470259e-02 1.282714902362917797e-01 -9.960053144281427046e-03 -8.140200820396829851e-02 2.002495753736426021e-01 -7.455002701544744675e-03 5.670418479011344465e-02 2.732720304171660369e-02 -5.702047016682051245e-02 1.998876149063775684e-02 2.871827176733835266e-02 3.527010411219772684e-02 -8.596407938179702335e-02 2.441816386284687349e-02 -7.882962053536601843e-02 1.142360070007332334e-01 -5.191412541471122910e-02 6.468679980762027937e-02 9.410702888317833137e-02 -1.219218414215421237e-01 -7.333428605536389255e-02 1.028698852989578111e-01 -1.197192705423967690e-01 -1.050904739453619868e-01 3.726657109962294712e-02 4.240781357348356526e-03 3.954347575114698643e-02 -4.742506099685023235e-02 -1.852492401995746441e-02 6.792557486195800742e-02 1.521744599795350206e-01 -4.724752956213197630e-03 -1.721219336367445923e-02 -9.754151125558087332e-02 1.107601076805439337e-02 -2.410156784911178240e-01 2.599260146095386942e-02 1.187187343634466125e-01 -4.194075163926165584e-02 3.788206600085837050e-03 -5.527975144885966148e-03 -3.984339542838444964e-02 -1.394318197512964819e-01 8.637561261425871773e-02 5.776410799293456300e-02 1.055702519338873151e-02 -1.470794391429040664e-02 -9.700802023364936411e-02 1.011330138337595136e-01 3.684359937859417455e-02 5.013926617226144994e-02 1.880312467902818183e-02 1.575627178946090862e-02 5.216973466948004318e-02 1.217059487644955168e-02 -1.317210473316668276e-03 -1.056597175491484214e-01 4.273196163941305609e-02 8.252414412097014082e-03 -7.419699601497815877e-02 -4.268408556297688915e-03 4.661476806778860199e-02 1.209291254625597944e-01 1.293584702799761010e-01 1.100787130291082209e-02 1.217903927802583414e-01 -2.384148180109026405e-01 3.300021125976873582e-02 2.093102297357404273e-01 2.477115147917046886e-02 -1.633769845684436839e-01 -4.606073194623261369e-02 -3.309115926948861391e-02 -3.762340268905961516e-02 9.481557746134092191e-02 -1.098364111439773666e-01 5.218811687281828260e-02 -5.299254966652415522e-02 -1.286079492892393539e-01 -6.377341292920869764e-02 -8.145517172735536326e-02 7.970189247341874506e-02 1.074195277262024462e-01 -7.834988873023167322e-02 -1.791516693842949703e-01 -8.080117807709508160e-02 -7.256962733958852163e-02 -1.860432963665658301e-01 9.966815190706970751e-02 6.802117696980193931e-03 -4.225986872540094669e-02 2.827547511684426820e-02 -3.069531506068366375e-03 -1.262649194840033129e-01 -9.360191774916730087e-03 1.609384617560337058e-02 1.083334075603404056e-01 1.334106955715072193e-02 -1.760189811993443376e-01 1.476544997153746430e-01 -7.631378477594198684e-02 2.954515766236729887e-02 -1.711799409822915841e-01 -4.125887276062165099e-02 -3.791732644755151788e-02 1.729017760903998335e-01 9.023306325722826871e-02 8.807945265952495106e-02 1.059469632432028657e-01 -1.180731057326039751e-01 -4.737372551614288385e-02 1.378891847408723059e-01 -6.013404239440724858e-02 2.022120656028530972e-02 1.536815079845618194e-02 2.152032327882690346e-02 -9.012486158890455068e-02 2.817745955241620151e-03 4.588226683624598012e-02 -5.694661198034480648e-02 -1.931601226037613084e-01 9.265790170279716853e-02 -2.426646118684388370e-02 -1.019627942638315354e-01 3.124286917165450955e-02 5.365934639860136385e-02 9.573382512784206488e-02 8.535791831969338772e-02 -7.905008399603677405e-02 -1.136214141963551305e-01 -1.226288681111197161e-02 5.064644013393689026e-02 1.478609446197189370e-01 1.393380950255840578e-01 2.006065631933910132e-01 1.623177644805515185e-02 4.314885739030555056e-02 -2.539658535944408144e-02 7.164619777045984350e-02 7.676090081939622618e-04 8.882655656212377557e-03 -5.074303598110042023e-03 -1.422439601540905624e-02 8.891853886247824690e-02 6.348737915896828995e-03 -1.337498890912702798e-02 -1.292787600136374171e-01 -1.731651606218931883e-01 5.012693011976163820e-02 -1.033639213140055135e-01 1.329391005139509210e-02 1.421878465191679652e-01 7.804375425485542139e-02 -3.248165480372990771e-02 -2.745366401541458889e-02 1.586174771854540616e-02 -4.020583784189481029e-03 -1.996421532274716415e-01 -1.079703735554842919e-01 7.698961981950204481e-02 -3.829770757084682148e-02 -6.084593074187272244e-02 6.557417573542739797e-02 9.017171864921760815e-02 1.127472905276162285e-01 -3.348690774824669009e-02 -1.099829859196205933e-01 -7.222587690822564188e-02 -1.640506927472882848e-01 2.603125166464523646e-02 -3.625248242759979145e-02 -1.178724044542917432e-01 -1.144651843055497636e-01 1.699753551717625086e-02 2.809043393084732082e-03 2.054827864925259095e-01 1.438404209271125500e-01 -8.049035897702469522e-02 1.092638276402455449e-01 3.277980110343777648e-02 -4.509921246501729514e-02 -1.208095983174339721e-01 -1.118942550496867944e-01 3.234491504790636823e-02 -5.066310012931592860e-02 1.434719414597988851e-01 -1.394756669222997347e-01 -1.428518330343148401e-01 5.687951654052598310e-02 -8.794454630892667435e-02 3.762293616090846282e-02 1.374023327063278455e-01 1.451679202318193092e-02 1.808698060064992119e-02 9.778732196801971643e-02 -1.723925375356530343e-02 5.503612868676310138e-02 9.663823313353242517e-02 1.158114228940477219e-01 -4.670510192094608909e-02 9.590007895058987042e-02 -6.349216795019024806e-02 1.252302920376520412e-02 1.170154819991177098e-01 7.459837477919904758e-02 -7.318126493499088614e-02 -4.551847998529382627e-02 -1.555050768631150923e-02 -9.786626329966960358e-02 9.953198355151833543e-02 -3.579412453303698616e-02 1.706288485446127712e-01 -8.760293361659030054e-02 -1.041789696513208824e-01 9.830169138167225637e-04 3.968366520550569571e-02 -7.041168962565813594e-02 -1.693137368552550745e-02 3.084822044054605708e-02 1.169909150597861318e-02 3.057867996222796148e-02 -4.112472492419153719e-02 -1.421681639722282842e-01 9.188711635447542603e-02 1.502417998669499863e-02 1.965945518462516514e-02 1.683777503611171567e-01 -8.818966177205976587e-03 5.892368047087016836e-03 -5.397813604726522940e-02 3.128167682208694844e-02 -1.462764152940664725e-02 -4.649427760655220482e-02 -5.608845189814141291e-02 -1.514255339384920906e-01 -2.029247200031986716e-03 -1.295156186768690321e-01 -1.389855192647843629e-01 3.117702326882892949e-02 -6.158937974626284284e-02 -3.186100522389214568e-02 6.366118579576754422e-02 1.938947153651694733e-02 -1.543400655682973001e-02 1.257097366820427442e-01 -8.530352890811786215e-02 6.291727647108245891e-02 -1.540830372937510018e-01 -3.905412981929592964e-02 -1.087021067314044576e-01 1.139709497193979945e-02 7.804404197184693082e-02 -6.197853577160768873e-02 2.461115898897464280e-02 -1.313278889527984272e-01 8.738628461340501585e-02 1.001449420451331340e-01 4.221884305637249590e-02 -5.469562080143197669e-02 6.650675558468883974e-02 -5.110090521369231586e-02 -6.233221203713944919e-02 1.166991683829624905e-02 -7.506957171693019737e-02 -6.248352366805327851e-02 -1.074971171623673449e-01 -4.018012431992664529e-02 -1.506789655365203540e-01 -4.440363722113518929e-02 2.852388238100157791e-02 4.200097016858190049e-03 -4.631286448671553986e-03 -8.177840992905716436e-03 3.523465513288532441e-02 1.938615795699050182e-02 -2.545516426723255093e-02 -1.248584352352394150e-01 -2.181263003668664630e-02 -6.688284870918198566e-02 1.596980567769518264e-03 1.321970821161245480e-01 -4.394646621461043706e-02 9.692822408789299182e-02 8.545791655773467277e-02 -1.681520743952077826e-03 6.109161204689855795e-02 -1.455918575392275705e-01 -6.610360845318374867e-02 1.183043172903612689e-01 3.627868442303641000e-02 -6.261891111051298697e-02 5.907015937574384284e-03 1.440951252367426820e-02 1.034778811877377497e-01 -5.776376686356601842e-02 1.300108762317278011e-01 4.752475840732278689e-02 1.178337621820679387e-01 8.087790329017928437e-02 -2.709072569895456389e-02 4.292478540562595299e-03 4.122882164455723975e-02 -1.333603967226532072e-01 -2.480945107809327532e-01 -2.358961553777567111e-01 -7.137599829349565439e-02 1.310546007643638433e-02 -1.572734791807655907e-01 7.633633270965267670e-02 4.419190287912899695e-02 1.578696575660469836e-01 -2.646623783119529325e-02 -1.446490894431628482e-01 -2.685562550928690881e-02 5.814871318909418940e-02 -4.019718102692929063e-02 1.012706435275673444e-01 4.510620551707563569e-02 -7.890217134192524517e-02 -9.724692866190829191e-03 5.546635665703444906e-03 9.164749476178388199e-02 2.161657461872728073e-02 -3.113386361262489646e-03 2.795232941784214428e-02 3.973927771903124767e-02 9.661861180232031443e-02 1.092698287066289076e-01 -2.103425526543039464e-02 6.372495168473384097e-02 1.225358555997568683e-01 -1.363470491739142421e-01 -3.770271921759868472e-02 -6.392975492884077349e-02 2.947862866516989463e-02 -6.994769405956022257e-02 -6.569001202738386502e-02 -5.216249225437975812e-02 -7.767541143285001948e-02 3.583992418486728337e-02 1.816023260914226833e-01 4.499470043427809818e-02 -5.377586673179864801e-02 2.124849615577683107e-02 -3.705536288135922399e-03 -1.090204693048864720e-01 9.851741913766233483e-03 -8.654624714258933593e-02 2.205590847819737313e-02 7.602029751574151950e-02 3.608763044093699773e-02 -1.185511975614490787e-01 2.327121388220885351e-02 -2.072095996920321828e-02 1.180267803266973198e-01 2.333131786020882850e-02 -1.186388745451127519e-01 2.008732783283389833e-01 1.024182777944148415e-01 7.579459398988605545e-02 -1.131526969348461836e-01 8.338896597541331501e-02 -4.142635525898680227e-02 1.081012084790640843e-01 -2.658495112971958826e-02 4.579103736082665473e-03 -4.701174349194569418e-02 5.115502567074300955e-02 7.795119899414655606e-02 7.002261791697916848e-02 6.555905527349967232e-02 1.103104081800004715e-01 -2.826305585913738497e-02 4.054887597649774883e-02 -6.645387366917632210e-02 -6.550075548484342314e-02 -3.269891952432438936e-02 4.753730777418140735e-02 9.304880294210515768e-02 1.073511830095295466e-01 1.220727424319773269e-01 -7.283241281759737784e-02 -7.254010092197600568e-02 4.486683070291135056e-02 -3.665151453285214658e-03 1.544981491009148611e-01 -1.272885847370697765e-01 4.384359458876604249e-02 2.484569974740446704e-02 1.972950372311112199e-02 9.999970446420211601e-02 -2.308919039062118372e-01 -6.987358157422962623e-02 -7.142108808202307646e-02 1.043638678601926800e-01 1.468095624695114065e-01 -1.349315979196252964e-04 8.604192726976554739e-02 -1.237502148696458110e-01 -1.784697429479441544e-01 5.561372312911615906e-02 -5.299496221805208990e-02 2.761804563179376393e-02 1.561039257476282971e-01 -9.166209830208695009e-02 7.636058095655097466e-02 -6.987164298264952889e-02 5.753561560315798712e-02 1.062663820825020117e-01 1.745609792557196172e-01 3.151387420158594660e-02 3.329186092235050798e-02 -7.005942077854869499e-02 7.402800501849852999e-02 -5.200803341270387320e-02 4.096706315567542195e-02 6.944732441943041179e-02 -1.001401392896340142e-01 -1.861858654192037055e-01 -5.160709160435783018e-03 1.083889827058309718e-01 -1.288290392600828504e-01 -7.140879786005023544e-02 -7.004724173948741195e-02 -9.626681269012785092e-02 -1.373382681210246793e-02 9.358824576438704024e-02 7.289314882354455682e-02 -1.225099682120617955e-01 -9.597650582345540471e-02 -5.254015273616850085e-02 2.574617238679794556e-02 8.115466412756969228e-02 1.231088615517765134e-01 1.469081738293937234e-01 6.727498957384892009e-02 2.164539112533390430e-01 -7.536366180045629692e-02 1.845929414303748295e-01 -1.288326621501808544e-01 8.728478417815668799e-02 6.305041111405865206e-02 -1.150913387859574810e-01 8.717339241857129106e-02 -2.145252702378444842e-01 -1.354207978756412634e-01 -7.578226631224090071e-02 -7.330928319358839818e-02 -1.733879457053396633e-01 5.222409600275489810e-02 -2.561970648177179788e-01 -8.654877046076397962e-02 -5.100630815933700907e-02 -9.707468093492112185e-04 4.359738800787156532e-02 3.006195348078941065e-02 7.331261117527516913e-02 -1.440159056908250912e-01 1.870387641790473982e-02 -9.859262082387411363e-02 -3.905211062506016434e-02 -2.979108038480669449e-02 1.461245783691390854e-01 -6.207193623950596657e-03 2.182352649518481263e-02 2.121645681567016772e-01 2.203676562631692870e-01 2.178123604936722801e-01 3.579944079638836540e-01 2.555971923244780217e-02 7.353314710144989719e-02 -1.357302961560532574e-02 1.177100899739031217e-02 1.878768733501919586e-01 -1.023097605884725203e-01 -1.715474859254996209e-01 1.977826927521260728e-02 7.218234167007990532e-02 -1.443165211424763950e-01 1.391518964074601461e-01 -1.498299640182959858e-01 1.578450424981766437e-02 4.459578651861645024e-03 -1.652460543994880848e-01 -6.822581944364711215e-02 -2.550127959499389613e-02 1.236239376952558014e-03 -1.894514065961450111e-02 -7.286573065813121974e-02 1.511310812519077798e-02 -1.168090498467248828e-01 1.563232610530098932e-01 2.999861240759272851e-01 3.088639543246898267e-01 2.401834217774994618e-01 1.322454184298564595e-01 1.303855502276120015e-01 -5.893844266146781169e-02 3.852367203475108581e-02 1.529275740591242716e-01 -1.302053453726587373e-01 -3.108106735129227693e-02 -1.329466210446777208e-01 1.247846109979327683e-01 -9.520944842717675438e-02 1.019733326257192957e-01 3.097406134734342550e-02 1.785554559636983243e-02 1.456682717264874694e-01 2.702443460736382586e-02 -5.731205098529909558e-02 2.753067042360989036e-02 1.261052368752937219e-02 -1.445068397430318390e-02 3.117489295994700996e-02 -1.161826538675976989e-01 -4.428353814100235986e-02 -5.031448183351256570e-02 -1.374364305638470785e-01 4.394113226373674158e-02 1.508825482729150846e-02 -5.051872273149362463e-02 2.393765390893252687e-01 1.655470740361976723e-01 -3.135809342278414458e-02 8.807807360638021665e-02 8.100068126418140391e-02 -1.213719192162250743e-01 -5.039186731378778733e-02 1.820393458592883817e-01 -2.258286406957893747e-02 2.903725544028040381e-02 1.582069304651896949e-02 -8.622198366737633679e-02 1.595337444891557765e-02 4.425466823852471782e-02 -1.341319608522187623e-01 -2.683858160125092776e-02 -2.844110222017071088e-02 4.335281945215965077e-02 9.003252183423439414e-02 -7.894442558524271403e-02 -1.440261733211508077e-01 -3.077585553361674494e-04 -8.738844333080245108e-02 1.089958100397235563e-01 2.795925012941828935e-01 6.704948797140769523e-02 -8.931940168204299813e-02 -1.499140714005431085e-01 1.119952120802751444e-01 -7.305514193976450632e-02 1.654983473167861430e-01 6.170130153235310090e-03 -1.335494203050203652e-02 -1.454317648359414461e-01 3.066054492919399396e-02 -1.930279648265289041e-02 5.263500815602251137e-02 1.005798777314112352e-01 -1.051853780035024583e-01 -8.347012654665846021e-02 -4.811133569601092064e-02 2.491140534136460777e-02 -6.781962992074647145e-02 -1.166170398139463327e-01 1.955604488216004105e-02 -1.766229777723071215e-01 1.328464225051208536e-01 -2.419407219869809320e-02 -9.154882266410066527e-02 7.553855289889989388e-02 2.038086715948234928e-01 -1.799690808494437341e-02 7.470356835016005170e-02 5.347927154843414022e-02 5.086083731363739285e-02 1.137107407994900482e-01 -2.621403882096635767e-03 4.343474212680104724e-02 1.803290742854992135e-01 -7.968639607333970198e-02 4.874014183378257842e-02 -3.146751145441654268e-02 -1.132913006472550665e-01 -1.899873488098824670e-01 1.407510427913575557e-01 -1.508096150748916911e-02 -1.241248899741482538e-02 2.411717906340211104e-01 1.179752622450248346e-02 1.598949122204110507e-01 3.577804398012228437e-02 -8.362921519095053990e-02 1.931833073915255848e-03 6.257451418497496365e-02 -7.590402694823344953e-02 4.068004890078746882e-02 -3.881082003321360135e-02 -1.287098109241657240e-01 -7.725231951625124993e-02 -1.390435213803665471e-01 -1.055924070951587065e-02 -4.704715638241980906e-03 -9.952877140303387216e-02 -1.742479206457445140e-02 5.712078296505961050e-02 -8.580412670261566843e-02 -1.894992662093514940e-02 5.748747872700213368e-02 -1.175118736585889917e-01 -9.449226422952052007e-02 -5.303337773130031851e-02 -4.862983754073944842e-02 -2.155405081945370796e-02 3.747665013586000404e-02 1.001166926279939834e-01 5.253078302144034706e-02 4.955272079898285185e-03 6.148029496565978608e-02 1.415241577741407908e-01 1.328112152753655253e-02 -1.246935566551237717e-01 2.883844555847640129e-02 -1.544943151889271830e-02 9.292764944052313292e-02 -9.745215030969044817e-03 6.727110780781539803e-03 -1.118498641608849098e-01 -4.493946356101756467e-02 8.965037100641402856e-02 3.401939357977847023e-02 -1.040880710884451998e-01 -9.866876292747442379e-02 -8.119824686089087418e-02 -2.027359250427133303e-02 -5.702713363408008773e-02 1.065149440427751726e-01 -2.706285949047596007e-02 1.840689699764007092e-01 -6.337260149952349264e-02 5.073451224143115529e-02 4.545745642124343622e-02 -1.694669248981014727e-04 1.755059386694703127e-02 -2.949574765183023486e-02 -2.705854458666304141e-02 2.763776823899434867e-02 1.268094513652585076e-01 -1.124566724468790829e-01 -3.488864559667444881e-02 9.960513614711662134e-02 1.414273233631333782e-01 1.993301078858916026e-02 1.057847955068500351e-01 1.045573275492502341e-01 -1.005416375485371078e-01 -1.150324233762491100e-01 -1.969855193356961076e-01 -4.587358281738091598e-02 -1.520520611975260394e-01 -9.967124524598304502e-02 4.430906456317167119e-02 2.734311672570480245e-02 -1.981342199227131007e-01 -8.001103975757145603e-02 9.903809318317555871e-03 1.271381204602072545e-01 -1.625694063285225699e-01 -1.111843979672345051e-01 1.141960189745626769e-01 1.210017826950432474e-01 1.588770634469442999e-01 2.396029627541997054e-02 -1.759332394370916736e-02 1.698441465618750201e-01 1.480767225469017123e-01 8.638465704860641414e-02 4.507621939654275767e-02 1.536151660568282340e-01 -2.389766984784753162e-02 7.000226807025748677e-02 -7.585506203472701381e-02 -1.979684725975290951e-03 -1.093681014461558715e-01 1.206954504079628815e-01 -1.421629277207675235e-01 -3.366438598455940429e-02 -1.954028912946447483e-01 3.388657286282150544e-02 -1.325281562998220086e-01 -8.884660263210632236e-02 3.907081866197698733e-02 -7.289357293513874791e-02 9.302088100873014131e-02 -5.193944604645806679e-02 -1.210023399369322683e-01 -1.262103134423145367e-01 -5.133690017349078899e-02 2.533077990359096088e-01 1.374386558051605978e-01 7.989511466909209048e-02 2.202876939193119249e-02 4.063494670044629983e-03 -4.192969588211679227e-02 -9.998921446436422056e-02 -1.204974330522549097e-01 6.690647125078150181e-02 9.859835288578888690e-02 1.193056641820401387e-01 1.773841669831328627e-01 -6.997442497824975238e-02 7.374630705359407068e-02 8.917107833819877538e-02 1.223433637499494464e-01 -4.171341532866761764e-02 7.123065449653974424e-02 -4.873621730630454951e-02 -7.350633365785437523e-02 -9.674973940166987918e-02 8.643113998179186019e-03 1.465518000608953542e-02 1.113488438085027676e-01 3.215915294794356727e-02 8.815390526434435658e-02 1.776884591405994696e-01 -4.044027774126629504e-02 -7.024933407424997778e-02 -3.887838408018213371e-02 -3.615785435081914773e-03 1.466379812862039040e-03 1.813775055928265600e-02 -8.615319780159651220e-02 -2.189012706801593267e-01 4.053438518487282455e-02 -9.610931859129631877e-04 4.207831275885116277e-04 -8.540174005171855334e-03 -3.469816017901893035e-02 -3.662349827833607380e-02 -1.714546814336000702e-01 2.207462667810788648e-01 -3.540755981039920425e-02 2.569956387140062692e-02 3.063073766806040377e-02 1.004780657198536958e-01 -1.974993642532901425e-02 -2.939840589718321906e-02 -2.872021214983279652e-03 1.848666365185924754e-02 -6.339650612067534996e-02 8.542505868426615925e-03 -8.857339598428416727e-02 -4.534136949466373301e-02 7.980810416411106625e-03 2.631789842223562770e-02 1.367222952794576799e-02 4.628928357926968135e-02 9.160853169877675173e-02 -5.015168205406943941e-02 -8.691711571546317794e-02 -8.268055146424531376e-02 1.646376776794973296e-01 -7.824610245176426282e-02
4.609515351819121372e-03 4.090335822607440996e-02 -1.735627130959267045e-02 -7.629323086486086702e-02 4.497116484007890325e-02 -4.012834002110424181e-02 8.935694914815259238e-03 9.309899777553243272e-02 -5.424134434963820764e-03 1.407877794741991054e-02 9.708180397986139465e-02 6.097100169375858914e-02 -5.861112454678546468e-02 2.509430721258668062e-02 6.154296326574293374e-02 -1.218263021098340421e-01 1.433685189195277147e-03 -6.608411322747906325e-02 1.087814292975542857e-01 -3.095156273166725994e-02 -1.632334220130263747e-01 -2.277802157223461910e-01 -7.876449542061782216e-02 -9.891420904857918528e-02 -8.102666306028463716e-02 -4.660186215367662782e-02 8.832777303634226085e-02 1.287315038729438255e-01 -9.693377500181557527e-02 -1.481701432214596777e-02 2.099693315256953921e-02 7.242809145446008068e-02 -2.116155884520123584e-02 9.275608440520702672e-03 7.319414843570720697e-02 -4.963696715297400558e-02 -4.931183268404062958e-02 -1.950808005692116209e-01 2.843132104014205186e-02 4.267846722266543935e-03 -7.508261241358350768e-02 -5.888304847672592990e-02 -6.994986403477528036e-02 -7.491965686432978944e-02 1.052960402155704274e-03 7.150182845292768485e-02 8.420632005865955061e-02 5.556294936152025507e-03 -7.915881525080908920e-02 1.612127438789344447e-02 -6.141359530658845739e-02 -1.974768828766539433e-02 -2.414623726243051577e-02 -1.608351554505301761e-01 2.467640900308805119e-01 6.362697931785779581e-02 -5.082174515044342311e-02 4.982092888899444794e-02 7.061052417718555185e-02 -5.258155954124336950e-02 -1.697632464018186405e-01 1.731374644353422532e-01 6.641778047277696606e-03 6.314588290353229105e-02 -3.462747486262492819e-02 -1.710633582084141735e-01 -1.227731856519211351e-01 5.858181584478436288e-02 -6.212197961880878277e-02 -3.191504222285460046e-02 9.725450980622725450e-03 -8.326452856103595812e-03 7.700083347275706036e-02 1.054541230012401576e-01 -5.456218397592356439e-02 9.188248804437056105e-02 8.451682693412505831e-02 -7.586737255648143274e-02 -6.706018128394823641e-02 -7.697475792418449758e-02 6.162311127545038597e-02 4.740656137976269335e-02 8.156509332805566084e-05 -4.147443887920868044e-02 -2.233728688523055061e-01 -3.049221453608974564e-02 1.031890170663609801e-01 1.733656560945078806e-01 7.841514925821355120e-02 1.023749239372486602e-01 -7.441809538004220959e-02 -1.085934354529029117e-01 1.906705726406729071e-02 2.752023373456694531e-03 -7.191619691015312121e-02 -1.747375339462267987e-03 -7.531701458785547421e-02 -9.202349263332534890e-02 -1.023409097563173359e-01 -6.243030188278288206e-02 1.396041067330873464e-01 3.269233372989501646e-02 -5.630588852205176825e-02 6.347192514761358650e-02 -7.257204535481914798e-02 2.095700747686411042e-02 -1.639518840977930436e-01 1.939351685667127859e-02 -5.154651363943565240e-02 -1.851558957437835981e-02 2.044965196974207929e-03 2.688360058741533914e-02 -1.045609261944531604e-01 -5.454694745323891703e-02 -4.737463134768415962e-02 -4.598099193429465437e-02 7.952555602275655777e-02 -1.262777376801200169e-01 -8.498198731661885108e-02 -8.090211200242482248e-02 2.568985680775689312e-02 4.926718091719159420e-02 7.012561561675882682e-02 5.018099628441028554e-02 -1.069014746872997135e-01 -1.548827732105614342e-02 9.026651385256750926e-02 -2.036997623529816226e-01 6.679065561996866407e-02 5.320677596772891566e-02 -1.073479059727112245e-01 -2.713957184227991370e-02 3.270938973286173501e-02 9.177786099391067876e-02 1.102929058891325038e-02 3.970668512805261043e-03 -4.560671917521717106e-02 4.685310453125852287e-02 7.387630333536898686e-02 6.556319659529700507e-03 -1.402794909251858235e-01 -1.633431542659354585e-01 -3.265503221817041973e-02 -4.318751755227028671e-02 -9.486347852957258131e-02 -1.562645949267891729e-02 4.494243952021004240e-02 1.400129717466499502e-01 -6.776410715795372353e-02 -3.997532188580341095e-02 -7.820598683413333696e-02 -5.279781038336667232e-02 -5.676332658092128614e-02 -7.458079648463961098e-02 -2.589198564332004932e-02 -5.892705186019258495e-02 8.348619075569468917e-02 -6.960311474431327139e-02 1.160326114109914430e-01 1.895303065601064985e-01 -4.315489459418678925e-02 1.378901091647145860e-01 6.205356381468542931e-02 1.247093270438021512e-01 7.271870848767972295e-02 1.005192344638301122e-01 -4.795441647056063184e-02 -1.470761445266667296e-04 -5.167913598323651408e-02 1.568031434712305605e-01 5.794371854729600535e-02 1.004210583446332322e-01 5.324243953537632738e-03 9.330964086449392014e-02 2.361221429043540779e-02 9.913547953319309936e-02 1.162338086201168685e-01 -1.949033097311278799e-03 -4.867962091423112814e-02 9.680245558418537621e-02 -3.436732263703061452e-02 -4.755849677764593247e-02 9.103378275907667017e-02 -8.670676248772014871e-02 -4.517193114174239410e-02 -1.485048567455775348e-01 -5.519764484772933522e-02 6.777643384033293916e-02 4.276717566332585707e-02 1.435993280583200693e-01 -5.402199263505457795e-03 2.893388659807544783e-01 2.303331995501970986e-01 2.736991520652277271e-02 2.186298568747020374e-02 -2.701313211279102178e-01 -5.640248780543499069e-02 -1.121040762562508369e-01 8.509810220595809271e-02 -4.278672929215131954e-02 -4.475609242299221496e-02 -6.143002784276854755e-02 3.572809219753186188e-02 1.334018772713272682e-01 -2.891312301110888008e-02 -1.025460421205720563e-02 9.450624925702467982e-02 -7.447847594870896093e-02 4.596452771928546954e-02 -7.058900588297593870e-02 -1.153996709464320987e-02 -6.033499795450043834e-02 -1.535704409344041677e-01 7.973318241780424920e-02 6.082424523001094679e-02 -9.412905756638088872e-02 9.343899670521249590e-02 4.834159052307847315e-02 1.254151007271338547e-01 -1.681663784106457449e-02 6.425297394461731981e-02 1.501031910136593206e-01 1.205780856808283397e-01 -1.810661102978130751e-02 1.089908180424641465e-01 -1.972468218252398653e-01 2.084569687166988872e-01 -4.024983336011817708e-02 -1.080972138600434090e-02 -1.694317619904309180e-01 1.255715066462181895e-01 5.946092693070269275e-02 1.154746543416390325e-01 4.032125336482576816e-02 -1.090031503411169334e-02 -5.184437918975163401e-02 1.575832963761134801e-03 -4.906929758257822655e-02 -1.137986949277741688e-01 -2.262068163458397230e-01 -6.677434459912616471e-02 -9.183468721745065289e-02 -8.213697254172645790e-02 -6.626376698114920527e-02 -1.597924043954032924e-01 -5.693945778183136935e-02 -1.900152016703018365e-01 1.508313820154626728e-01 6.472018418450144195e-02 1.740611753396954179e-03 -6.519959783156906163e-02 -3.637746390587201506e-02 -5.394652172819330849e-02 -6.141544734488571522e-02 -4.948228101289543074e-02 -7.670270401630902013e-02 -4.961247214888122453e-02 3.746144710675806955e-02 -9.167682956217160228e-02 1.934563592228024861e-02 -2.400188932765136285e-02 -1.024304784675336699e-01 4.955332843750374916e-02 2.408790355860102386e-02 1.210619967446722872e-01 1.113027721154997290e-02 -3.555804996209374624e-02 -1.058799171864222566e-01 -1.443166795331119190e-01 -3.423042994769910918e-01 -2.272326007462015240e-01 -1.156537624620880556e-01 -5.831525630930993465e-02 -3.817635619077949100e-02 -8.363172036254444552e-02 -1.218867945319466184e-01 -5.497228344233241054e-02 1.014829087153722303e-01 -5.172011568543406074e-02 -9.220338713282388854e-02 2.686846446581192278e-03 -7.245516552447103797e-02 -1.634930851017889208e-02 -1.104730136447096833e-01 1.819120363264303472e-02 -1.672049309930219163e-01 2.690462243661088590e-02 -1.818415811718679109e-01 1.645863980993762798e-01 -4.145582020589069772e-02 1.280012943686942017e-01 1.035465213133010959e-01 1.397313754537393149e-01 -4.354964292268970194e-02 -8.046875129934465132e-02 -1.251870201561401386e-01 -1.666452455501586105e-01 -1.330844645873073828e-01 -3.205316420063489824e-01 -2.649295412390414439e-01 -1.891999980290359762e-01 -8.662405312849628947e-02 -2.492487628593985927e-01 -1.563915589827912234e-01 -9.064356226883220347e-02 -3.576641840721866278e-02 -1.846031614681380509e-02 5.317984292733356905e-02 -4.575989086538434503e-02 6.479916756176824777e-02 2.046759286408363632e-01 -2.083824820353660789e-02 1.132849473943663421e-01 6.408585027808198081e-03 1.111030202920999660e-01 2.688756413898013911e-02 -4.747182209656838903e-02 1.102280360807710580e-01 1.040303856188941611e-01 1.575607810285303556e-01 1.467004871135545174e-01 -2.616286252444956911e-02 -9.149904245325214680e-02 3.759262781958564500e-03 2.659479124978463005e-02 -4.379833649827089004e-02 -7.721264205215487564e-02 -1.613659683581840087e-01 -1.189491356200819694e-01 -1.334224621877515837e-01 -2.498899192786506462e-01 -3.296659130765602352e-01 -8.319038337182456389e-03 -7.493555997080007802e-02 -2.548531429834194686e-02 -1.358869800086407176e-01 -5.666782795352762192e-02 -1.246936218766040230e-02 1.022499845774945543e-01 9.539356110606793393e-02 -1.239442459116397444e-01 -1.685506096249123759e-02 6.438443965863469010e-02 2.113179256804441353e-02 1.562052087527593114e-01 -5.109158576235602045e-02 1.004726653308621598e-01 3.243153686035190053e-01 5.265913887069915977e-02 1.043191861838356771e-01 -1.504966884745265465e-01 3.034416448063853924e-02 -2.137385414092108152e-02 1.756641786156265539e-02 -2.001102789967539562e-03 -1.401329634571042981e-01 -9.616512344726559081e-02 -1.738344550630901431e-01 1.544231553869739385e-02 -1.550410281374208776e-01 -9.859742174481886390e-02 9.302886070401296392e-02 1.321518944138142526e-01 2.328402455518637643e-02 1.779588471606933231e-01 9.673956238225016324e-02 -7.509953306414174357e-02 -7.681065359433095208e-02 6.252246441711217795e-02 -4.266490214283338162e-02 1.748931745155094322e-02 -5.142900298496370926e-02 1.506938058915511802e-01 9.083093223673199823e-02 7.802699065099844011e-02 1.423956992544136990e-02 -9.058592102406322344e-02 -1.949659964333872730e-01 -2.275016817421210980e-01 -1.397495819092135216e-01 -5.013520096970214973e-02 -3.620971828920858254e-02 8.116031946481915005e-02 3.684944964099273832e-03 8.114474793523329677e-02 -5.279192373166589902e-02 8.018567046453576111e-03 -1.357831314992944682e-01 1.016139022092517746e-01 -7.440236510142786419e-02 -1.476246432221196558e-01 -2.946691337269087638e-03 7.018657788943358233e-02 -3.006181837406773569e-02 -9.590272418382685127e-02 -2.383523051838812648e-02 4.594629417337300903e-02 -5.595609155397746060e-02 -2.327437944461341682e-02 2.031088014455887658e-01 1.594759231840457425e-01 6.139206716889240162e-02 1.222448629116537205e-01 -2.251070301152724093e-02 -8.629456013668293513e-02 -2.184090762294306209e-01 -5.417316990729993675e-02 -1.057008356723201925e-01 -3.165527612086998371e-02 -5.757524430136971849e-02 -2.031962878366033384e-02 1.803828222941372961e-01 1.580757023374847192e-01 1.001359668745461090e-01 1.094650449729096531e-01 7.909587102869279976e-03 -1.356750836219238754e-01 1.156111567181962035e-01 -4.053459144547662957e-02 -1.824169597335939010e-03 -2.104444610541131647e-02 1.331693851202741530e-01 -5.117039469028435844e-02 3.272226300001190857e-02 -9.066154540931670169e-02 -1.401239440422126781e-01 1.031523540842878631e-02 -2.304335836217761765e-02 -3.331472801985595894e-02 -5.459839335501244506e-02 1.118842420381315761e-01 1.097506714686302676e-02 -5.260119619556014731e-02 -9.269776878139389387e-02 -4.277697615531511621e-02 8.565589172793604267e-02 4.879908067731645455e-03 1.152292159246157965e-01 7.667959273976233947e-02 8.517471977468607514e-02 1.276726496141813993e-01 9.731736452267027160e-02 5.550374796929346405e-02 1.330319673157148164e-01 -6.605465702424281882e-02 -3.754538445503781408e-02 -2.224085754465990050e-01 -1.477733805173770953e-01 -1.217261731433841587e-01 -5.534332045418367124e-02 -8.360708388138597680e-02 8.255938945718332977e-02 -8.925542879902828575e-02 -1.110214183534430493e-01 -6.511189815607794362e-02 -2.295450241377423872e-02 -1.257953277556615179e-01 -1.732549677500552082e-02 -7.598898668086190300e-02 1.849996160759478092e-01 9.603146602046960800e-03 -6.144014645619651910e-02 -5.999385366343569503e-02 1.415343168618340974e-02 1.727579344216173193e-02 8.200344392014470574e-02 7.076509013327691999e-02 2.059272727797512026e-01 1.891544902655867277e-01 2.575437468025955356e-02 1.166146412657147607e-01 -3.198144870183413507e-02 -4.763054416067399183e-02 3.469475469576020071e-02 9.771955832417991705e-02 -8.021440986304026466e-02 -1.141087989998337271e-01 1.083820466591620679e-01 1.385295682049478977e-02 -8.994817447072943339e-02 -5.074634407550838305e-03 8.988582158151481663e-03 -1.244587687709377832e-01 1.667014734441403523e-02 -2.299458020747307818e-01 -2.652920698139615147e-02 -8.660969649486691124e-02 -2.430604151379733846e-01 -1.581887919833640799e-01 -9.070295820924949293e-02 -9.785881194493420421e-02 -2.624359011588836554e-02 -6.681436408275490471e-03 -5.022950369445632751e-02 3.872672646908856264e-02 1.070026304425054503e-01 1.052255635308200904e-01 -1.129748536963468553e-01 1.417262352137012571e-01 5.641984587542255708e-02 1.513118045943116496e-01 -4.918882189361303836e-02 -4.885063120303163170e-02 2.215217585001153303e-02 3.523320946762233813e-02 1.130478205942556380e-01 1.202781693795509504e-01 -2.011152908378076309e-02 -2.834874272386061350e-02 -6.890623399482670441e-02 7.564412167452819365e-03 -3.106397834644742881e-02 -3.305053359258653956e-01 -2.622614858305135632e-01 -1.448664559370050620e-01 -2.891510905371690865e-01 -2.949348482506075064e-01 -2.498604600663495712e-01 -7.529450273891623302e-02 -8.093011592374667329e-02 -3.804862444571113084e-02 -4.100719398908760083e-02 7.423838632887165556e-02 8.501322824703129444e-02 -6.577900010018231103e-02 5.430122702361100256e-02 -2.188176415257241103e-02 4.346607595696843490e-02 5.065679703986608606e-02 2.209416554712499703e-01 -9.294022229057384912e-03 -1.191919948046386984e-01 7.564447624409402493e-02 1.087884895657204587e-01 -7.594403694517888603e-02 3.979875325331619362e-02 8.464595282050929592e-02 2.636381213748388228e-02 -2.943056097386205217e-01 -2.419235551707118459e-01 -1.313287149651948434e-02 -1.276184694590361823e-01 -1.118705361831723311e-01 -3.552435744443189769e-01 -2.899238664544317445e-01 -1.835166615413239555e-01 -4.266085699252088193e-02 -4.147532870141181632e-02 5.443084164904387831e-03 3.632194180571108461e-02 9.324549524997576000e-02 -1.011766607302875924e-02 -2.178054188655348736e-02 -8.098102012518602899e-02 1.023357394526185349e-01 1.110375934735433751e-01 -1.161222783276172621e-01 -8.645195091283013056e-02 -2.282280485081937191e-02 -6.686388365142625911e-02 -5.154487906128679686e-02 1.317668869143502064e-01 1.404482203355962924e-02 1.666233010929011812e-02 -3.004550344359786448e-02 -2.382522726722288361e-02 -1.023119932786575037e-01 -5.122119095056318350e-02 -2.835715327202797953e-01 -1.144215534223779265e-02 -1.726764619466526207e-01 -1.392272778629483412e-02 -1.843009079339614220e-01 -8.452880366572608495e-02 -1.271216405977237951e-02 1.359986422729399513e-01 3.688608036808291302e-02 4.641121507526529272e-02 -2.217038958980673338e-02 -3.614264554785877326e-02 7.846816215107686732e-02 4.643014667109300955e-03 -6.280677693456141603e-03 4.847048230336594050e-03 -3.908214664538926103e-02 1.035036234932926458e-01 -1.493062882433935923e-01 3.505916537189381760e-02 -8.273283810334854105e-02 2.067006013971845033e-04 -6.273975994295845349e-02 6.956529758316713601e-03 -2.086858619536084009e-02 -4.176989560909034264e-04 -1.095419806761167457e-03 -8.158283623076072189e-02 4.040683034437622667e-02 -3.647737119260869437e-02 -1.017911673897017449e-01 7.369066567530088707e-02 -2.401495260071135895e-01 -8.924658559060243135e-02 7.195082045013728722e-02 2.094154528282708982e-01 1.346212164343618956e-01 2.495744127687249958e-01 9.460786314644224759e-02 2.338386732652348310e-01 6.025827577151019604e-02 7.290042611457653310e-02 3.305124280150223415e-02 -1.512562328918055617e-03 5.926595237196745358e-02 -1.059983642422681061e-01 -9.732572013742153694e-02 -5.501849874866868856e-02 -2.151630793478318537e-01 1.713960038184233758e-01 -5.055196635124385718e-02 -4.121427874384030882e-02 -8.330247815426239377e-02 -8.208509315886011737e-02 -5.886355690745426195e-02 -1.636476747183236991e-01 7.506631457078320746e-02 6.555054753548175683e-02 -8.043379061053258783e-02 -1.211736561840373178e-01 1.208811609840517998e-01 1.782012197685851895e-01 -9.945988447407068389e-02 1.062264804692564513e-01 2.389098924703310367e-01 4.275740414220462193e-02 -1.344849072354150493e-02 5.203893928416707115e-02 6.885024213949701710e-02 -1.386831841044662006e-01 -2.173374246610565719e-01 4.199086695666563729e-02 -7.434604912215584359e-03 8.089800773215961860e-02 -9.992535400154629877e-02 -2.004545993322180523e-03 -6.768064802222270582e-02 -5.714869791652994052e-02 -6.355633245031566680e-02 2.099328668515975660e-01 -5.521642036898534445e-02 1.214059415840035572e-01 9.531370160706748029e-02 -6.952852469904415023e-02 -4.919322780794587596e-02 6.020392207909718019e-02 -1.867982256002278796e-01 -5.185164900645087421e-02 2.463262799510586298e-02 6.098938338466070724e-02 -3.070942476811899802e-02 6.116596947015065511e-02 6.273672960653599306e-02 1.415405244961108477e-01 5.252078901638389946e-02 -1.460276462599761904e-02 4.559155053555397769e-02 -3.355053079795592558e-02 1.418441466783605942e-01 8.926117558590844492e-03 8.083482205360778550e-02 -3.059926221586366148e-04 5.519818510037515814e-03 -5.443991667075185475e-02 -4.059506024760880377e-02 -1.144463217066821886e-01 5.696026593067045340e-02 8.042609308673530355e-02 9.049278410876009440e-03 3.567050643680752791e-03 -8.061142357850810403e-02 2.956411915500850932e-02 -1.295524875154183686e-01 8.713542831873755112e-02 -9.838425148913873541e-02 2.235853845090292613e-01 7.889613550779848994e-02 1.840238054967408832e-01 -1.109308800842229714e-01 1.775910742418522759e-01 6.934433210633730860e-02 3.752289795810085510e-02 8.810159370380528376e-02 -1.834772161551494474e-01 -4.021851462077447037e-02 1.680985772296908834e-02 5.714021484760008207e-02 5.751431216902878202e-02 -2.965652136451153026e-02 3.929303570646625055e-02 4.786619867928122024e-02 -3.170049003505200080e-02 3.342206225409346393e-02 3.175521032187662851e-02 -6.139837610290749259e-02 1.101468143257401805e-01 5.617331726890694051e-03 9.329762283697645708e-02 9.389212720369032733e-03 3.593779049440646439e-02 -4.375823556246241641e-02 1.090080673605922472e-02 4.530409424706328264e-02 -4.087395372825788215e-02 4.461558194462224985e-02 -1.114160984554693652e-02 5.205153136817616821e-02 6.062870416862202461e-02 -8.014439817743786165e-02 1.742842405024413186e-03 9.079470672091649597e-02 4.796177076042241333e-02 -5.670293134144752112e-02 4.043353348162893879e-02 1.021180514460632849e-01 -1.374796800778206596e-01 -5.871636784347065291e-02 -8.058994524371267121e-02 8.734810601289050291e-02 1.457225180093721373e-01 1.515961135326350240e-01 1.319019593105315025e-01 1.657404957392798195e-02 -2.423479896022461555e-01 -4.784205665207667130e-02 -1.320104418429111359e-01 1.310479877381090681e-02 -8.517874753322778048e-02 4.308708142961619608e-02 1.474097514414143481e-02 -2.180167826556452838e-03 -1.116471460838492497e-01 -4.680113566977328610e-02 -3.134640528242199631e-02 -8.248202425598340909e-03 4.200115927923271653e-02 7.329213239880136288e-02 -7.430115966328240673e-02 -1.295533097334537580e-02 6.044641118815904240e-02 -1.302046079638713161e-01 -1.284320340042366948e-01 1.482648703176092479e-02 3.308617058348045648e-02 1.263011963279624394e-01 1.353052523818296382e-01 -6.604616180350135479e-02 -1.621539209021667649e-01 -2.185686325715685829e-01 6.841859136809992636e-02 -1.311125908940873608e-01 -9.269798986788835293e-02 7.999217439744295277e-02 -2.138752687735363811e-01 -1.029218225009976978e-01 1.756586458402641451e-02 1.764043324996704062e-02 1.191283766318635383e-02 2.526944947983090009e-02 1.886174621049875322e-01 -4.435460309783317151e-02 -2.237057754404075255e-02 -5.139365091169336569e-02 8.177635261030885561e-02 -8.913037140078433618e-02 -3.104827454146434629e-02 6.502006715879549148e-02 -1.176098460234197840e-01 -6.370299960759136237e-02 -8.023578163595990187e-02 1.126536675775247492e-01 1.062493511752760633e-01 5.476196301723138676e-02 3.381368269766357043e-02 -8.586407124242918798e-03 2.309201081612051454e-02
5.536948563460353766e-03 1.278465831683641696e-01 -8.113747423706882400e-02 -9.887823242204524243e-02 -3.232608850508372766e-02 1.602766900914495696e-01 -8.393355782275241372e-02 1.103588508770191601e-01 -1.241454526166029144e-02 -1.053910060575566354e-01 -2.012551237949006810e-01 -8.933413093763344082e-02 -2.735331638954307740e-02 -6.071099001087526537e-02 6.882988790918864730e-02 9.630354351676638502e-02 -6.815219055337670695e-02 4.358745960084936533e-02 -3.134838620157823219e-02 1.863771424499282778e-02 -4.307132646642752166e-02 1.122905486282299026e-01 1.386816250227084109e-02 9.397228779153742051e-02 -6.692898949275793985e-02 -1.482679080167521035e-01 -1.226824645579755457e-01 -1.959035385799328954e-01 -6.694462372337253719e-02 -1.086976251841048069e-01 -2.809738223427715384e-02 2.019701426209351558e-01 3.294918446546376417e-02 -1.615397073285683716e-01 -5.491606668641774852e-02 1.672766483033349405e-01 1.081860158792876531e-01 1.419428917801839884e-01 -1.406938504752382711e-02 2.209773492004542261e-01 -8.925549858912201762e-02 -3.161748006043551412e-02 1.023717161024907153e-02 7.819109937787692421e-02 6.836226727957765703e-02 -3.045076072257274849e-02 -1.761956697860200122e-02 -6.239356237434781627e-02 1.190499696088521686e-01 8.273495701131054758e-02 -7.177634316762250555e-02 -7.266377418825473167e-02 -8.873659182888446462e-02 1.696413789716623433e-02 -1.424617512570129640e-01 -9.326960028101599631e-02 1.349261374306844341e-01 -1.463744627820519062e-01 -4.715049463406400382e-02 2.262083315823795737e-02 -6.722458559612357054e-02 -1.131798825103241986e-02 -7.948396414860753323e-02 7.933623602476727599e-02 -1.369892363139777192e-01 4.561987008851976083e-02 3.598066886037559753e-02 4.557978991551461453e-03 3.490807615465026797e-02 -5.818870701479297164e-02 -1.638726293249441815e-02 -1.480424405819931628e-02 1.039716920060071159e-01 1.176309397820083785e-01 -5.195379761617274078e-02 6.962687103781838027e-02 -2.801121311941446798e-02 -5.525720764838917831e-02 2.363327224779870894e-02 1.193897566022004558e-01 1.079649492360791434e-02 8.655482909069668607e-02 1.413744131142868343e-01 5.932151475149557984e-02 -1.618107566184041890e-01 -3.263275764048848004e-02 3.923386474954004138e-02 -6.583301831027053852e-02 -6.288996401658653035e-02 1.479963544795909192e-01 1.270645372735370107e-02 -1.110869562142132866e-01 7.609094412115284534e-02 7.225302665449248596e-02 -5.431381828301896225e-02 -5.183468263703485540e-02 8.479880205029054208e-02 5.521790149376162860e-03 -1.401065484957897053e-02 -3.686755173574973732e-02 1.473531219794131097e-01 -2.485499723154534907e-02 1.770610693647371725e-01 8.809534889222414566e-02 -2.120481093105078957e-02 6.389356924120212500e-02 5.129236915165728827e-02 -7.095986971262216447e-02 -9.000249228473630736e-02 7.902133523985713226e-02 -8.643069732996551402e-02 6.286210130357099135e-02 2.470914091465295157e-02 -6.765016215182800179e-04 -8.026478609672260678e-03 1.196799038517026292e-01 5.511314458603976119e-02 1.258549864655768985e-02 -6.248631539255143641e-02 -3.015630512022544896e-02 -3.585414359713776089e-02 1.284087426555500719e-03 -8.903187265844892881e-03 1.314035191051929896e-01 -2.962687726193087220e-02 -1.032747200613003125e-01 -8.601152364624674307e-02 9.988047689139108176e-02 -3.836140028995190659e-02 -4.207237914515828126e-02 1.024704531067274771e-01 -2.144367426706274282e-02 9.267445891862798046e-02 2.269784998569882029e-02 5.481902297240343058e-02 6.792013509235478308e-02 -6.201521209455606448e-02 -1.023459237148780995e-02 -1.573215817057822125e-02 6.204302518917038239e-02 1.034510174767806628e-01 1.340378696685186680e-02 6.007359370820863215e-02 3.614525837924036783e-02 -2.020550163830417065e-02 6.055935083174001504e-02 -1.026171354610061481e-01 2.629728241959270775e-03 -6.338957736463381176e-02 -5.103521384578980219e-02 -4.754129200154055823e-02 -3.466157627881900904e-02 -2.454500327996158443e-02 8.688495602253159741e-03 8.359690116007199856e-02 -8.671690730382135281e-02 -2.958225061651587745e-02 -8.710080522533054925e-02 1.522237960370884102e-01 3.333727330999150529e-02 -7.780312431615313967e-03 -1.162973111608153476e-01 2.968551560072484052e-02 -1.017280537899696580e-01 -9.124923340345135470e-02 4.655032906875134630e-02 -2.180283178208817715e-02 -2.508863796141796651e-02 3.479197044790977630e-03 -1.532597804009735165e-01 -1.479626026514600963e-02 6.275921349179507114e-02 4.411713548947634317e-02 3.850939364538299992e-02 -4.225781054694578709e-02 -6.471885997021412096e-02 -4.297506767766532537e-02 -1.911013790487763597e-01 -1.307539453163344689e-01 -1.414957112868987510e-01 -2.034245718131798275e-02 1.891175813476907511e-02 -6.138050800496955978e-02 -5.347875181277469275e-02 -1.011360252063818882e-01 -2.167353135294163707e-02 1.290598987886590887e-01 2.101480048980803456e-02 -8.330263410031403873e-03 1.610164968944399755e-01 -8.039122421449759748e-02 -7.997251729142572374e-02 1.885577462254422326e-02 -1.453380184814789811e-01 2.003754577620597832e-02 7.601063338204963604e-02 3.541980138665039995e-02 -1.324267278584095875e-01 -1.219646690019738910e-01 -5.157407399657801955e-02 -7.581959728960167844e-02 9.201446577710568897e-03 -3.439461167157882582e-02 -7.462804230872660538e-02 3.564339592991683930e-02 1.850833787208400194e-02 9.842011520487403686e-02 1.460449515956750190e-02 -7.213007229961136690e-02 4.423188367259958675e-02 -1.061272426449810513e-01 -6.619005124773372217e-02 3.023809015598908148e-02 8.793402974185755838e-02 5.050875249164309133e-02 -4.259969000699145164e-02 2.386290108174678737e-01 3.552736806114727974e-01 -1.129758251385231532e-01 1.041776829108504304e-01 -2.623206940212285260e-02 7.183595845979395822e-02 2.391016950884953390e-02 -7.243059767140218319e-02 -1.711782021814181598e-02 4.521250966099120416e-02 -7.962264347752727456e-02 -6.303627084622938359e-02 -2.144847002098844088e-02 2.681575063692053992e-02 -5.709052759930905580e-02 -8.537050461692792525e-02 -7.467245849962185662e-03 -1.019775041159305153e-02 8.701214770428244982e-02 2.547417632706948376e-02 2.998572193160448443e-02 4.562903525749130440e-02 -1.021354226491829192e-01 1.151787196084287229e-01 4.652644800972793870e-02 -9.284033247569986602e-02 1.665381567905200311e-01 1.098769187205159009e-01 8.266681909406756179e-02 -1.035139111773443130e-02 -3.511785965126941467e-02 1.113027348005840578e-01 7.448869705123334350e-02 -3.446012573220075259e-02 1.457702212602877273e-02 -1.862932457653186658e-02 1.173040574188418256e-01 1.153738517218023778e-02 -6.967116713076107470e-02 9.031400054525540178e-02 -7.443970884814234135e-02 -3.254987403517953931e-02 -1.477031441381278405e-02 1.302299908998142963e-01 -9.003984879954143872e-02 4.718367466474558680e-02 7.951910108481131945e-02 9.419438956206831193e-02 -5.651332243053173998e-02 2.392510064463772013e-01 1.166706699448536756e-02 -1.483468445610133975e-02 1.757559359246923525e-01 1.208132100300226552e-01 1.770979308960493326e-01 2.719958163963449027e-01 1.036183109655761381e-01 5.066341478146265537e-02 7.012256637040294172e-02 1.135697959797213746e-01 1.696840946812497863e-01 2.171211019341129367e-02 2.072290600593990062e-02 -1.278853205566159446e-01 -1.076022146709174759e-01 -1.660320858043205228e-01 1.089669794204052751e-02 1.782563510247267002e-01 6.022245537457913966e-02 1.560314672357575594e-01 -1.423751326849644339e-01 3.490249739484830444e-02 1.005262326898376524e-01 6.150826140653684049e-02 4.581111690610532167e-02 1.325640043113836541e-01 9.988586038313901350e-02 2.903182356720707125e-01 1.331333432224640900e-01 1.461719955173247931e-01 4.197585580893992141e-02 4.160589426589232642e-02 3.064173792375002314e-02 -2.634330202306699176e-02 -7.228820726754928150e-02 -2.769346116959363335e-02 3.710978352326617380e-02 8.244049961797993153e-02 -7.712911391361979008e-02 2.478200624969400731e-03 -1.940957322317136968e-02 -5.616835449867197023e-04 1.067233951356381938e-02 5.709691653645677240e-02 5.658592829390615003e-02 8.385644654028712175e-02 7.558787248326954977e-02 2.485885045539267414e-03 1.632471687413357755e-02 -6.525084192218129353e-02 -1.712639921438234847e-01 3.133176364750066278e-02 -1.942858892923307046e-01 2.819019390750766851e-02 6.766242546428849480e-02 8.190402455495739142e-02 1.101014300027222254e-01 1.662187042638945123e-01 -5.133259853563271885e-02 -2.971106991231481712e-02 -5.726869071870474559e-02 1.245729548492220534e-01 2.979325620468606037e-02 1.394755696050251348e-01 -6.691619106952058360e-02 -9.343199233127266745e-02 -9.548843636688855718e-02 5.920034981326183221e-02 -9.733324338447424395e-02 -6.034034327627395278e-02 2.651962416118860619e-02 -2.563503809546724757e-02 -6.013959698029230222e-02 -1.711251815113999306e-02 8.590175051982537613e-02 7.952819282973265513e-02 -1.023115548502543520e-01 -7.891594592434920952e-02 -1.286643681382581839e-01 -7.560030985049863428e-02 -1.160362492100286136e-01 -1.569974597814727812e-01 3.638858174839146309e-02 -1.049560934986312755e-02 1.001658452652197384e-01 -5.368212702808995013e-02 2.553140355723708399e-02 -2.467980736185562962e-01 -7.291329493776657622e-02 1.320940608246833348e-01 8.471439744956754669e-02 -1.536089682962082535e-03 8.076608055764667934e-03 1.214310065336699079e-01 7.540654816224992563e-02 -3.074109603401140034e-03 1.853520548252755862e-02 -2.421910885492990773e-02 -1.290148765819884302e-01 1.912751726719288774e-03 1.501756425505421967e-02 8.209193953927532150e-02 6.243556320357404599e-02 -4.192280775346291649e-02 8.203798412693982800e-02 -4.610372725479650741e-02 -2.393748791211678523e-02 -3.286916030248578785e-03 -1.318002535572816436e-01 -6.541763435398849358e-02 -1.571631158131496855e-02 -3.597010570807845226e-02 -3.887407126357998732e-02 4.122388555324344589e-02 -1.064818826280814618e-01 -8.146924816761495075e-03 -4.543941332687184004e-02 -1.173325337151019110e-01 -6.373649351444486688e-02 5.466724089280439181e-02 6.487614329579181882e-02 -1.459262718246519541e-01 1.503135949621122250e-02 1.646168050619319090e-02 -6.487281332373281972e-02 -2.159415926822656415e-02 -7.462425629430015361e-02 1.269107951370014760e-02 -6.020243346583737526e-02 -6.208270339199750687e-02 2.970499462496224707e-02 4.151273726518735219e-02 -1.765513712525893786e-01 -9.555723966262537339e-02 -5.282528437787659126e-02 -1.748953549506766514e-01 -3.915497063057506166e-02 -2.872686815152971640e-01 -1.858714818397989021e-01 -8.089698676913986697e-02 -5.748338391451514318e-02 -7.531628753002182763e-02 -1.805655225270452191e-01 -3.431153839970203095e-02 -9.043646316581387123e-02 7.094743242421590323e-02 7.454887210518040819e-02 -1.239375436300855062e-03 4.308601509659852093e-03 -1.840849382708512755e-02 -5.897364120563011389e-03 -4.265536096109487016e-03 1.602129106816071492e-03 -2.712046579727414239e-02 4.238965454621551610e-02 -3.998902843370619881e-02 -1.413938570971569886e-01 -3.876973405760591324e-02 -1.111539914188773709e-01 5.367086682219052163e-02 7.855533894564753483e-02 -1.938594568954607120e-02 -1.397989588756660129e-01 -1.226459075521742631e-01 -1.081116740685270361e-01 -1.701674723559119529e-01 -1.915227293014670415e-02 1.134407333159721809e-02 -1.075207188161725058e-01 1.941482963304119042e-02 -1.807136258869024847e-01 -2.110740290591648152e-02 -7.955281844405359681e-02 8.493888446256382674e-02 -9.163780073735405818e-02 1.069154898954820521e-01 -1.114267023264887135e-01 3.538686355771775149e-02 -1.612844000514159978e-02 -4.888823067740701023e-02 1.553782132675656791e-01 6.141692557049698020e-02 -5.150719517976215522e-02 6.499069198981108353e-02 1.286508463157447490e-01 -2.672214874207939211e-02 -1.421013170888446933e-02 -1.274868917528014234e-01 6.101728359040335496e-03 -1.463071205167340016e-01 -1.509218836825419914e-02 -1.057114969666749088e-01 -4.512423697265604411e-02 -7.957912412488511722e-02 -1.831093774713310474e-02 1.501025711458549849e-01 2.288367456727668017e-02 -1.335461193661090784e-01 -1.297400781328563735e-01 -1.006204129075241767e-02 1.452731888542024563e-01 -4.109804628469051341e-02 1.179145619708312290e-02 1.012091137864350593e-01 -1.518512926046715616e-01 2.293476852146757866e-02 1.818787204372717403e-01 -1.006306719416855816e-01 1.271753060466623841e-01 2.383101279187195207e-02 3.603638363296558095e-02 -1.536515213137772673e-01 -4.296863892833259480e-02 -1.860661412238287862e-02 1.127819421801384281e-01 -1.352600201334267817e-02 -3.889444278577257330e-02 2.367618121030210313e-02 -2.071003001047603265e-01 -1.946168616941545138e-01 -3.039455213000542833e-02 -1.268745871640062639e-01 -3.748063355160723836e-02 -7.974486734859988213e-02 3.805753417609626654e-02 -3.911493122853620247e-02 -6.481104287443709144e-02 1.309495892509258130e-01 5.479435483703017779e-02 -8.772063474137289929e-02 -6.534564886047486421e-02 -8.300639893884996512e-02 -1.513150143355018393e-02 -8.857215746170089138e-03 -5.797157704425829131e-03 -5.131187319748450534e-03 7.675137940102445822e-02 1.849742297101003574e-01 -4.210188985110830534e-02 -5.210416221324690178e-02 -3.161724495814516919e-03 1.610688467623261344e-01 3.779264825240093856e-02 3.183393535950734821e-02 -1.355730055045395455e-02 -4.871855784551341884e-02 -3.998730950130067324e-02 -2.173887882606097971e-02 4.599989326210669749e-02 -1.688829339086466153e-01 5.525319412413901704e-02 -2.103228526412517438e-02 -5.840326691326304387e-02 5.400016292319568395e-02 -7.204954432459868829e-02 -2.864777810922194967e-02 6.424378223895284290e-02 -7.950444655175710473e-02 9.563535031895442629e-02 -2.102585904787699321e-03 2.325651634227444281e-02 1.470763728560071752e-02 8.741473182283394927e-02 7.378015625854425497e-02 -1.040922618316236503e-01 1.119735377500457180e-01 2.356656581275579435e-02 -9.394364157423022721e-02 -5.616486816807395033e-02 1.782781802139796201e-01 -1.073392599267497111e-01 -4.026055132424618405e-02 -1.021268948878635285e-01 3.334759302882956550e-02 1.086954132335466033e-01 -4.328530584157282146e-03 1.013548277958915278e-01 -2.034541139855055858e-01 3.208674578801011534e-02 1.128581818822559091e-02 1.673683465148438632e-02 -4.734089073733406539e-02 1.245453642065041527e-01 -3.730531364284055216e-03 -6.998193414793814349e-02 -1.229084270974304532e-01 -1.629943904653063380e-01 1.356110114402784561e-01 -6.674316421558051937e-03 -1.881476294096059640e-02 2.195943299052805636e-02 1.152708489022033767e-01 1.220201664411770387e-01 -2.352378727432635486e-01 5.308962068762616143e-02 -1.131753418544330370e-02 -1.414101386056315461e-02 -5.859643933285809542e-02 -1.113891347422144018e-01 -1.608009106671531852e-02 2.106708187695529033e-01 -1.646488717355369669e-02 6.593140024882629402e-02 2.625817994997734287e-02 1.603801202231018019e-01 -1.139395270658525444e-02 -2.574400332336216138e-02 -3.704030715388167191e-03 -1.124125676496115674e-02 -1.596931760941471823e-01 6.645864194949467618e-03 -5.510456749962450856e-02 -9.658707008315070563e-02 -1.845088938379804422e-01 2.231244049185763384e-02 -7.458132954846337370e-02 -7.209210623969337928e-02 -1.268525658172259263e-01 -1.872567041699799151e-02 5.275933663928808470e-02 8.339341249013505764e-02 2.223418974483749519e-02 -1.892450544438983029e-01 1.116735350271430699e-01 7.022957667095224010e-02 -1.482624804303944166e-01 3.453834350957359772e-02 1.986908379782132972e-01 -9.617266892699240233e-03 4.041892250567732242e-02 3.070088444758523744e-02 3.921985081091674402e-02 -3.693148432949665272e-02 1.250915829393298151e-01 -1.565135215237331914e-02 9.248667318824478623e-02 9.983263136140949068e-02 6.450307818202810628e-02 -1.390174968254967447e-01 -5.240885464544085305e-03 4.561801199237459914e-02 -1.387308406644242043e-01 -8.865308398513049859e-02 6.564041520540461749e-02 3.818138808804878020e-02 -7.087660367271453668e-03 1.528017758842636076e-01 4.362736301952963025e-02 1.225019541188582389e-01 -9.800098442481754157e-02 1.370657260046532211e-01 8.903666588292019624e-02 -9.732872347194258811e-02 9.813992573631054317e-02 -1.103875278697624418e-01 -4.061532826425066044e-03 4.378462255655935637e-02 7.255295547993912547e-03 6.714078419030478084e-02 1.525293788728815936e-01 -5.992962747652036404e-02 -3.574403876595240448e-02 -2.144677786073520293e-03 2.375699039655836120e-01 2.826494991561331188e-02 -3.235311589404066962e-02 -5.949743732752914988e-02 1.269856564614116612e-01 1.042257430094100795e-01 -4.343572001785769160e-02 -3.655729167437807986e-02 -7.260602714649841416e-02 -2.910303598368814762e-02 -3.153322049137564920e-02 -2.291292801604807514e-02 1.635332059788446521e-02 -1.773593356507941268e-02 1.441942303103537805e-02 5.393828728367873471e-02 1.591346932240473577e-01 9.071465221068431006e-02 5.208723483214637573e-02 2.563934916146591581e-02 1.534276762442876932e-02 9.605926986522327071e-02 1.701251190999082397e-01 7.126830999393292398e-02 -7.131679990868185215e-02 1.668640633869472589e-01 1.117279117719433001e-01 -2.669755306577521747e-02 -9.822188400464407221e-02 7.356353152729191991e-02 5.520668711105195664e-02 7.972308490688351235e-02 -1.318031187724256169e-03 -2.093872987875324554e-01 -3.768639100364044869e-02 -2.204742353890706552e-01 -8.639633791122153239e-02 1.212220368240438523e-01 -9.726391330538150526e-02 -2.480188649951993451e-02 -4.560035400310739895e-02 -9.925457216813425576e-02 1.146064212096520735e-01 1.051938108757610214e-02 -1.473462749868810484e-01 1.300619441784683916e-01 7.688987180385260800e-02 8.397515364108341929e-02 1.138060986544613823e-01 8.124711559065858624e-02 -5.117150235297045907e-02 2.273319548097584714e-02 -2.971972563240053017e-02 -8.213689755548388149e-02 -7.409290033566215405e-02 2.150331476138693867e-02 7.449364761323039319e-02 6.557302569263490089e-02 4.317145640476054841e-02 -8.977887359007832510e-03 1.215157463140505573e-01 -4.931756364564802986e-02 1.318489400521325738e-01 -1.116194782737722352e-01 8.210238403626833603e-02 6.378937883922368435e-02 7.888505769220995056e-02 9.040156956848746650e-02 -7.128991601460586691e-02 2.563867161043578008e-02 8.096135445728551427e-02 -1.898866719587231910e-02 -2.127848511631687256e-02 -9.012121863831069890e-02 -4.893594038800443136e-02 2.181807446755284347e-02 2.001400157372304131e-02 -1.177593520125699705e-01 -7.248908741292491888e-03 4.765697736214249969e-02 -4.946359835160569346e-02 -4.916306629658057786e-02 4.471133309850619519e-02 6.173850578635137198e-02 -1.363741620240928321e-01 9.542803362271935763e-02 3.002554663221138065e-02 -5.217517902117596584e-02 1.344389365953098936e-01 -1.507260290998276020e-02 1.242306282234124371e-01 -7.608092007451720817e-02 2.027935845037983145e-02 9.332249102799819451e-02 -6.729645544908001431e-02 -8.244103038249855908e-02 9.175832727087557261e-02 -4.469377275223652968e-02 -1.296204514559918253e-01 1.304381145224388083e-01 1.821556324709265040e-01 1.466428648402109125e-01 6.706480231323708185e-02 -3.469699625022297507e-02 1.642749997977396674e-03 -5.749931571558328930e-02 1.603017454598025526e-02 -6.421967092227266749e-02 -4.892819090115928249e-02 1.183300699036040488e-02 9.885065041735938141e-02 -6.589666642087944892e-02 -1.602161250383661584e-02 1.355260398822530632e-01 9.687297305062343711e-02 -5.424234667863764292e-02 1.492834260179829453e-01 5.451857016499642161e-02 -1.141047301695098937e-01 -7.170349751537652416e-02 -8.240604015614771960e-02 1.063594719405893535e-01 1.526438784397535220e-01 4.824010523352272213e-03 6.605793291521284971e-02 -7.533377513160258165e-02 -2.528535394663151623e-02 -2.404534886862241122e-02 1.317504319532815105e-01 2.221732383295681179e-02 8.020438474004269735e-02 6.228249019275319820e-02 1.067340377244772459e-01 1.074700610727765543e-01 7.239096674809507304e-03 6.559134015414103125e-02 -3.117044509327706117e-02 4.471379914610436324e-02 -1.720906591900893678e-01 7.108155427335843823e-02 1.251909659540733077e-01 -5.807264023021597998e-02 9.396718349133069415e-02 -1.020484516539054698e-01 -4.051144000964718855e-02 2.840522641190934561e-02 7.609604366987667533e-03 -1.153971144462524190e-01 1.119201245597014061e-01 1.245355121083196182e-01 -2.560807263383102494e-02 8.911913670547062793e-02 -5.398660028772719194e-02 -7.135572631763040241e-02 -1.228042856371801099e-02
4.112129581842427495e-02 -6.448277925529061205e-02 7.346563187345410417e-02 1.447961580922423400e-02 7.044053723375220954e-02 -1.156483231220940266e-01 -2.267873049069965216e-02 -2.615474883534630451e-02 -3.385505534040389453e-02 -3.800726565566227289e-02 2.914505380582775324e-03 2.367121995688222305e-02 -2.002375101967031890e-01 -1.322215572017626257e-03 3.959680857165390894e-02 -1.007486060853355903e-01 -4.068188195377937799e-02 -1.086696633961324460e-01 -1.650071485907045332e-01 -1.115755738837098526e-01 4.775429163792793696e-02 -6.944392334135365830e-02 -6.566678671437584103e-02 -1.911482935356521029e-01 1.796918842434790942e-01 7.496904545027865963e-02 2.285605620668491531e-02 4.666089782366367178e-02 -1.949796064654895356e-01 3.973546422623650681e-02 1.989931752546942115e-02 -1.006287117492107447e-01 -1.764916387650387539e-02 1.406679354812057914e-01 -1.655194555639488349e-02 -1.575094627504053102e-01 -2.194972913171578180e-02 6.656353173724748051e-02 -7.802423095914004514e-02 -4.149659786158141350e-02 -6.500461099877129223e-02 3.973556931803271658e-02 -3.911308724856683849e-02 -3.129363604255278042e-02 -2.088786792494704836e-01 3.658470582060176224e-02 -1.651561483516252871e-01 2.466345626921107870e-01 -5.923403298630213615e-02 1.312031369780322088e-01 -8.168739426707866125e-02 -4.387820538519587865e-02 -2.181989471506074613e-02 9.367693315921075611e-03 -4.424083905398955990e-02 -1.444631770674165427e-01 7.111661682822610631e-02 1.097529393297066724e-01 -2.160308122918965304e-02 -1.318905389299549402e-03 -1.150747463486108263e-01 -4.544715543855185058e-02 -6.243585625401574385e-02 3.667328757760189573e-02 -7.393660802008036881e-02 2.447556226546286975e-02 -1.392813315742292835e-01 -7.858721627037759758e-04 -4.682362731802647976e-02 -8.772925680607354670e-02 1.174784985451971103e-01 -9.958734412334356578e-02 -3.724680048534511484e-02 8.300952903922273474e-02 1.352281838461971697e-01 -1.959345131262448525e-01 7.983494040860139584e-02 4.653786367223883974e-02 4.577008727369979990e-02 -1.306871936809742701e-02 5.339140074930132096e-02 -3.103056242758808411e-02 -1.445848446594128478e-01 1.066207707877950828e-01 4.178918433541558425e-02 -2.415573935962808325e-02 2.868914698671875055e-02 -2.381044599242141194e-02 9.304454827560701413e-02 7.799383406514065909e-04 -2.982620939614473096e-02 3.180322480457652146e-02 -1.542982412457493402e-01 4.944077476552816847e-02 -1.596259220952787605e-01 1.667767309469389211e-02 -9.235119074135548362e-03 9.065134293514881536e-02 8.540854384958802836e-02 -1.212895996611509652e-01 9.946895734834577951e-02 1.265197307050025533e-01 -5.588519084948758570e-02 1.923725342059225130e-02 1.847379949319592762e-02 4.888218432457565148e-03 8.584108814121300945e-02 2.637085696592327000e-02 2.854668372136321547e-02 -6.048262288170083018e-02 6.483619690184987128e-02 1.604240526729172889e-01 -3.338231629778749820e-02 -3.238988997538896214e-02 3.986709057647745691e-02 2.065792131734471571e-02 1.115038224116167848e-01 6.922069673392051981e-02 -3.608827320223649548e-02 2.101425018068310557e-01 8.563444403573826358e-02 -7.081276708011675913e-02 -7.568194435134593945e-02 -1.064392604535640691e-01 3.769154404603646674e-02 -1.344286831788978065e-01 -1.696507522291555714e-02 1.377149649384381280e-01 -7.184205125480294662e-02 4.350171210941169986e-02 8.249719701919989989e-02 -4.627617285535550601e-02 -7.264636688904226036e-02 -4.345960359337524420e-03 -2.413265750864023243e-02 -1.038623194821435003e-02 3.774605403260006958e-02 -2.649533188978113463e-02 2.296569002724263217e-02 2.775283673455965910e-02 -1.038242510709633248e-01 4.227036419906606002e-02 9.279768046576179763e-02 -8.492413805990445264e-02 -1.053724090268729485e-01 -8.262635543824040085e-02 -1.432059074791833808e-01 5.703453672864761820e-02 -4.559112430279549377e-02 8.881157950594970041e-02 1.959984255223824745e-01 -1.663517725088947130e-01 -1.170159867152109623e-01 5.591000753758252478e-03 -1.515140747237713748e-01 -3.993567700993603392e-03 8.494177521835961919e-03 -5.882819680068521878e-02 1.015213680363897669e-01 1.308632710836293567e-01 -2.244947977074197160e-02 -1.735083549553666504e-01 6.189969266321373315e-02 -5.323805091217637814e-02 3.458901221424354883e-02 -1.196314780636451199e-02 -3.867901017414758502e-02 5.199916185683328695e-02 9.793867911654963176e-02 2.706229839613195215e-02 1.079130696428837466e-01 6.133085269410667312e-02 -9.499749506502480623e-02 1.704746402257035220e-01 4.088895381266203360e-02 -2.878336908931227248e-02 -2.431166582463808665e-02 6.211355902691057668e-02 -4.012779887878496765e-02 -3.478162615172842448e-02 -2.223151595527067537e-02 1.207253798311948567e-01 6.172261912116410593e-02 5.840251538213601240e-02 2.024191843181483846e-02 9.996800418024621993e-02 7.074660381956330256e-03 -9.024180567110899609e-02 9.452616653486510534e-02 -2.925760910689877842e-02 9.317562639305287941e-02 -2.829212727598827328e-03 1.619479222073582636e-01 -1.682763037268116824e-01 1.514594217191387315e-01 -8.811840596363225420e-02 -1.740824224514592455e-01 -2.094746886567828634e-02 -6.492136735928037694e-02 2.755004818647451698e-02 5.250362687028221897e-02 -6.458597529065446263e-02 -6.037326083685359834e-03 1.936012017423049680e-01 5.802335870314001900e-03 -1.123622583441235834e-01 -3.926023000341728048e-02 1.495132136108543730e-01 -2.339209397008261415e-02 -6.068380515696466387e-02 2.568716261121008204e-02 2.177505711210347694e-01 -7.399323384777071501e-03 8.555231843296176586e-02 8.362715353272688612e-02 -5.410683715586590142e-02 8.608077085113583285e-03 2.841916875992624505e-02 -3.344303581237171447e-02 -1.757435718952324311e-02 1.146331972471940908e-01 1.086321993676506864e-01 -9.716790029130048523e-02 2.472659995065885213e-02 1.068742815994824652e-01 -5.081804500698831190e-02 -3.035801924671345867e-02 -4.658149671008624676e-02 -3.295171504141308078e-03 1.010741580941006412e-01 -4.259803145222852347e-03 -7.525218681932308029e-02 3.863421023794705311e-02 8.591781548116635137e-02 3.286006502794942830e-02 -6.727686416153901006e-02 -3.118491060638440074e-02 -3.062068372288442950e-03 -1.481333989017468988e-01 -2.535426424099590861e-02 -5.915845993667095265e-02 -1.206846772753151081e-01 -1.326752623633661587e-01 -1.881296613309922927e-01 -1.189966075267076678e-01 -9.651797503614091556e-02 -4.935655665902160399e-02 -1.678504727467421964e-01 -1.609201862705476049e-01 9.944113820275840565e-02 9.380735431152921466e-02 1.620372494675735298e-01 -7.966980074819150770e-02 -1.139887713321393048e-01 8.365486445339963273e-02 5.445018842524455838e-02 4.685971424692209758e-02 -1.294954984557295519e-01 -8.997555843838005163e-02 -1.863794599633667726e-01 -1.203907442963812330e-01 -1.080213543921043073e-01 -1.841204203703871931e-02 -7.136768217486905153e-02 -2.079157052360361135e-01 -3.020202127160908148e-02 -2.036824427298472920e-02 -9.000738908597664956e-02 -2.504860005237377618e-01 -6.233144024494401136e-02 -1.209580589020479019e-01 -1.085087219428943761e-01 -4.182681378926460941e-02 3.361449330742266595e-02 -4.534526141315069897e-02 5.794905838807403592e-02 -1.482319809411647427e-01 1.502623350540739089e-01 8.289761472359558070e-02 -6.524357857485119094e-02 -1.043570464179979507e-01 -3.259520669106192453e-02 3.095074648654172825e-02 1.072461525883909722e-01 -1.256386122223360768e-01 -1.023994581819713257e-01 8.649888634183681979e-02 3.194119717920582135e-02 -6.475438682044926120e-02 -1.647837206411296718e-01 5.154265282919013452e-02 1.267500056171733946e-01 -8.330221754191698136e-02 1.207358492977648190e-01 1.180304765952608081e-01 -8.460612393408169229e-02 1.551480063972084100e-02 -1.123161275776865357e-02 -1.856423125813778385e-01 -1.267962575558445881e-01 -1.004509284290030086e-01 -2.164110377940959562e-01 -8.842075511196789694e-02 -1.423896619401102126e-01 -5.454198624693998299e-02 9.929045484984523520e-04 3.874346713643837120e-02 -7.243209983861530199e-02 -5.086185222364215941e-02 -8.741263511764403582e-02 4.046038640784886675e-02 -2.398520609376674981e-02 8.616748963113454729e-02 -3.218115497162105099e-02 -5.979760223111762335e-02 -8.073699540862473711e-02 -1.973011726548690170e-02 7.342214438993190095e-02 -1.740850298701600019e-01 1.032107650673650401e-01 -4.229728663009860862e-02 9.863151525462988956e-02 1.309894355928818144e-01 1.455243621674973398e-01 2.344870400018522413e-02 7.782795290646198072e-02 -2.136410383676316457e-02 -1.915232559326858833e-02 -1.534003988947887087e-01 -2.011384388645298671e-01 -1.821729639380493537e-01 3.164071206904221084e-02 -6.645618114974323476e-02 -2.979928856748197477e-02 3.298540941810960969e-02 8.692023930209470672e-02 2.339672181426111566e-02 -8.511614976737268135e-02 9.903993782043954419e-02 8.083178435340923618e-02 -6.258212519754016712e-02 -1.114938876022153469e-01 -3.029905504690575194e-02 -9.321075787684295066e-02 -1.658464109859620339e-01 1.239953296367456576e-01 -1.012200513154420944e-01 1.451319189684490418e-01 1.714255092810259562e-01 1.836341622919509253e-01 1.668972565917444667e-02 9.148765789747069499e-02 -5.777551704402908439e-02 6.806864425297153021e-02 3.278272479782586013e-02 -6.019022563833582168e-02 -1.574188825601547381e-01 -1.661773439799213437e-01 5.403002668963237387e-02 -8.623319697195939992e-02 -1.673335465135048217e-01 5.254678196797186313e-02 -1.686862368904737397e-02 8.183551664495589129e-02 4.623138245780292893e-02 -6.825314477584186468e-02 1.062622124464911860e-01 -2.227691797969529042e-02 1.796356790983882346e-01 -7.812647615665846423e-02 -1.271740229004687250e-01 -6.676147385912166443e-02 2.801166275139488349e-03 -5.122292552715086711e-02 1.968401050864083401e-01 -2.784126960859260522e-02 1.931908292249910619e-01 3.910103208697388727e-02 9.513068975314585562e-02 1.713534613805442752e-01 -2.824067205180843393e-02 1.179884690978763168e-01 8.375480498654157280e-03 6.093681573117580574e-02 -9.232186644924148672e-03 -8.560860306966458499e-02 -1.170513759309559226e-01 -1.183250916383385420e-01 -2.780678577637347992e-02 2.033271302791243504e-02 -1.232406157264933771e-01 7.304199863108139235e-02 -7.770253401524599562e-03 -2.342559361939780538e-02 -1.543515662345151251e-01 9.418472896905881464e-02 -1.048576809628589540e-02 1.698255835665934410e-01 -2.526444441313808673e-02 -5.372834090583562122e-02 -9.185495942677646131e-02 -2.216947329017948387e-01 -6.326369316635159501e-02 1.964775718374150437e-01 7.291959942984037324e-02 -9.083666142002115584e-02 3.369692915525369231e-02 2.150321801783731251e-02 1.584874266100775794e-02 9.268266098776774264e-02 1.245425416456067969e-01 -5.005869111523224280e-02 -1.681655782811312949e-02 7.199544773680638388e-02 -1.861342742381367002e-02 6.891423958462253307e-02 -1.919999243013016943e-01 -1.073794257138469127e-01 -8.758760260841913503e-02 -1.419553496230261391e-01 4.297742326289674675e-02 -4.260559540250322130e-02 -1.277153115052467314e-01 -2.101207015314782850e-02 1.557473850038348928e-02 -1.966382869983312742e-01 -5.546435817975827604e-02 -1.174267834255806886e-01 -1.162580852024660133e-01 -1.443659789558470741e-01 -5.989826142360313299e-02 8.054922201145871263e-02 8.261478142881967246e-02 -8.288452365749767251e-03 -7.518288710269078502e-03 2.859956537853408295e-02 2.058745434889110715e-01 -1.042064652212409265e-01 7.571887562266411964e-02 1.322428627264553014e-01 1.540218392396121294e-01 1.414495144700166629e-01 1.305201740546463873e-01 -1.665853702152925858e-02 -1.045967549973004646e-01 -9.334465922428016038e-02 1.083307909160162591e-01 -2.143141304064721114e-02 1.099582051350006529e-02 -1.511443183297816739e-01 6.716210199023522898e-02 5.399449639944870621e-02 -2.462941298888212185e-02 -8.947771225034978348e-02 -1.266272875690187781e-02 -3.058553785756060878e-02 -6.025304993169951218e-02 -1.249057873619459080e-01 3.096665515909867439e-02 -8.578441184439211664e-02 1.770074375212131457e-01 4.581963287666234244e-03 7.357006004980654046e-03 -3.489791655314036789e-02 3.099700553195867958e-02 -3.780109756977702296e-02 6.355645040026143555e-02 1.359002051025311013e-02 8.535083287279171538e-02 1.388654884579252069e-01 1.723700020721103537e-02 3.510760965393623905e-03 1.572203961888593224e-02 -1.835866710890357023e-01 -1.150539364521677571e-01 -1.079742547557518695e-01 -9.616290689092957256e-02 2.524440908271077897e-03 1.271868718045268687e-01 -1.208894156606143792e-02 1.373208481862895625e-01 3.196415042834771514e-02 -6.552929081365710395e-02 -1.866955473142738464e-01 -6.290548064390302785e-02 -2.507567090142904798e-01 -3.534578488211709835e-01 -3.123029724260818485e-01 -6.498593818269995936e-02 -1.563636720388104362e-01 -4.589762054000213337e-02 1.850303260731231761e-02 -1.051928806875878503e-01 1.075664039219056678e-01 5.855889029789484307e-02 -6.750499358393177718e-02 4.441577002243171646e-02 -2.206547547526765615e-02 5.139748227957737642e-02 -1.749599724014546387e-01 6.949666295150458417e-02 2.629326816852780094e-02 -4.845028593202126144e-02 5.414724150217294779e-02 -1.976002351755372644e-01 -7.685527116248774826e-02 -1.464327026065268544e-01 2.450605442204485326e-02 4.574151517638080228e-02 -2.308035810598824400e-01 4.873179758833594971e-02 -4.328720450704768435e-02 -1.893804253908974722e-01 -2.387020499517905903e-01 -3.242480160692661206e-01 -2.946649008807698533e-01 -1.724207575004780835e-01 -1.035408265235499004e-01 -1.011184780363993535e-01 1.026539953095749330e-01 3.219944519419833812e-02 -1.860294892043464973e-02 1.672866614833564899e-02 -5.226561575466499854e-02 7.166640761176067131e-02 6.100572585081676796e-02 1.071903569641132793e-02 -9.336801021790626376e-02 -1.081736592783579254e-01 1.126053115544615735e-01 5.513702835778845623e-02 1.135178706841941804e-01 4.177639918221402737e-02 -2.192350941070809035e-04 8.382606047726479104e-02 7.287598410178652841e-02 4.419431089372521937e-02 2.795789204032024175e-02 -1.134133379827941823e-01 -2.425277031128833874e-02 5.578722261045191561e-02 -2.334697039508979721e-01 -5.681768959061387833e-03 -1.423227355058960530e-01 -2.132210259215336912e-01 -1.003218669093200593e-01 -1.079844779989298613e-02 -3.904582221717534107e-02 3.178115911341167915e-02 -1.566351097643548518e-01 1.574583888987737545e-01 1.887313562307739792e-02 -1.596130754340140817e-02 1.292446327041136822e-01 1.123586616532589594e-01 -1.759271994582485010e-01 -1.393492456246132882e-01 -1.971466982981956717e-01 4.233052225756917669e-02 2.648904236285831021e-02 -1.474914173576077625e-01 -1.324305432038753449e-01 -6.484941763045436181e-02 -3.126423234103045679e-02 2.577656506642950207e-02 -1.659749842332041813e-04 -2.053030039414772620e-02 1.781665844966891787e-01 6.860874935766587968e-02 -3.502739152598917383e-02 8.905723555792385837e-02 -1.480814671565394702e-01 1.000584583632053298e-02 -2.792794917120804479e-02 6.445036619608543460e-02 -3.563625496310640628e-02 -1.183274308102747474e-01 -6.966347163889785588e-02 1.649693144832608538e-01 9.141372358108708351e-02 -5.093594188321323712e-02 3.085588110408881909e-03 -7.070928043654944872e-02 -1.435564429226091898e-01 -1.858380539781321061e-01 4.317731644690870479e-02 -1.080343172592539147e-01 7.489545154022203555e-02 3.081292804185550502e-02 4.685262025653209872e-02 -3.457560431493657965e-02 1.265823684056350262e-01 7.850261654811700740e-02 9.494079601843577465e-03 1.577621162632380503e-01 -6.586497115503435473e-02 4.248452813001459341e-03 8.132723838726713117e-02 -3.886533484228513885e-02 1.392950475053071624e-01 -1.249510576878190699e-01 -4.000573953494878515e-02 7.341171851695427186e-02 -6.700435766778249647e-02 3.956019115021434246e-02 1.957989520329751210e-01 8.138913874212834465e-02 -1.122770414775387145e-02 -2.132173849239110963e-01 -1.464838197958945043e-01 -8.108701721089556225e-02 -1.196023569511941720e-01 3.206625787830401364e-02 -1.386912488068550199e-02 5.065227337382806339e-02 2.601929118404334301e-02 -7.781309383203215135e-02 1.282134460459360414e-01 -1.143931950432915262e-01 1.044015717040440716e-01 1.040079727405623065e-02 -4.702591170950310220e-03 1.252076613664632465e-01 -9.950090433386572786e-02 1.038930051942330707e-01 -1.507567455488166216e-02 -9.581129008141521172e-03 1.279576966491385581e-01 1.157258715634404550e-01 -1.644089741274037675e-01 1.045929095946296905e-01 2.133786699680562671e-01 -1.496294531597663346e-01 -2.863526286943670132e-02 9.827463740226559386e-02 6.824974377872972120e-02 -7.209399131793034488e-02 -7.969465071530916489e-02 -1.419048372193687339e-02 -1.135122651628718560e-01 -1.274419039590552194e-01 -2.173091654521040750e-01 6.564152597131765743e-02 1.790389037807610662e-01 -5.668642929673010228e-03 -2.687199081589431576e-02 -2.336054061620627259e-02 -7.624597495145102322e-02 1.384263464407722161e-02 -9.778065226343250760e-02 1.123417972314510321e-01 5.996532248998518583e-02 -7.052184203340496060e-02 -8.370444401421639480e-02 -7.387466271999343359e-02 3.618537263267013887e-02 -1.457450893473845044e-01 2.451678215826533572e-02 -1.260863111473697895e-01 -6.696263036150540415e-02 1.157899742701444246e-01 4.308708229515278987e-02 -6.776472304096770038e-02 -3.132445537893269183e-02 1.149092334435659335e-01 1.296162594201250295e-01 -7.832463577752440953e-02 2.282843050974207519e-02 5.033864060914884642e-02 -5.454925118356220015e-02 -5.321542256693773815e-02 1.124563866109571375e-01 -2.396544490276561121e-02 -8.340727651297899503e-02 -1.064857581075057819e-01 1.154216091814218720e-01 4.044399901566422123e-02 3.787697042525852570e-02 1.210414888419391599e-01 5.184143236895966816e-02 -3.840985981901230001e-02 7.572262075734244313e-02 1.055592353975087216e-01 5.925287217572820092e-02 -8.666903446045352843e-02 -1.260236907276014451e-01 -1.070149933722833596e-01 5.450747518113954054e-02 -5.618193823553069982e-02 8.280909994693845533e-02 -3.932463366167248536e-02 1.369074828372573716e-01 -6.041993244505750038e-02 3.919011416680433929e-02 -7.849130318123259675e-02 -1.059905242790403768e-01 1.782774299955736108e-02 -1.157224481684878716e-02 -4.064705886070646423e-02 7.823486830173627393e-02 4.869063965131058963e-02 -6.393600125528152434e-02 3.121688153371920049e-04 -4.088174546349026411e-02 -1.261516560491804939e-01 -1.038771056896606038e-01 1.495273358670705204e-02 -8.979648466714578890e-04 3.687250364372320760e-02 1.781408138254799711e-01 4.178180471156400788e-02 4.916279678971152006e-02 6.519340129919007354e-02 -6.888685163732056853e-03 3.012601669288301684e-02 -5.383280297370508782e-02 -1.064836641640942577e-01 4.891241392073920891e-02 -1.136128626063738628e-01 5.716773718447628293e-03 -1.863482680506665101e-01 6.992930755693621547e-02 -9.019348196758721070e-02 -3.419892979913175673e-02 3.290938401263732854e-02 1.165661910681674157e-01 -1.300839817887836092e-01 -3.768932679404408959e-02 -2.130278073235953307e-01 7.694193575293845067e-02 -1.376733592641506479e-02 1.338662614968992304e-01 -7.253919701814419245e-03 -6.830719968935267117e-02 -8.880099782510006423e-02 -1.721775236222882755e-01 -4.902639839622877777e-02 1.190224475064534659e-01 5.388509642799754751e-02 -6.103681058830187373e-04 -8.792562983464414367e-03 -1.130976669805989904e-01 -2.146143186818581100e-02 -4.207973338290238972e-03 -5.080759571694475063e-02 -5.762690898260931088e-02 4.487218458273743715e-02 9.477649815606045691e-02 1.451034454401897433e-01 4.105587952942722080e-02 1.108476368334710971e-01 -2.364667902257777121e-01 -6.095874146308515734e-02 -1.440526199329116297e-01 -2.769708439500000261e-03 -4.282220976400233359e-02 1.332288406818147967e-02 7.823968910054898349e-03 4.423087930685143387e-02 3.443910584191721587e-03 2.655145443914195061e-02 6.155960764713581945e-02 3.316816941483752973e-02 1.231539846515817549e-01 -7.582171848040943074e-02 2.308076558579496076e-02 4.915258246477763326e-02 -7.559613147184622572e-02 3.598799022881712245e-02 1.729844331985495864e-01 -1.356563214855959765e-01 -1.625218702871109380e-02 1.207536533259361555e-01 -6.686589893077508895e-02 4.484720266541548234e-02 4.313116423639967723e-02 3.468505492752727709e-02 6.334875223192697191e-02 -2.828213666524608677e-02 1.967789674168158448e-02 -2.484967093773599589e-01 7.612532413423842015e-03 4.221904250244169765e-02 