-8.149101406228145272e-01 4.869237563996329024e-03 -5.933310147964313552e-01 3.056905855776579917e-01 -4.749519294448611428e-01 -4.155922746536906409e-01 9.365896911796304236e-01 -4.099199258861943584e-01 -5.520197386130026862e-01 -3.124420381232130284e-01 -6.804429857557179329e-01 3.187551593741171918e-01 -1.004236502881823645e+00 3.786005058231922595e-03 5.459694567987955632e-02 1.530213023852327048e-01 1.259309039859222434e-01 -3.074739037324305535e-01 -8.316592801010799230e-01 3.436883029690588898e-01 -7.027987588808001229e-01 -9.964018884815513122e-01 -1.297443919795960188e+00 -9.932199541487445327e-01 9.460036042668888701e-02 -3.175226137761237577e-02 -6.402650207509859026e-01 -5.926075049335728373e-01 -1.409078690179190296e+00 -2.889675606156726917e-01 3.741232491127940429e-01 -6.314269205113819394e-01 -2.526916639395677677e-01 3.982280347159763423e-01 -7.849115350413269354e-01 1.204796357031015230e-01 -3.121523411545178428e-01 -3.817965897319617330e-01 2.547737483063630681e-01 1.903023037715507737e-01 7.803797801400249590e-01 2.916811246912690558e-01 -7.598218084711194642e-01 1.225749584681113946e+00 -5.017038407408677125e-01 -2.498365228228068557e-01 -4.558829454843393303e-01 -8.707367004949154721e-01 -4.128269818529506363e-01 2.801110128681135944e-02 6.945213470698864411e-01 4.965789821075293209e-01 3.551509248722338752e-01 1.174876536301127761e+00 3.211477862033657038e-01 -8.203136865193191296e-01 6.523144176964466023e-01 -6.711496687518693494e-02 -1.094043951650616853e+00 -1.107187103990178390e+00 -1.242649035393282420e+00 5.618747828876748951e-01 -5.189942733329243607e-01 6.034358568675299850e-01
1.063082701663878027e-01 5.803471997258999870e-01 -3.979534389759947777e-02 7.105147367788101909e-02 -8.621880216824974463e-02 -6.861619638227424434e-02 -3.919841095134854458e-02 -1.734343958650342299e-01 -8.312933621657522809e-02 5.969588074336326100e-01 8.685037270567730339e-01 -3.780706228865473584e-01 1.443813004583735793e-01 1.609194905073976223e-01 3.583932355574419026e-01 -6.769680337760450861e-01 -1.016584518152515493e+00 8.338688372342271116e-01 -1.731260586936894386e-01 -3.333249962914445752e-01 -5.715440120517276679e-01 3.882086570904218492e-01 7.605089314831579850e-03 3.507469482863294075e-01 -1.358324592081741500e+00 -1.246809290715480190e+00 -6.734968978188287103e-01 -1.175072769345248735e+00 4.219641293389779779e-01 -5.746587814042255493e-01 -2.078994378417009514e-01 -4.595189847847321318e-01 3.502729124487150569e-01 -4.034877672698778395e-01 -1.193277563575602905e-02 -1.033671183288009665e-01 5.896893573329098359e-01 1.179615778781768626e-01 -6.011902666725034150e-01 -2.164309615181555735e+00 7.567344046958024428e-01 -2.488665907943481692e-01 1.180576107892821192e+00 -7.785731762554681801e-01 -6.068916839294797860e-01 -2.782177526809218038e-02 -7.779098756829732064e-01 -7.108273579278702181e-01 -3.446096175661525485e-01 7.083421094135476936e-01 1.380072674224400942e+00 1.364195491872730870e-01 -9.499204072517006825e-01 -4.168482260936226536e-02 7.075140630760805294e-02 -1.680038850828713959e-01 3.685701362187471797e-01 -1.119317061837190375e+00 4.411986989994562403e-02 -3.547712889295717709e-01 9.043169669271713396e-01 -3.500676044190702552e-01 -1.308245096660525686e+00 -3.984537003053185700e-01
-2.196994114562141331e-01 2.158899285892557363e-01 5.261592501597622817e-01 7.578023387452508253e-01 -4.804620130964118996e-01 -1.285085455983080160e-01 -1.148657062483086078e+00 1.525022367090999309e-01 -3.154207125619425955e-01 -4.732321114803809681e-01 -5.860922544429468806e-01 -4.339560377599277485e-02 -4.530001101652719186e-01 -9.643048042896419370e-01 -1.916642634703462633e-01 -9.247364375703522044e-02 -1.987220217211520534e-01 2.151258479991853267e-01 -3.392228763587982199e-01 -1.515952937369062503e-01 -1.419759842647221326e-01 -3.345322016533952003e-01 2.877412060838953622e-01 -6.356853588269195665e-02 3.766863330310098457e-01 -5.419009860246788435e-01 -5.191056042459190056e-01 5.110448241628908761e-01 1.295787296454079807e-01 -1.704541212894542523e-01 -1.019422961349671697e+00 -9.839083829717748531e-01 7.887955311926011515e-01 -8.333763348124939574e-02 9.577958854302844882e-01 -3.160830914747805864e-01 1.086983472542993323e-01 1.076054679939588699e+00 -2.359657520005168374e-01 -3.504782862659181486e-01 -7.257658424954513965e-01 1.352450657638789133e+00 -2.080805771907150714e-01 3.460463166501238641e-01 -3.624143254618408250e-01 -8.652235922864855988e-01 -2.725521280247558131e-01 -8.911159872590773690e-01 -4.846206244040379696e-01 -3.274664434093498833e-01 -8.996173341636325427e-01 9.588942671862641376e-01 2.070225280316268790e-01 -9.359507045854038587e-01 -2.600135950257236872e-01 -4.309601305691473927e-01 2.059025105792243460e-01 7.441329426041124462e-01 -7.348561098786929868e-01 -4.078362490642763460e-01 -1.081690452516473000e+00 -2.096601812817204369e+00 1.129336940419950697e+00 8.569255431414654067e-01
-2.455145909561076700e-02 -3.533893072186181095e-01 1.053451427860470080e+00 -1.117535761100233227e+00 6.789954221974570103e-01 -4.804904282949301053e-01 -4.575531777143262979e-02 2.042512702400268720e-01 -7.915462535664834487e-01 -3.038792637697333987e-01 -1.227639792467897006e+00 -2.406313555371897284e-01 -7.315644207549654165e-01 3.657484633516302486e-01 9.615304724947090764e-02 7.376790852485555494e-02 -8.098356841361147307e-01 5.517309098784152488e-02 1.877300076811558582e-01 -8.574117317602334420e-01 -7.412345095512414828e-01 3.719693041484913310e-01 2.464841976428130965e-01 5.999754816276536840e-01 -3.141517252598428067e-01 9.750272512090610855e-01 -1.061484360210991129e+00 -5.868937941953139559e-01 1.207531796488459652e-01 -3.812940699134959033e-01 -6.592563610629993409e-01 1.813939531733067545e-01 -7.032447039119279486e-01 -2.464567693583258889e-01 -5.933067045346540613e-01 2.338478191044602306e-01 3.841828855513513830e-01 1.068567114321062439e+00 -9.556718133348941491e-01 5.752230861459658451e-01 -1.359717527858046671e+00 -5.424938676833638285e-01 5.321386405069390424e-01 -1.401967874770432276e+00 -8.034441505665770311e-01 -2.506639872078548215e-01 -3.612586596264519972e-02 -7.016185305147585316e-01 -5.017643412468965058e-01 -5.542305626165120458e-01 7.955598976302721281e-01 -1.036456330234880374e+00 2.755611462640696341e-01 3.164090205945352952e-01 -5.049010777021984975e-01 -7.395231468935888897e-01 -4.705613667814674272e-01 8.741424886200487299e-01 5.742034364048453909e-01 1.543123890489493721e+00 -9.178338868542982310e-01 4.717491531537281735e-01 -9.139726683653143224e-01 -2.189981883775177773e-01
3.181535221773218458e-01 1.418666129157423850e+00 5.872276433011603958e-01 -5.860734376077696844e-02 -5.249568290084778432e-01 9.897114896603244061e-01 -2.754217246130747920e-01 -1.351798727741498229e+00 1.056277639755512476e+00 -4.842926114553707667e-02 -3.271137467514522168e-01 -1.117735066441270853e+00 8.354852617334780351e-01 -9.613900973671875017e-01 -1.295627820374619210e+00 -6.397796964094001337e-01 2.626592632739782607e-01 -7.234909757373917394e-01 7.682179722463793325e-01 -3.527524593751117932e-01 -6.542485551852900150e-01 -6.492102226304885537e-01 -1.162362711304165686e+00 -3.904333883194002763e-01 -6.173685757487751280e-01 4.684423299742483948e-01 5.432743776718229611e-01 -6.231840643858366224e-01 4.108595699244924626e-01 8.688782619362768467e-02 2.375721613262842535e-01 4.993497922890473562e-01 -2.669782765346725983e-01 -1.149454108222380810e+00 -5.566700567074209793e-01 2.867762104903523457e-01 3.062451222022087305e-01 5.031927921037215867e-01 1.476558204111319828e-01 -3.803076813117635124e-01 -1.410896620172243099e-02 1.062385769690554344e-01 9.825687226211700029e-03 -3.018452244717540478e-01 8.466438052645815227e-02 -9.199005343906163645e-01 -3.638260646745358762e-01 9.922453140084823708e-01 -5.398000925412960865e-02 -4.988498933874682684e-01 -6.710847454662176581e-01 -4.025310485425622198e-01 -5.263736005821918473e-01 -4.448203994583924126e-01 -1.433645267848044469e+00 -4.610280399093510395e-01 -5.375796610731317093e-01 -4.787710318537711784e-01 2.486292935831907192e-01 -4.036955574723339879e-01 -8.501662067426338787e-01 4.686482786225689146e-01 7.054765999867381732e-01 -7.110518168261326100e-01
-7.917459956784904385e-02 -4.906196608703989326e-01 -1.194441017232258817e+00 -9.111930338914566718e-01 -1.903016861780209568e-01 3.108207460517808940e-01 6.512084259963418775e-01 -3.386732132488454172e-01 6.973297123022628163e-01 4.062192841921525854e-01 -2.760395021905657220e-01 -9.322765151304139852e-01 1.329557812298851616e+00 -6.116032623578547822e-01 1.610303971236329290e-01 3.699291209433847732e-02 4.074893151863765439e-01 -1.341768082412211571e+00 -5.258924538578683139e-01 -1.233253753374603301e+00 -6.574794866995256060e-01 -5.149755218773021115e-01 -2.607340851093648548e-01 5.867331951584974226e-01 2.485375757251374607e-01 7.171153718349208839e-02 -1.369456334430236621e+00 -4.654980479023382994e-02 -2.726015796263322674e-02 -6.651452511545653534e-01 4.484299791049450867e-01 1.355026063106569076e-02 8.995732380370782821e-02 5.397684298315504892e-01 1.263972552389976967e+00 -7.192064124367968381e-01 -1.600011645022805906e+00 -3.873434899554947103e-02 1.454961538685995759e+00 -7.874546751746422935e-01 -5.234859027530217729e-02 2.658892516834934772e-01 -7.507046052076332687e-01 6.935690800817077006e-01 -1.874698690917560584e-01 -9.729267899635233308e-01 7.137458373212903773e-01 5.926823588375100815e-01 -6.804829913907084471e-01 -3.004651558958066904e-01 2.548132538648250622e-01 -1.164781971786963410e+00 -1.200540686622789260e-01 -3.954987187750976241e-01 -3.025033181075294231e-02 5.334533161335283102e-01 5.328364699421776936e-03 7.243877444529033260e-01 -4.423886288448789506e-01 1.643723472210847136e+00 4.391038972448151334e-01 -3.809300475802075425e-01 -4.362775254404323982e-02 -6.662200839708088962e-01
8.943055563571246092e-01 7.701582261782041749e-02 -7.867508449004562143e-01 3.008619104818542889e-01 -2.421495320131578921e-01 -5.809438884589951391e-01 -8.928903792421846175e-01 -7.587843994123100178e-01 -7.849704820847419606e-01 -4.292651779355812769e-01 -4.438002838032872877e-01 4.496516317215219771e-02 -1.341207284969686830e-01 3.415851136231849439e-01 -2.079224187185080563e-01 8.143344306011129907e-01 2.423122954461273404e-01 3.584882140503404258e-01 -2.106167348194891431e-01 -6.920577216184967684e-01 7.247715546395542274e-01 -1.222411094966288081e+00 2.373364343071909799e-01 1.785349115465746372e-01 2.740648778052099874e-02 -8.734668433432543067e-01 6.422888868686034147e-01 -1.616303490140547083e+00 -1.874908513987588454e-01 2.820456724487067635e-01 -2.882653542621744225e-01 8.377938442778640749e-01 -1.449304881214681817e+00 3.646950450748209227e-01 1.019969618418255508e-01 -7.737812507949667351e-01 3.957242080954314623e-01 -1.004378601119752634e+00 7.539359934421535625e-02 -1.944126510501568705e-01 2.093610085383079411e-01 -5.988018078594214977e-01 9.346932177870903580e-02 4.142657387290301640e-01 -3.681339941933232662e-01 -3.197323298680453396e-01 -4.395437078059514224e-01 -8.761898850535240202e-01 -2.202051325316142227e-01 -4.046565072171559585e-01 -3.773596088217633926e-01 -3.135694653756878059e-01 -4.610997581777106502e-01 -1.644866092705951910e-01 -1.593225619361244183e+00 1.691666240806301846e-01 4.659022840728778148e-01 4.774584338416675011e-03 -1.840302410938944089e+00 1.550269423869340621e-02 1.623110339525529300e+00 4.002493273920220557e-02 6.122122432131998915e-01 1.012164833685478271e-01
-1.043981281251430637e+00 -1.133639186107252117e+00 6.042753547196820785e-01 7.037488456793373759e-01 4.049667597903910399e-01 1.458966418183180291e+00 5.509607837206682845e-02 -1.048603844448522393e+00 6.677053085810503996e-02 6.719241149670206470e-01 1.411038647347722552e+00 3.675780744019174762e-01 -1.051698624402386928e+00 1.209865344520034795e-02 3.477343666565250180e-01 -3.351256701621947547e-03 1.755541406781753119e-02 -1.156278936959518333e+00 1.473254475558269661e-01 3.849847743912944154e-01 9.961840376438392264e-01 2.056247653241956852e-01 -5.437175258033307701e-01 2.611517048025839560e-02 -1.124143899505804400e+00 -9.877046152732111839e-01 3.045176798602571289e-01 -1.981570839170211373e-01 -2.957810906581272992e-01 -3.319583617230640465e-02 -4.873741436793651016e-01 2.141401303674853873e-01 -7.994255924299124016e-01 -3.057313026666922950e-01 -3.375882671708320681e-01 -4.339831813041540309e-01 -1.145903768931537892e+00 -1.916756885285030021e-01 1.928636052823419489e-01 3.948913900216831363e-02 -4.560101762320829533e-01 9.253822239933943150e-01 1.722263086946970723e-01 -3.915098942997548015e-01 -6.188173561840755177e-01 -9.225665653330042404e-02 5.214818550454246582e-01 3.496647451590991773e-01 1.118337128236603473e+00 1.083426506557512381e+00 -5.888525281595538008e-01 -1.977882626441397063e-01 -2.221868206601784745e-02 1.943916972388807229e-01 -1.700660553646214934e-01 -7.393284530251466036e-01 -4.120251419443746177e-01 5.372451143076294455e-01 1.379294022340641079e-01 -1.929145638322472545e-01 -2.799014709162124803e-01 -6.072599658915426302e-01 -1.922848663912597678e+00 -9.151373955057853227e-01
-4.208102878209123987e-01 1.011811388512322829e-01 -1.643131819792218895e+00 -1.794932393679949501e+00 7.655915002571286876e-02 -5.219813447194991962e-01 -1.099083371741845561e+00 1.870454019863498074e-01 6.634157763565413646e-01 8.556283168755121626e-02 -6.908351152156180230e-01 6.114077875739688528e-01 5.220132603861126208e-01 -1.042677479596320511e+00 -2.731451192614700041e-01 6.417804140174424576e-01 -4.250945444463976042e-01 -4.289781723954524395e-01 3.762901400504279903e-01 3.915550880872086248e-01 -4.256651842962688725e-01 7.866210631874864800e-01 -4.600389642440305682e-01 -1.114862294250559493e+00 5.637288644254467851e-01 9.588664576288817576e-02 7.549953907557139798e-01 4.026737094669703421e-01 5.823566131105628596e-03 -7.805932026893527276e-01 -6.080552377441137551e-02 -1.127014513959754050e+00 6.379341903458126684e-01 -4.567931962074318897e-02 -8.575399700407524417e-01 -1.924471809793524835e-01 -1.386502517450354799e-01 -1.753893765769859491e-03 -7.706444451765240844e-01 1.333511753215193829e-01 -1.000334586521939295e+00 -1.015429540317618118e+00 3.617892196375928626e-01 9.798316521929424372e-01 -4.068869785893840518e-01 1.923999532795483275e-02 -1.430558923867379706e+00 -6.877782872663001923e-01 -6.795799020611601460e-01 -6.360715064208170011e-01 -7.469005309023344363e-01 -5.886303721628699526e-02 -8.501247960616884480e-01 -9.140812559188925546e-01 5.526754773556807887e-01 8.850204997140218577e-01 -1.403982641202868864e+00 1.369386424652697221e+00 5.108772324782696189e-02 -1.328733784082527070e+00 7.985021839691395229e-01 4.123242845190713823e-01 -1.077995133681027007e-01 -7.429130644304974274e-01
-1.478734987808345336e+00 -1.537374814215179741e+00 -1.171722805012885005e-01 -2.771554647167139285e-01 6.049644933488686899e-02 -4.638147399762860279e-01 4.085959577434992163e-01 -5.054782143673391959e-01 -7.126926965417772486e-01 -6.849072897399315352e-01 -5.371008422379490721e-01 -2.873271900871899875e-01 3.925689651402975433e-01 6.703164773291053757e-01 2.614414825303166823e-01 -1.858433115916197753e+00 5.064121893283508591e-01 3.830226553177988325e-01 1.857412294442281619e-01 -2.393690813340896839e-01 1.959944581283349363e-01 -2.160399193124250550e-01 5.974941963641143550e-02 -8.980230753953477585e-01 -1.061928421896756847e+00 -9.796123566960761309e-02 5.515091917131558219e-01 7.004707061794106515e-01 -2.720523207973946089e-02 -9.708501762698871218e-01 -4.605709382069562152e-01 -7.365142366690100584e-01 3.078162716814735744e-01 -8.422333502736839561e-01 -5.897816250618662659e-01 7.411315185592889931e-02 2.259974622982325043e-01 -6.381027590635734992e-01 -1.008300078299338320e+00 -3.555161574260242568e-02 2.013658957479705081e-01 -1.195685886767202000e+00 -1.852099119405085093e-01 -5.660138551109579197e-01 -5.149986707661009522e-01 -4.574167499265678616e-02 6.757301119792795685e-01 9.937190009078813446e-01 1.220399767438911764e+00 -4.874874857023625552e-01 8.608411208857055241e-01 1.679046225173239093e-01 -3.884181783705916158e-01 2.695341725213924455e-01 6.051080913244806236e-01 1.148701749277221129e+00 -1.046528052881152249e+00 -1.162027304698217911e+00 -1.568239590199165034e+00 2.906273283073361191e-01 -1.065465421942290020e-01 7.580246541903300217e-02 1.384164979191625733e+00 2.301104623445355060e-02
